<?xml version="1.0"?>
<opencv_storage>
<opencv_ml_ann_mlp>
  <format>3</format>
  <layer_sizes>
    324 128 64 10</layer_sizes>
  <activation_function>SIGMOID_SYM</activation_function>
  <f_param1>0.66666666666666663</f_param1>
  <f_param2>1.7159</f_param2>
  <min_val>-0.94999999999999996</min_val>
  <max_val>0.94999999999999996</max_val>
  <min_val1>-0.97999999999999998</min_val1>
  <max_val1>0.97999999999999998</max_val1>
  <training_params>
    <train_method>BACKPROP</train_method>
    <dw_scale>0.01</dw_scale>
    <moment_scale>0.</moment_scale>
    <term_criteria>
      <epsilon>0.01</epsilon>
      <iterations>1000</iterations></term_criteria></training_params>
  <input_scale>
    7.8683487178646256 -1.161939402475797 8.3054373078159571
    -0.95829659755764807 9.1947711367408367 -0.83253801219712231
    18.848131327284321 -0.64831883115083855 13.957901079521859
    -0.50270118006984965 28.151187181717713 -0.45576773995848546
    24.206066647192973 -0.46052648173947908 23.483878051999959
    -0.52027469126608805 10.798753978913286 -1.0671852782444147
    8.089781033641005 -1.4424562586183667 9.0315491887921162
    -1.072461964553076 10.253148346827205 -0.78367309813553354
    10.72837407879271 -0.63120573050859763 7.8716863746923567
    -0.75489655856863314 14.953482128699353 -0.57859757310924276
    14.270585459182968 -0.58347873271138329 14.993727825006209
    -0.7002400757754742 8.2513713201022725 -1.3745757902939881
    6.9450456979297943 -1.4096361044462866 8.4993509304122661
    -1.3293427397457431 8.7525898641913678 -1.1725097492458594
    11.58065506108403 -1.0134672623086214 10.528320822016171
    -1.1079396464849578 14.996119853230311 -0.82185750121225687
    13.063679537155792 -0.75024621011466786 12.135563560280529
    -0.79306807824362857 7.0932365226153182 -1.1973174986252753
    7.9527187495337381 -2.1803262334677003 6.8693893692282284
    -1.4975516746810966 5.8820489936140108 -1.0475997978943485
    6.562278936900082 -0.90196021874930676 6.2986608462301126
    -1.1057575314179362 11.703052063711278 -0.95023816909394554
    11.442437624408152 -0.94574722309830883 10.204500865646844
    -1.0798766465508871 7.7540513108725966 -1.9195619082472648
    7.3034816376481944 -1.3497319725647425 11.34535913607942
    -0.95836133698367465 12.973742801902073 -0.7554208839620381
    13.471138837999234 -0.69551482181931501 10.572603914165285
    -0.8074842776036788 15.591023715716927 -0.59039706841949324
    14.88204502267139 -0.57071896059095151 16.317119061438614
    -0.71507945096966852 7.409585523867201 -1.3018185462015797
    7.7996095448203668 -1.6448478822362962 10.928000954707899
    -1.0986838770131557 9.2008732319027686 -0.84693358738810998
    8.7502138668287603 -0.77341417727708395 7.7247902528281767
    -0.86344743430436688 10.553317050899949 -0.73170476912042703
    14.266785197794183 -0.72585329512844232 15.348413431911709
    -0.80639043523252152 7.7716472565203016 -1.5540955739339464
    7.2965864992121672 -1.7361197647992392 9.5267076024078658
    -1.3963003881345357 9.0837274136326105 -1.0686443552423912
    10.737736110634946 -0.95351522160974522 10.065505673460363
    -1.045816231630275 14.578106706052262 -0.87133579739776768
    13.880321777566767 -0.86415244788635781 11.696657246378313
    -1.0003502230602981 7.2212767792832082 -1.5360642198464018
    7.6938581947408844 -1.9583075833193264 8.7847586482949929
    -1.4265069272107929 8.2207767534056675 -1.0431852162919169
    8.5786590608757329 -0.9761085497062798 8.1111215985978173
    -1.0362768305962446 10.696643942522979 -0.92963524097930872
    12.373360942937415 -0.89011376733897962 11.606428725639114
    -1.091654234615612 7.5583421505229751 -1.795985484125955
    7.6084168317609304 -1.48670602974399 12.99670939563716
    -0.95749496226753739 13.256127995045798 -0.75681992197422754
    11.549913309547588 -0.74478806200828562 6.5118744135471607
    -0.80035918031480002 7.3978027189349964 -0.70491399914797859
    11.727067762026453 -0.70377653321748801 15.811346473118222
    -0.7724876082433324 7.9276984670203596 -1.476627603092199
    7.0125805440393378 -1.2792518066553402 12.479199188833219
    -0.77998649702342626 17.177284558617636 -0.59950578869035787
    15.959723842895817 -0.63518264015145132 7.4067419732529434
    -0.95884288607304968 8.9712336686743299 -0.8481904840218375
    13.072543567934753 -0.82985414406607361 14.012703850270121
    -0.83094756785215429 7.2567328966921814 -1.3169591803674594
    6.7121065995962992 -1.5399394768647077 10.85738227337561
    -1.1888727703872888 11.227870608746098 -0.91759930613533036
    9.5065632075475719 -0.91339305644101754 6.7116931601159031
    -0.94062223126905653 8.4441628117979466 -0.84160808631868711
    13.389339902061497 -0.81335358745532249 12.308501613017409
    -0.91199787495386342 6.7509066640231854 -1.4596604440762491
    6.1546105269519602 -1.3409870825268901 11.103664506880877
    -0.95598832975371106 14.044781394484186 -0.80270210003368014
    11.722042377499905 -0.98549325418208189 7.4916364300591454
    -1.460996123268544 10.024475409656805 -1.1663365514912309
    13.529875142421803 -0.93584309014334732 10.837608319203818
    -0.93350965087019133 6.21598828632911 -1.3169292552043024
    9.5481463799002189 -1.3307219457007742 11.915205408224505
    -1.2987075242327661 10.95124463341919 -1.2815086509416682
    10.899694114957235 -1.2486470149049635 8.8532201451091446
    -1.3907223325214186 11.241599762369248 -1.0729216037598674
    12.450016957362825 -0.98105588040572533 13.836837684870606
    -1.0030749810598996 10.18650108759303 -1.2721366326395502
    10.016906990541704 -1.7659916772840416 10.779271596742273
    -1.5388760295568573 9.5557198205182772 -1.2229138186305051
    10.557066852435723 -1.1605561247005247 8.7843225582945035
    -1.2819742360738453 13.593402503422752 -1.1684152347561452
    13.643884024503761 -1.0996501274406847 13.546003590057623
    -1.258720078700672 10.011460033818288 -1.6263890483245267
    9.8237985303425006 -1.4691582803641232 11.94083503501245
    -1.3182148352277903 11.187943485055472 -1.3861774499633488
    11.038412046682412 -1.5112940603458542 10.222479637067552
    -2.1281860870916907 10.803129911463893 -1.5158077288825296
    10.69140709438671 -1.3900514748097974 11.434906651752287
    -1.2726470489871091 9.5269104538046196 -1.4034433146830521
    10.281288328349268 -1.9881856066947381 10.533885934107623
    -1.5866771913660602 9.3739845447360466 -1.3317138389105427
    10.079823016068328 -1.3975324393627375 8.6930646216854051
    -1.6095730968524566 10.693331124641654 -1.4491668803487356
    10.361635653057961 -1.3464801108365005 11.499270089540186
    -1.6062033860814793 10.562684767037819 -1.9969093932065523
    9.3162950338062629 -1.8588556400497378 11.066045683330961
    -1.5671489038113242 10.097753826054769 -1.2117374590336916
    11.566682902330397 -1.1312412454551775 10.026502645044223
    -1.1326976373407627 14.003201172313407 -1.0576398062348806
    14.740281650433872 -1.1000275720147243 14.649832849633841
    -1.3445211714542724 9.0600610645651614 -1.6841608951740998
    8.8448255886387805 -1.8052443308671193 10.951450070360034
    -1.5640357315281646 10.225815396688327 -1.1963428873899717
    10.881334821613299 -1.1538129786926807 9.0518280073827189
    -1.1310012506522478 13.238857718328543 -1.1015170699042698
    13.698054411577536 -1.0670629649286947 13.89715657855079
    -1.3575576038474249 8.7547510433701632 -1.6928324554814209
    9.9227397491169178 -2.0657870023448095 11.848282949119131
    -1.5937942643886556 10.614551675378967 -1.3026347921753596
    11.759298693612916 -1.2573591122461925 9.6416409027374339
    -1.2692028074851418 12.044164819499205 -1.2639812424620189
    12.034627817965523 -1.3129821565278661 12.126564081735454
    -1.6455860671644866 9.7180455490884388 -2.0018558088875791
    9.1631270209180453 -1.8565273760232688 11.168803248710844
    -1.3884748998490342 10.045737448451407 -1.1307844945588885
    10.467954679423217 -1.1899383552195653 8.9562588341783904
    -1.2026259048485237 12.447470693487382 -1.2210381981515315
    12.674129516445619 -1.2580657358943832 11.033304759314177
    -1.5341771999558538 8.8606773062995732 -1.8004768719939115
    8.1805753284445029 -1.4369823409847646 12.671219894379361
    -1.2013083335503505 11.073709636262173 -0.9483798118012704
    8.989437921568376 -0.96282363456527276 6.1950246051511275
    -0.97541933776667167 12.051887873781851 -0.97525155904787963
    15.206197646041286 -0.89841293414416368 15.75750267918267
    -1.1030242804395809 8.2781219997350757 -1.3640024726553137
    7.6117548067785537 -1.2187798503713934 12.858916389401196
    -0.97712416067540464 11.05428864218216 -0.84662947272711653
    9.9080140392642306 -1.216877869850477 6.5639072730854044
    -1.6141743441123571 10.900652315188109 -1.190791415813292
    14.896021389847759 -0.91893042524097779 13.854999166163459
    -0.96946404327280766 7.6186915964297777 -1.1703018557893794
    8.3997079738766036 -1.420374399211485 12.637638658941578
    -1.0798270348192094 10.290821058493304 -0.92891653610694647
    8.162058221214922 -0.99664373457315425 6.1618401709310904
    -1.013410935157963 11.971941472286286 -1.0326915853441465
    14.511597720459054 -1.0088774666244567 12.497047113713128
    -1.1987508585947506 8.032623120474204 -1.4378744051506995
    7.6907303952882025 -1.2146141541108435 11.483196297660088
    -0.9774845637740337 10.209068915291816 -0.95907894441633523
    9.1331759812121476 -1.3207682002433991 6.4630244059138215
    -1.563796772028486 11.279751509251605 -1.1256598836824667
    15.335148070616544 -0.90888983463659068 12.923025107883811
    -0.99402897372845411 7.5853106727603983 -1.232705144071746
    8.0291670837109503 -1.0984491544856037 13.361730368397401
    -0.93569036179451004 13.368058747843429 -0.94761388216068154
    14.47844188351921 -1.0640435713682952 9.9723951497689143
    -1.360304463007965 12.504909962971643 -1.283118638985886
    9.3988102066777994 -1.2946984726164503 9.4799933384163637
    -1.3005689915700984 7.54073062128841 -1.2280204758707911
    8.7530181153422362 -1.7341169795263558 11.677121134439522
    -1.348338159234028 10.971196669198141 -1.1759816035498438
    11.064914881012822 -1.1728444383209833 7.9984138983209991
    -1.2197429595534226 9.4471255265374072 -1.0899824429134455
    9.1901943093588176 -1.1218614294963851 9.6779778182292748
    -1.4585428271011194 8.4628069718684404 -1.8121067084950564
    9.7939107502725289 -1.3560510924420759 17.147152872667114
    -0.68454950257099201 15.104993803665463 -0.62304711270724089
    15.326158141664415 -0.65661007528172755 9.0085750141738519
    -0.83683380605132196 12.4656552791511 -0.85187114818744714
    8.9923209235438204 -1.0809449487711493 8.2701994662913947
    -1.1904496798558477 8.0217966860167174 -1.4935798043943032
    9.9017161205316864 -2.2372855492687846 11.300698759698536
    -1.0570272628540862 9.1476158670244576 -0.89508912068409263
    9.0344799694336704 -0.89019535922608195 7.4175613935223668
    -0.98660927508691576 9.9068224499221902 -0.86281451529193565
    10.388811006468575 -1.0418308694417771 9.2605829457321072
    -1.5009080380185829 10.730512317523159 -2.489300825221842
    8.1611963107364858 -1.6580511646856138 12.577002552026732
    -1.2410608844739652 12.45281181432706 -1.0642750748774639
    13.526630721797652 -1.079432217024936 9.8719924461677042
    -1.0719657430369014 12.860219067011155 -1.0358012715150409
    11.900414095547843 -1.0508964839987218 11.315203236245827
    -1.3432854360210393 7.8556213765148613 -1.7278498758672236
    7.8426570236805464 -1.6840296895444835 12.922757287144085
    -1.1569222045627949 11.620785511239054 -0.93535191753025615
    10.880285456965051 -0.98700430437908648 9.0260492506658547
    -0.99550874107892573 13.705939870622283 -0.99602595838305208
    14.079178258814755 -1.0424534742105482 10.332434419625953
    -1.2585725479598884 7.4237576712114679 -1.696407243284858
    9.0607502921412628 -2.1537388912812649 12.509847680513101
    -1.0897080343410086 10.066603173818812 -0.90776939709296567
    10.307469222333671 -0.88826826977614226 8.6158421181377385
    -0.95561464881427116 13.065251841058911 -0.83363144757852137
    13.104800548355938 -0.8996059206525765 10.229231504975749
    -1.2881423603484474 9.2373051339722281 -2.2200623634231116
    9.412523076196134 -2.3476778959686007 12.367379937434436
    -0.9924024505016571 11.018447756328561 -0.85024353060362134
    9.7239382736540261 -0.84768795887133164 8.6393062460756305
    -0.8997064542306451 14.286280533066568 -0.82436911714013905
    15.608522941310238 -0.87999174180150619 10.168805103158364
    -1.1635196461498305 9.2984645468853788 -2.3579465028949391
    7.0097087723641547 -1.3960538005160035 13.309421673016431
    -0.88819342613131136 11.179702530410053 -0.75777764283660454
    8.8906084200418434 -0.85401507344672822 6.1544023159652088
    -0.85601992398910676 12.426108979368335 -0.82434888631244529
    16.216261897353895 -0.8649331862190538 11.522984577081113
    -1.0740345646556528 6.7461211793141951 -1.4780507657884556
    6.5536741034643962 -1.3274887589683686 12.639708389241168
    -0.92711130582671375 12.258932170134484 -0.8481714780813896
    11.310549043877923 -1.0184013720039526 6.8691261608212981
    -1.2588379427917031 14.644655270714965 -0.9121378997888564
    16.491046774293572 -0.77285383220690107 11.630740748717061
    -0.96637972873361844 6.4033357466577803 -1.396370216517842
    8.5226297552356396 -1.9395746552901802 14.269607923136228
    -0.84905969461389008 12.171879451302718 -0.73713606175930979
    7.8783727909447565 -0.73486851674104181 6.0226016338889865
    -0.7627876401876672 13.03687651219288 -0.68789793712117109
    19.079643000515755 -0.74959437521483296 11.913957423685808
    -0.96324968122252808 8.1835450626194337 -1.8980425152740097
    7.3474936745607975 -1.6160793116053223 13.12414814499895
    -0.8759683065686622 14.589712406837554 -0.79578078877564462
    10.166088613805252 -0.81453349707694422 6.4804586475422319
    -0.95005337400941436 16.202903706492332 -0.71783016390163401
    19.603507501753715 -0.67553892249729097 11.187367034798807
    -0.83744719491673847 7.176706308262597 -1.5509348237887428</input_scale>
  <output_scale>
    0.52631578947368418 0.49999999999999994 0.52631578947368418
    0.49999999999999994 0.52631578947368418 0.49999999999999994
    0.52631578947368418 0.49999999999999994 0.52631578947368418
    0.49999999999999994 0.52631578947368418 0.49999999999999994
    0.52631578947368418 0.49999999999999994 0.52631578947368418
    0.49999999999999994 0.52631578947368418 0.49999999999999994
    0.52631578947368418 0.49999999999999994</output_scale>
  <inv_output_scale>
    1.8999999999999999 -0.94999999999999996 1.8999999999999999
    -0.94999999999999996 1.8999999999999999 -0.94999999999999996
    1.8999999999999999 -0.94999999999999996 1.8999999999999999
    -0.94999999999999996 1.8999999999999999 -0.94999999999999996
    1.8999999999999999 -0.94999999999999996 1.8999999999999999
    -0.94999999999999996 1.8999999999999999 -0.94999999999999996
    1.8999999999999999 -0.94999999999999996</inv_output_scale>
  <weights>
    <_>
      -0.11287708273561547 0.16034607808016221 0.12945795496487753
      -0.17269918299830103 -0.22525989234417468 0.26007185607938266
      -0.44088943040727546 0.34262938114929453 -0.32309753293036708
      0.096223722977027068 -0.3013415303446792 0.14617287934383036
      0.22546082053969388 0.17484353269211828 -0.26130257662268963
      -0.262321686025067 0.04665425210814611 0.058208228836716801
      0.20391068256360301 0.07862511357316132 -0.15839754852907878
      0.064506797433177249 -0.21962436503540436 -0.1622288975234302
      0.27007493389066145 0.20544311725873871 0.1803908591644372
      0.042942932259392767 0.11647381126642886 0.22526364015022915
      0.03335879989177179 0.1690576840524918 -0.38006012507131709
      -0.33369279914983518 0.25744316972090531 0.28214300972996442
      0.22542942443416963 0.3323459123330158 -0.052275807994732297
      0.30917024029371182 -0.18541963182653509 -0.26038212029557317
      0.31205988576999688 -0.32343310416265625 -0.43365404178405736
      0.086200655084723354 0.20151126581363854 0.17099042246680163
      0.31344917376617276 -0.19359908450084773 0.2774480943871655
      0.37933937529910788 0.25770276607661163 -0.30616963286967036
      0.066439165175516693 -0.14991311290118406 -0.21895514352021633
      -0.27285551934316266 -0.28171086788373884 0.17343225831864531
      -0.27583800235666145 0.19177953929080824 0.08802822597853821
      -0.19463805607249146 0.42251221046500148 0.16302255069380647
      -0.047225903362763715 0.028819267098652363 0.12260772822747076
      -0.4361441895383753 1.0935749466037197 -0.32825875499934137
      -0.25782608142276958 -0.026396287344259167 -0.30933038998335116
      0.050249735593921298 0.26152629375133629 0.34152847369115724
      -0.17990931931011597 -0.0094263518480832715 -0.094870960581705757
      -0.1991209959247853 0.031420945514570156 -0.25373001836705089
      -0.11721520543432222 0.077495190707326633 -0.53109108745508204
      0.61506144915988381 -0.13350251881874489 0.18110516259647569
      -0.31322907751052159 -0.37210788490372088 -0.019164392813156288
      -0.22206528232930303 -0.27195510677099866 -0.52678870753432272
      0.21577892433584195 -0.20887220035971424 0.27894043132029439
      -0.2133539962848533 0.24876198573638458 -0.50063788625627237
      0.42470070928444664 0.53849721244278448 -0.34661975671987788
      0.07830741483091444 0.24154486503545713 0.161227325333647
      0.19702282765106818 -0.28213695127862232 -0.2068917582222792
      -0.20695777648385111 -0.13051994115580401 0.031028132581539337
      -0.26163492810299704 0.26334306859797513 -0.20505000281460167
      0.28211152278730267 0.40570006038451739 -0.07983893042860768
      0.16849210122722194 -0.60723391005266147 0.29717942311783002
      0.14566013687305268 0.057612868215518136 0.1877444800602969
      0.059943792703581279 -0.073885582653316781 -0.1579433586417858
      -0.041703613002054246 -0.31747969422708922 -0.2567341489314886
      -0.23814977722893521 0.30881871481540946 -0.27091512074070234
      0.33049576074192599 -0.34441649989143114 -0.080301378716159347
      -0.26283030706117394 0.091092949281193547 0.27394095295849324
      0.084776775363012868 -0.33525305560580621 -0.31355261566131815
      -0.51369082826433943 0.14777317911289875 0.16127330045433946
      0.055496563189808917 -0.17005042412902177 0.0731945511801676
      -0.078491808594004189 -0.21720936236903648 0.27534749711029433
      0.19490333706926169 0.12670594168739913 0.31068313184687163
      0.17990619225710372 0.3075370518012247 -0.026648976167822289
      0.29509159282187813 0.10195203917755974 -0.35848693819423605
      0.26393563741563292 -0.13316675474232129 0.22020238735863384
      0.40244899033770937 -0.14088302052656837 -0.20592270470114968
      0.3800937652684 -0.28757771443708352 0.33588708132755934
      -0.34351088825107168 -0.22491871621633441 0.1860764355576231
      0.052338866978019975 0.23022477782193335 0.35252612747646078
      -0.1766992029112468 0.31840402497308645 0.32128952304359987
      0.31125348711508805 -0.33566122221972344 0.05770788913275994
      -0.22046197463512118 -0.12692730777214387 -0.32880826797346352
      -0.78341779350503149 0.026229706635988222 -0.34987723131106951
      0.17734956643138955 0.29402553772323969 -0.26322573393838294
      0.78223001473000586 -0.25347627550985191 -0.031434874594571241
      0.51089499991997267 0.19712173017034842 -0.58544754006879263
      0.044218567344056069 -0.070423512019370568 -0.13686115706373067
      -0.16789829719195515 -0.06686393084550657 0.25234659589097364
      0.31706289325298337 0.33794897033431703 -0.23715821256700426
      -0.037546417408842132 -0.036882649598182243 -0.18814281371179098
      0.11290514153136111 -0.29712902706292138 -0.35497378904429938
      0.14587298386958913 -0.55844579056864097 0.20790659929511668
      -0.11039164035631671 0.25241893576702301 -0.29294061588477222
      -0.27495989349227817 -0.058062617635200882 -0.27326934363136707
      -0.28691013324840664 -0.14788326853678097 -0.075296445239626794
      0.012948687316686767 0.32633979207160146 -0.25874106139516378
      0.11713415944937913 -0.028955142119308972 0.40318473006818006
      -0.41843516459634639 -0.0087072944622511115 -0.13777782021839249
      0.28150036172616399 0.18823722830353537 0.24570506393789293
      -0.27415223192138977 -0.16817982927191147 0.33657918147392601
      0.12200591193924934 -0.010146315550957968 0.08267152407968674
      0.28890655793483788 -0.22244907340305581 0.27168487607023645
      -0.27821922734220828 -0.095643628116771393 0.15627407958755099
      -0.51568450554320922 0.33141324440597358 0.1209720986716835
      0.080364245644881219 -0.034687777049273026 -0.05756506665680787
      0.028102660881900794 -0.155507244710715 0.30813492990275626
      0.14734972845110023 -0.34833396716507731 -0.10042036297072382
      0.26563503691744172 0.11784544859145228 0.47127785589508897
      -0.16613617420041593 0.20087936117808416 -0.27508301600154927
      0.13088276480725242 0.13386521062996243 -0.023526617972190043
      -0.20421768705242002 -0.20066043314119231 -0.96066899144280227
      0.0082173399791505581 0.15488048278690603 -0.077370482548299563
      -0.13631918749452313 0.25204969263259847 -0.064350861889838878
      -0.16936972864248212 0.20353074005260197 0.1423337483534024
      0.13067677459665331 0.12956647374977664 0.18390024296193527
      0.082421196139036687 0.25359872306299419 0.19084120319576001
      0.042086430089204027 -0.25820294392422433 0.13777952414663577
      0.58996898374124329 0.1440854414554921 0.26985645286429633
      -0.18245355278428921 -0.050002678483917935 -0.079623512298251389
      -0.23447732784297121 0.24004968157150031 -0.19885456036461449
      0.36980756237897189 0.33912942636887616 0.24158326997376586
      -0.1897732201020278 0.24457419448561685 -0.18292794698311482
      0.18979524616572119 0.14896973845541187 0.19944503704112385
      -0.2708663715884268 0.13154988706478032 -0.23096423738450561
      -0.13868892358496959 -0.22557838836257763 -0.33618970005185256
      -0.0068711115760795574 -0.24464236217087484 0.14815226400026141
      1.1698293480151345 0.11724704858481781 0.94469058181280452
      -0.61207153869857112 -0.37752719642591381 0.27695142812800289
      0.28560864530084079 -0.6641824923626487 0.05091015226323968
      -0.010421154307591824 0.35830047258777498 -0.22643232767865376
      0.28047997020493021 0.46293334498911626 -0.11703773915804365
      0.31821049703393905 -0.28354380884533731 0.16135080656523579
      -0.039301749174754104 -0.1897703299006728 -0.54348626788231735
      -0.15386265671359384 0.0026139387128840176 0.16192838040544261
      -0.026013268013477905 -0.52303368828222707 -0.17615730603294541
      0.25477528824672802 -0.25151587124546421 -0.26849017042289403
      0.056924439191530188 -0.18608375647792302 -0.23554478125136194
      0.15447449013995623 -0.3872779672164246 0.10046940627086456
      0.23578072872278877 -0.18469019428544339 -0.26319703347047474
      0.15002158161137985 0.2228345361991258 0.51464971934854864
      0.02441826733147829 -0.40100675730656782 0.20907546017196596
      0.74557098644990472 0.6078622315205624 -0.25621680120761248
      -0.02343386236517651 -0.50519900250546479 0.054801051676893121
      0.11238025982382151 0.16079126856476314 0.17910280910278126
      -0.19225431314529523 0.13046764881250453 -0.3087686393306352
      0.24730792751959438 0.12011994670752428 -0.60494483740670624
      0.28690615629353361 -0.062458752830892098 0.32021395382342749
      0.0086490839175870741 0.20192903223369577 -0.14455103025781521
      -0.14905201439349267 0.13757348035761907 -0.24957471894938493
      -0.033403746734296469 -0.1325317745177709 0.13212676973609719
      0.18240996116967326 0.34219590568680658 -0.15901149592512573
      0.26104650325735623 -0.20285310417161237 -0.013325049314550159
      0.14335082109548983 -0.097536932033975857 -0.18357947280588582
      -0.20056197986812541 -0.76639935134078363 0.1426885917923596
      0.096421947322457582 0.10224902452941348 -0.11526743877083824
      0.0095821414889867996 0.17550085913176725 -0.015805198854096581
      0.13286653208080376 0.14406531524907398 -0.092568762817051523
      -0.05726201165562033 0.044738700747213082 -0.14839788552589075
      0.25321008541899565 0.20574279936579939 0.020092868286027684
      -0.16520023747424314 0.19400336764357529 0.34562042795943193
      0.11607009354032392 0.17240064363266019 -0.16075397764986293
      -0.069911709209163689 -0.068628978134582672 -0.1684898807428355
      0.1683740964979909 -0.22015465478112078 0.75209896210054838
      0.18810194230580898 0.025248163742063595 -0.3506263583292355
      0.14782351038566693 -0.083087416866514413 0.16961551844475836
      0.18847397237864216 0.17616843365270515 -0.13999083424696276
      0.096298666303610073 -0.22860591131500085 -0.064167865738540358
      -0.17120842536616526 -0.31464398555804557 -0.12062371696588384
      -0.15677198082464891 0.11896570653697199 0.12889364425019453
      0.082801046126227767 0.44456235970356439 -0.60969756308254741
      -0.13499481081007061 0.20639179189015291 0.15174038910054785
      0.36041437869569659 -0.3421023344990754 0.3704762653070226
      -0.080374215338487487 -0.26030136658174036 0.35824712531165909
      0.20901153983455287 -0.22755318015489259 0.083144811555265416
      -0.012720922506821497 0.069495226590041773 -0.0045467963280508101
      -0.099480734880316335 -0.24236808822166292 -0.22079084095559628
      0.28054226329637216 0.065315594368619223 -0.16991010864336167
      -0.79025617467180487 -0.10217624747915184 0.10954072423400518
      -0.13913208799487797 -0.12802277139258678 0.11536138919709166
      -0.14793555566603539 -0.15334181271206918 0.2808022970382944
      -0.23911084921353629 -0.10805366449549186 0.15229274776052298
      -0.16481713371008097 -0.18736820788228559 -0.66794423896508126
      0.10529027002805391 1.298971215413498 -0.24211331923697305
      -0.40808558406347906 0.14798981769086614 0.72065291294581224
      0.17708740989819002 -0.076242789194462757 0.16123809296423705
      -0.013420387763821526 0.096189386987973621 0.055455136208482622
      0.24411463962577665 0.12446161638886248 -0.13703119597328317
      0.16282762449026023 0.13044464870048103 0.19029768985307371
      0.22687845606799875 -0.6846953385846517 0.14873426079489629
      -0.26277013991178683 0.25169094819041893 -0.027705127260994594
      0.16919091649463042 -0.24740859117155622 0.05669892620268896
      -0.08925013620934516 -0.13674942364785284 0.050210354112554964
      -0.0085965782500014749 -0.10307333547186061 -0.40295508053107165
      -0.041776107869122357 0.075033467990563527 0.32264891061173995
      -0.044209408463062018 -0.059411351920542997 -0.042226639022939029
      -0.064975679644662193 0.038591772664406512 0.044661755730871229
      -0.12766309504620574 0.18388482915167614 -0.039632543685544301
      0.15403081596908716 0.07123508531432847 -0.098667292087878458
      0.16985617879568951 0.11835929168874369 -0.03330970072933874
      -0.016533306499145105 -0.14281018276749405 -0.58556197139332811
      -0.08881783830464958 0.11714867902105906 0.29117351271110259
      0.075276895198888319 0.024628384610291629 0.089347390426912338
      -0.023607166692356282 -0.23201222603159147 -0.043640865878452062
      -0.11609907936417194 -0.032493920693576969 0.04153397189021648
      0.45373026956305162 0.057929726920424605 -0.060249327258429332
      0.062396038740590735 0.79440631732665001 0.031294394011880472
      -0.35024325259338351 -0.0037817849504347364 -0.089083336552652104
      0.017339697171359403 -0.050051986060795854 0.042116449167596479
      -0.05405138620473833 0.07554633309393767 0.033263770529217307
      -0.077360186853565202 0.25305305601510747 0.069734803514502772
      -0.47002940542607313 -0.17329717769277206 0.039988510062161704
      -0.011307450958987227 -0.39830770021468498 0.91529025549367571
      -0.022392303648240314 -0.90297756384096961 -0.69097331688802377
      0.26228253412711666 -0.086721848671697729 1.1810849577329812
      -0.28362879832202825 0.29376929636649457 0.090771131866007493
      -0.11208476483849916 0.026280902095481892 0.2668964738673657
      -0.11781350251019931 -0.17103177224807412 0.018716755622012006
      0.032197879843764585 0.061107448664190663 0.046951353465980318
      0.47806011961489286 0.032302231998041199 -0.053046981662705821
      -0.026700570230423871 -0.6242798165723823 -0.44350803128284982
      0.040409521291532122 -0.047117309321318517 0.082880532601869381
      0.026975730748802759 -0.15881483329258703 0.049248677447636696
      0.07135271434051578 0.30684522220225768 0.43121738984887131
      -0.16212889005588835 -0.075954571674095889 0.036152849883807188
      -0.016513190074924675 0.010668491670450274 -0.10994072808609071
      0.95286004751950515 -0.25396309724783805 -1.0643632246352239
      -0.073739897585697878 0.24930503730119968 0.0082796788768834256
      0.028306149590998843 0.18669936039858614 -0.50717485655626704
      0.17663653005892574 0.010106156498184127 0.27214506468672894
      -0.04515606448064273 0.042862436029579912 -0.0064745537594047371
      -0.052778775868128944 0.037759188372131366 0.12686945972533151
      -0.4122621837731012 -0.074996501786616807 -0.057234047012743129
      0.14539941374568754 0.033902523006607829 -0.043123790780189179
      -0.56356009298858345 0.077241847414694031 -0.22992519082202106
      -0.081324753956858106 0.1220752708603448 -0.038851443783244136
      -0.095958862125870806 -0.22664486423908176 0.24530617888707815
      -0.024616739186509067 0.12381518077713974 -0.13047007107285283
      0.00027158587858073678 0.038036867606956619 -0.15908110502834971
      0.033864880183859608 0.030556903687283414 -0.33772710131222822
      0.00061161477385944377 -0.030558545344646838 0.081866758059520178
      0.060054122809627748 0.014010140470571447 -0.12901962924911786
      0.07230274581804054 0.011668912991839725 0.046120036033730105
      -0.072986510085504969 -0.20548032004088204 -0.081220738973612663
      0.13309061838274161 -0.061765025555123365 0.017273285298963478
      -0.23623055033381885 -0.0072599552865345801 0.025628933349038603
      -0.10217418352261752 0.020714462122242781 0.0073291542574614515
      0.031183274086476996 -0.17049422348214496 0.4411743419466434
      -0.00075116742249847128 -0.010585214299910132 0.040518818439328926
      0.27252970350251193 0.068443661104511389 -0.032283066133417526
      0.037480140387563567 -0.050254496281746663 -0.016679435098569222
      -0.020033238321340682 0.13233393141422056 -0.017732551254244621
      -0.010393878632699827 0.012046171366476571 0.12148126536594724
      0.32860657172509089 0.035046757783980399 -0.046942991119858182
      -0.055736313093002109 -0.0059843268198114799 -0.011890730382072097
      0.29903599885750964 0.28335095668040877 0.031385913864166795
      -0.37983107815367612 -0.29443792969109661 0.18602824675594135
      -0.040282953068814104 -0.53103942621280853 0.623876792186284
      0.15230097660011296 0.31884712414934174 0.0027233615926592547
      -0.16434313638919207 -0.097575854835825912 0.13058473186227246
      -0.047887504435524288 -0.1484354209959465 0.074920995812234867
      0.0055699340393605204 0.0559314582531606 0.080487651280862604
      0.019563005476460098 0.0036484343595097196 -0.092491758314570002
      -0.32811455311409798 0.34054081637174033 0.0066126749168577388
      -0.05404894379029733 0.016354077671988591 -0.13689366772386574
      -0.074148060074326658 -0.022278503762615857 0.010432925985215015
      -0.021786120791909044 -0.10532476738541377 -0.14510239258148533
      0.012053622286232649 0.01953163001965031 0.35841640055786583
      -0.50015401310933083 0.12207110048595894 0.71768566592390959
      -0.012693578807736852 -0.26732447480292681 -0.012101340230948304
      0.25338314186018629 -0.024081682260873934 -0.030592796132365322
      0.037462056927040681 -0.23804854745590401 -0.13212424514606075
      -0.025386007216033374 0.20640828640219275 0.009701186403441607
      -0.0032375642174495658 0.013828300723293949 -0.10085149432867674
      0.20841511121294987 0.070046309327896183 -0.48152720366732077
      -0.026776292463269517 -0.049131369219926425 0.19639021280872751
      0.19981511161585941 -0.12500804561772916 -0.22210127244238514
      0.04746163105165721 -0.16478665401958834 -0.22614832766307302
      -0.24221062336699975 -0.065739045581224481 0.062154610131554509
      -0.37494144086085091 0.16116509178989555 0.0014898294077117303
      0.066407076016292005 0.0047437419374675551 0.098383486768662529
      0.0072722380109850621 -0.17411234077820187 0.072441426841649642
      -0.10071614642514774 -1.0255064378620138 0.024741409180845469
      0.068247929483231551 0.055919012566273241 0.015011270791764003
      0.1769789420088406 -0.099721185358536538 -0.00287811179987931
      0.071886527328406877 0.052368663923111257 0.017903926965478236
      -0.46082981953022223 -0.0031063974498211984 0.56553913459062011
      0.025295962616515403 0.046111027058868714 -0.13256319900890134
      -0.011442837205529259 0.075862642805848757 -0.1430842272599929
      0.03715359697855164 0.061596215767995607 -0.0074885293378761115
      -0.22517607220276653 -0.15322685160347077 -0.090833996592994209
      0.01282353877583365 0.024067820858846439 0.024504891575156323
      0.24938999327162042 -0.18759021657234257 0.045028230717013923
      -0.019821876295906139 -0.040138699809560349 0.090436490686885168
      0.065924201025792897 -0.0082115647680412306 -0.068275492861291323
      -0.021205570325344789 0.14644109476452377 0.020376282592455355
      -0.011242956382538137 -0.10021299548886074 -0.20700311030361762
      -0.10490323380910291 0.071603893366449595 0.31318464137525276
      0.49015260563423402 -0.045491804951277158 -0.31983227843736167
      0.032524430711176257 0.050614470975507954 0.063524917361014954
      -0.1219161288381147 0.75390943902717 -0.27284850600461497
      0.74398439615104239 -0.026208329199838117 -0.15859125219135142
      -0.37216132600143947 0.036719900606127405 0.20954560226840055
      -0.090785426843979056 0.14112332131701305 0.044403020429972559
      -0.09552963291296912 -0.020124018779733036 -0.016989993153640994
      -0.17226438630885429 -0.03792400371916179 -0.17417032915610595
      0.18459012787126688 -0.057818819729319612 0.089157096984847958
      0.011711843977175071 0.023821287545699416 0.021691404035544867
      -0.060799927414666395 -0.061884004973088172 -0.17982645518078874
      -0.28526397751045129 0.14941880193289361 0.071088453530790754
      -0.034037508616191099 0.2476756992840381 -0.31580441385038488
      -0.049836697300000996 0.25197489780572424 0.29338383951764097
      -0.2620817707681255 0.08628874247489797 -0.017682930104809758
      0.24430429642969015 0.020258277913615393 0.20548767413267935
      -0.20536354842971313 -0.19261723470359504 0.033199798195954755
      0.23053424644655443 0.025539776344191249 -0.05166865068285599
      -0.11203950128793137 -0.52877040677913489 0.22437065460762876
      -0.11000565448287952 -0.1334745187064055 0.086516938321613432
      -0.043697273768538991 0.10877138671094921 0.28114934863856111
      -0.034309060280282404 -0.34186388627707343 -0.023433403623905301
      -0.080704550328090333 -0.30127130224578436 -0.84820961148428797
      -0.12160266276060358 0.084840969622699561 -0.42398384595153621
      0.5099440971455832 -0.11447086058717547 0.057646279790990844
      0.048913066976658259 0.13705513561925722 0.083205286422882496
      -0.043736058724953106 -0.082539436975932523 -0.17822030873292002
      -0.67046740537903493 0.13020854550561223 0.15949310152208368
      0.033370400137171213 -0.27417230864603392 0.19505874529676798
      -0.0068293938595186615 0.0043986030083700131 0.12749049386224953
      0.12633843623457117 0.041670915475643125 -0.27456504338680898
      0.0027325906981302633 -0.29507521501344169 0.18967765417990182
      0.071363839244607055 0.17399977897563246 -0.14787149152776671
      0.14158621573493751 -0.42919505994462115 0.13110373323365912
      0.11953847160210843 -0.10191454665265047 0.29183830087062895
      0.012672894671231063 -0.1692847139236224 0.14516424573627668
      -0.178944667527003 0.45497285385544084 0.15908535169121976
      -0.27348003178010749 -0.015471955136353488 0.15250229974554996
      -0.16027371061760112 0.12553928481778229 0.11176727441774305
      0.11160957773860551 -0.12242360622852734 0.093535907550290412
      -0.03420296934384498 0.21072303480707519 -0.14076555319001069
      0.12110050095770611 -0.188962087160579 -0.088356094864764007
      0.11983322484105198 0.18476965552434646 0.22914094146438677
      0.099139799094895301 -0.33108875704605312 -0.5537506697127581
      -0.1600689793663938 -0.074334067770382733 0.33512950910840106
      0.20237524556379405 0.2265282527081017 -0.13015283947506007
      0.047198732439471411 -0.011654542440847673 -0.35628795668427599
      -0.14675341972050016 0.1416646317246085 0.16074427054573318
      0.14044939312212079 -0.097363497975240326 -0.14642767287704567
      -0.077835731015365783 -0.11662244128413114 0.19545846377417969
      -0.013811055736909297 0.21869101807038599 -0.1719028363238006
      -0.17867294874497003 0.14918617166172746 -0.14712529047472009
      0.071407668400509064 0.30267094959827479 -0.15835729656428138
      -0.15986410326190886 -0.021522357040305643 -0.24308748409213973
      0.50595053831562165 0.13177150420056874 -0.15976868091148436
      0.062445342555953527 0.038373364871630393 -0.0081670809896701758
      0.18790573307192787 0.40517355268085092 -0.45221531179971264
      0.15838007958011482 0.36702429196417002 0.099454000218378288
      -0.18567776619432366 0.41495317229542145 -0.52434923282269563
      -0.13418663591374902 0.035706934189372916 0.11605255907027688
      0.10826968090950777 -0.1132697010424694 0.10725996523485644
      -0.35326807507752911 0.12529557209677464 0.074533294452679796
      -0.019155107809073379 0.15102222134889465 -0.036094189865831072
      0.29127689208973701 0.083623140971955015 -0.12693684881928138
      -0.37865132884251529 -0.13035569733941904 0.15454065587910079
      -0.19929871334054197 -0.27715614399045679 -0.13579884224409655
      0.1832557362929326 -0.6833299136606602 0.27868578318057208
      -0.13689039639865749 0.092113690262916506 -0.027677852273735818
      0.11090278556290055 0.049776098812486867 0.1686960244491785
      -0.10490435694754532 -0.20306382402315099 -0.12091804711589862
      0.069520381622170405 0.12889348903760828 0.16618079401839747
      -0.014906597902839156 0.015259415678440053 -0.2148962437607414
      -0.11572499329268733 0.18529661909334502 0.11651335976948127
      0.13262926221319085 -0.1785522941491279 0.08953064661717966
      -0.11345683732251463 0.087281046657678107 0.17461483489131163
      -0.38123423148232433 -0.16369104669335482 0.15979334323320835
      -0.035062285502052731 0.11347019312881618 0.20163252954743049
      -0.027279151453749657 0.45916701895803458 0.37822103035111754
      -0.1836598715541897 0.14577138111096868 -0.17261744401887849
      -0.22166285962036197 0.020951242113024453 -0.00080394745017098302
      0.17608626343154532 0.14540582178184819 -0.11626020178071424
      0.19698933711388578 0.133458031392784 0.053240196557084833
      -0.16895363964033069 0.012014566051091663 -0.1114218205022862
      -0.16718955346298342 -0.1410022630653032 -0.39731508465547505
      0.099024421770853868 -0.17971212044337981 0.1369033955673252
      -0.064360746875656863 0.038864736176288016 0.2160424191072248
      -0.031615396203841482 -0.11080749387970767 0.063028934697331285
      0.029862207931915949 -0.1533146955111091 1.2293409368873414
      -0.6111826948387038 0.095702879297092175 0.0041125885473455989
      -0.22420421941584823 -0.56652858172759035 0.078744386761771493
      0.17192988365610043 -0.058788159995433159 0.018593071828990976
      -0.044172608611188977 -0.13984842804428196 -0.034576234701395592
      -0.13718498386776357 0.0019615903818889593 0.062387654841806896
      -0.076338181077120676 0.32345630894096927 -0.1105432177343523
      0.18863849084428716 -0.14177256818358386 -0.073621503543019676
      0.049606531808131377 -0.11373584853181599 -0.1600415687683065
      -0.52650779260359792 -0.025689512494343904 0.14352706087887293
      0.14257653494741318 -0.098028817783851502 -0.058144552974098436
      -1.0302690054632155 0.22498031901213991 0.77882048899910095
      -0.17059642164128908 -0.32213074796872287 0.17452619529322824
      0.42691375899191114 -0.038070695030423311 -0.13399303044002336
      0.063538184858889554 -0.60893163921925175 -0.17423338130485849
      0.016558874866780125 -0.32048012034182133 0.16126834109020943
      -0.11542005488421204 0.082387875905671704 0.31614122970477293
      0.041657686330991706 -0.0024834847437527384 -0.22737968616765297
      0.20064652019919713 0.27413674089739781 0.39649956196118347
      0.0087402111553468442 0.019912209082687267 -0.068082578848512404
      -0.015216706575527284 0.02859046271932238 0.35445660054566908
      -0.19274484393065458 -0.12963279820726017 0.15197836334769507
      -0.36122035776029304 0.24177755444213467 -0.17040746574767499
      0.16051514363838068 -0.111045168842617 0.11245682471048389
      0.11715820700854276 0.17223274247891515 -0.11875571330479368
      -0.14272119245577022 -0.15376960258316569 -0.083039245576025197
      0.13023469140086266 -0.043276901817429207 0.066390566160266243
      0.07295303346662052 0.018197634353839566 -0.16092388720603548
      0.19449889743335341 0.10805921452704587 0.18252748141979563
      0.12166248355411502 0.10900373110373611 -0.22489232155438946
      0.19585461096703957 0.16783428504992859 -0.067604405789526686
      -0.20395618834738904 0.12574525794018387 0.46192236028334271
      0.13481015331918494 0.20328986008421118 -0.041092492014944249
      0.40565989328703234 -0.045428294731738116 -0.15758604852919339
      0.16837434350286759 -0.16129703499114126 0.4288721386276742
      0.16901805912434684 0.21729657777406353 -0.023007568790339879
      0.16351082810596937 -0.12563868011188958 0.1654563264186448
      0.20411410271859426 0.10625612720426096 -0.19354424916305099
      0.028288007107852585 -0.12696779014182652 -0.19784414271057604
      -0.14101951624114986 0.25238684187812288 0.13562586859310305
      -0.16918484853003019 0.14106727989315015 -0.26604349422326345
      -0.080341745239996876 0.14455552480702807 -0.18381856655165943
      -0.36460653247430935 0.062826507963053543 0.086157662811966282
      0.052738308461292599 0.43332224955717796 0.37656301798065822
      -0.14329222020609803 -0.089389981836218935 -0.055189872202991153
      0.21906346335447094 0.13418386379258984 0.16874674645760609
      -0.10800691055939718 0.16356597573858281 -0.052239447600240588
      -0.11890369870871761 0.014008875287615116 -0.13352341525897593
      -0.063226685985965106 0.029370375221816826 -0.59909673097783034
      0.19295759120403683 -0.031923838637664403 0.14825920854448635
      -0.19265152187938861 -0.1554837506245963 0.075420567386077969
      -0.078155647868966421 -0.15889876809160958 0.22917245931337096
      -0.021150877895351767 0.074527967196341749 0.14960475540391394
      -0.10205746071933008 -0.56261193610854743 0.23974692907845815
      0.26185537925936736 0.028973053294252562 -0.4838277282040338
      -0.15634112940507444 0.13213935442256572 0.19562140223482638
      -0.17184662881367921 -0.15023579102523835 -0.32689378444524037
      -0.37181985623763492 0.15369035853440338 0.0418995777419141
      -0.29270980499553317 0.16393072215224552 -0.097021646385402616
      0.14614114099331463 0.63651047799340854 0.26556966740244958
      0.145418240609162 -0.30369403257855948 0.18584191808309389
      0.017043710479683939 0.0020239716037292114 0.023843666738406932
      0.073144726228832821 0.058589700750971169 -0.0935105121211917
      -0.0082777142993096589 -0.10406375664263831 -0.093069809387126584
      -0.18472805854777921 0.22676573856123469 0.11124322125865674
      0.43731961579385337 -0.24072325592748284 -0.013383604446328218
      -0.17371421979876212 0.090439117106706671 0.20400166446813994
      0.047788409061450904 -0.24120395245957196 -0.22154333151595187
      -0.013419231296180468 -0.0099638450865476465 0.15406924258652285
      -0.065164737893286473 -0.054196944281875645 0.075720936867814531
      0.39482834611697354 -0.13216657163065149 0.19160505365880109
      0.15755119658480923 0.035016443605701095 0.21337884976427016
      0.13016397179847386 -0.23010686257668389 -0.05274592590294213
      0.15426146336592098 -0.15298020579292099 -0.22696700741670162
      0.18607214778945433 0.23203394195900962 0.16550604627427112
      0.20776075931423099 -0.097191540840321569 0.30011737525386833
      0.05681911276891119 -0.17402696446382679 0.23117103602022104
      -0.26758883344173912 0.564308003593192 0.11143607500272915
      0.080369854205192784 0.096796995266254307 0.28678795300772636
      -0.1363993373468651 0.21416126633410207 0.36329934470335018
      0.26857690081672536 -0.2016725764951266 0.13034765545951038
      -0.067671895346211847 -0.27219539746871457 -0.22619006631558233
      -0.75542337252778458 0.018719706358105069 -0.19749286037814773
      0.17453537919714146 -0.21472319764870157 -0.01243305034071062
      0.22844437227564457 -0.47003736246922273 -0.31557196504264756
      0.014426720955426561 0.083447894983807128 -0.053679280601491068
      0.1830741712037933 0.49003212783179495 -0.051656876057639751
      -0.10230326206113158 0.40357896086649803 -0.22880027790213683
      0.139432166875746 0.18185882708249163 0.076438349756189142
      0.067058378308230637 -0.024567478705735942 -0.13159097366934788
      -0.20944276649868163 -0.23189498148599505 -0.15419089961692692
      0.10370957966542578 -0.11432226908596828 -0.054737529290259608
      -0.042456650533349523 0.15627695497035288 -0.19325583654495448
      -0.19378984593607276 0.16412500394911991 -0.17082982511567263
      -0.20918601570632814 0.10956453136014049 -0.24330074381569758
      0.17018349912399067 0.19018015959981976 -0.20804007335306665
      -0.093606662467361393 0.24966372665006073 0.15815402134256545
      0.025192651000465357 -0.22531085907486981 -0.28556156539953359
      0.19461568631629197 0.37295894831879656 -0.01825766371026474
      -0.059047347501977265 -0.045821471921462374 0.2349723513094496
      -0.022901893950354444 0.070277259981479601 0.14018666046494574
      0.206009188878892 -0.1690266059210031 0.27185340847469985
      0.12901480773442983 0.052749113768389769 0.14232014984543598
      -0.013967554700745356 0.19603965691288111 -0.21089721579011134
      0.17860060991720395 -0.53780663670676321 0.047373322624540963
      -0.0029369418641541187 0.08461957861079962 -0.067538656884743489
      -0.067365854736390798 0.54903117107413002 0.011956679097082631
      0.06334801679960439 -0.18213584686155662 0.17742370797352527
      0.033907567792418221 0.23767251220109706 0.06142407605185328
      -0.046909019347227 -0.072344088201800077 -0.0046591387342248235
      -0.010157013174272705 -0.050642426193730369 -0.26597816975138383
      -0.014361381462280177 0.0091176381443267805 0.13800208130515157
      0.16440104795688837 -0.011888908233410874 0.0081851273339308642
      -0.018879649848136729 0.015564211009925333 -0.025784508381802029
      -0.079910958720983929 -0.060428264018585004 0.021510980388981877
      0.38379321004376055 0.044820112505086232 0.045912817731312359
      -0.31506037769075346 0.035394580287356946 0.0033763876548325552
      -0.3106380194672545 -0.042656719358037144 -0.003695966018867668
      -0.10252895241313911 -0.48808532625302337 -0.20822370906469848
      0.018453333835146669 -0.021379290553139703 0.0070054432973261239
      -0.078797615888188191 0.10583687183149151 -0.48651474957633389
      0.017315318685148625 0.0063678892905356284 0.029711326488196996
      0.028893584850983031 -0.016488565335333456 -0.014494305030587582
      0.0278699299171596 -0.058298490062901186 -0.2606351492090026
      0.042501141306692504 0.025974353899113078 -0.044794435107150136
      0.021307469946401227 -0.0017345399784209666 0.069769132756993299
      -0.0004268645500373915 0.79495995859762647 0.29690711447042129
      -0.044745270470180808 -0.18193433677919754 0.062074109671734351
      0.032369830051491126 0.38153806908184407 -0.31863638399634414
      0.23845070277608596 -0.52123530467142409 -0.12452502349589445
      -0.066818007551788364 -0.001277303925172471 -0.05026084442210927
      0.024914226869211804 0.14441082113552509 0.11750270737335688
      0.14831591450060982 -0.04553663739286197 0.25666303052943612
      0.0050465397530106435 -0.1802535189048807 -0.091327794894568742
      0.60146227075867031 -0.47009290118592856 0.09876950820333355
      0.030392475548399456 0.038214749787700196 0.092144881390564995
      -0.15784510304208596 0.042147158737791408 0.0037256410787572525
      0.79925780495824772 0.14547936777535189 0.019168060174016843
      -0.038156308893620573 -0.0022453573163941655 0.21725511616262841
      0.17617001403912944 -0.10066340166365322 -0.27356282717117997
      0.31964988047974274 -0.032956025073727288 0.01070573149330519
      0.046333549567431596 -0.22229623290929498 0.12001700790662702
      0.19058581540775987 -0.23335613844352335 -0.26009004625759313
      0.024250402099223078 -0.49109233669631908 -0.0031174062069568007
      0.0065798212654998483 -0.023293675113256394 0.070710319023065168
      0.13512022320808201 -0.037201329504238455 0.12811416202844886
      0.018830391781139079 0.16066017652089737 0.15182038806261569
      -0.16691463613262641 0.086260012031191935 -0.27590649957237534
      0.11674411806196805 -0.18992466954344939 -0.25118959583206329
      0.44329889351592044 0.084071433638982132 -0.082066571213649936
      -0.090212750967026162 0.10536842398025575 0.10319911680321327
      0.03965333358993367 0.095792960386763215 -0.077524331994897958
      -0.12512527069384638 -0.070741757751324574 0.062046235737827707
      0.032279002253388762 -0.30580907334530633 0.0011434124924532051
      -0.054592090587711369 0.058558663109011401 0.1578293505591763
      -0.094123299998245535 0.061339231043267266 0.052944456314094217
      -0.061968114893021072 -0.09330205020004427 -0.095242655323452663
      -0.20622330619223034 -0.067813663395546328 0.11589449553411374
      0.009562560257278651 -0.037572534455878596 -0.21708153656639861
      0.10851915596920234 -0.061942939592219373 -0.085784119061384931
      -0.084617653353957586 -0.10147703395766609 0.0045811389520466223
      -0.53741914681550995 0.20013503633004964 0.060819345061330472
      -0.10278392515074515 0.071901722728228201 0.22596790230524361
      0.0033069125941580448 -0.25822862999119917 0.098044069708192391
      -0.12121460977404232 0.072974432528408184 -0.050628594511656452
      -0.12034885199693016 -0.10600217950556648 0.094564999479384154
      -0.053566593091298728 0.086504775448897994 0.031945658393378901
      0.091144438418803209 -0.51405284892865188 -0.035282335413333241
      0.082280592795733562 -0.020091219457099848 -0.11089805139367469
      0.30640052602090434 0.042812011258340311 0.024975637296094633
      0.026010629796421582 0.020688948451208632 -0.04366133100578036
      -0.085246974762596781 0.27511826896506403 0.25817338659394368
      0.081533469903119715 -0.0036332983604908061 0.14925673573707168
      0.023157224555746325 -0.098376606237013983 -0.097944091368023664
      0.019214008397135461 0.046096940065029082 0.0640560392896104
      0.028081795962790593 0.2326206274383934 0.071642794312156935
      -0.054461618671869785 -0.12029249696599842 -0.11712072254838
      -0.19578079253346647 0.092236324875446127 -0.049093038687560354
      0.10287420502804458 0.10220569487606927 -0.076925102583874
      0.096856639704157074 0.076949648650467148 0.47260720323947486
      0.45025973743478781 0.23999239513110388 -0.10873568359991863
      0.072005324239747384 -0.0033982719927941828 0.027750630850139259
      -0.14544129561982339 0.045106194705604494 0.17069213569257238
      -0.27934742145762181 -0.062186581333647878 0.20796243226161903
      -0.073058542308577418 0.14471125387401823 0.086247200185398443
      0.77398031043873827 -0.08717260026018285 -0.075556487610203601
      -0.071475666166677762 -0.084467210483622643 0.076140351438932663
      -0.10786475109216766 0.068570787874279795 0.18733971111616829
      -0.029249951885019713 0.068633430631778541 -0.067411937038613576
      0.19924663359676759 -0.091127341571599005 -0.023141120701316596
      -0.069702696216023166 -0.044978894620352775 0.087459092535741398
      -0.32671759513790832 -0.0097343624106222253 -0.015640703265759531
      0.12980716598960848 -0.16236701678390186 -0.061434343528406772
      0.15441925978578525 0.13070452766076679 0.054779377373726831
      0.1097491025988574 -0.12737226656914394 -0.13363296087163867
      -0.17955179931179699 0.12106290475350863 0.14328083338308711
      -0.46455371829714115 0.084012562827351589 -0.13293482577645213
      -0.026387214175894791 0.17173212767316928 -0.051023488671705218
      0.067743894229698468 0.080344457185559784 -0.14052894429881629
      -0.16407799163771672 -0.14244467927774432 -0.15390730996481228
      -0.086277003612167086 0.0033107317711491818 0.018595724448489039
      -0.13665906238624992 -0.01808259807655296 0.17492956671041268
      -0.13969170480806642 -0.22083319597980075 -0.11960496261127648
      -0.17925626904019365 0.054363662504313362 -0.37928113969525423
      0.15502197561457826 0.16443417499838806 -0.16493742027503033
      0.15286968904034981 0.26740052704780903 -0.089486934105169114
      -0.13184312383402641 0.0010267056093701632 -0.19209330080209203
      0.14591920588649876 -0.12601496872989046 -0.079120159121689959
      -0.14666641100053976 0.18610474260645124 -0.074511368597646496
      0.29756153923502654 0.15245058436427777 0.17969633853213393
      -0.75650804354593015 -0.1084506626671429 0.16282723233933702
      -0.11288809141293303 -0.085475856586190183 0.25579249651547481
      0.16974389420687677 0.03303815799480795 0.76377994520110015
      -0.10509979741473319 -0.095102879272600319 -0.32644855753519925
      0.69152772647346816 0.27905979734394465 0.36528269687537401
      0.058710193860292324 -0.088150295852519878 0.20141033807542866
      -0.31111278796024955 -0.14019852104188957 0.28590825659786784
      -0.041841212186536324 0.074883186873790739 0.14795466634557888
      0.10899540152093279 0.12842006805736289 0.19646069705021238
      -0.026614452394389036 -0.0030371149242369084 -0.073897318126505462
      0.1826518069816726 -0.13473305836759039 0.16740633083516906
      0.086394024268252503 -0.12975492284065848 0.19106615510792196
      0.16412292176879353 -0.029647682864122629 0.13235561192259002
      0.014822410997883981 -0.18185835197106465 0.15291106365859788
      -0.50734719008585216 0.14686449447730424 -0.13870111720882283
      -0.095318518802694249 0.045395371352708838 -0.27088063958645564
      -0.15806825707077046 0.11503662492096242 0.47278122081375767
      0.099781558360596906 0.075633963964576861 0.42752634631843933
      0.0038726070843522892 -0.092861382351870234 0.46016259179568625
      -0.13015405125758669 0.14007512281887002 -0.16830475784208421
      -0.15947703334631694 -0.017383242831412401 0.0097116248542987761
      -0.051609073874593889 -0.18748693112270307 0.11292528878475783
      -0.10024252929893887 -0.037258063770221901 -0.17735762335763905
      -0.13178920014471446 -0.046900282245381446 -0.092356121636594679
      -0.023774278161967144 -0.25099964391134461 -0.046136880559132828
      0.06718533004788653 -0.25454014305500383 0.24922968371896456
      -0.07909829386325043 0.11007064478132536 -0.18900895602476236
      0.059796816637206013 0.078229270800152531 -0.22819601182144988
      -0.11291406473946397 -0.068304827839692439 -0.31301930588695392
      0.047318073272515117 -0.010421345448762708 -0.095126244563120493
      -0.035691014808516719 0.19938657313197158 0.083762096131129268
      -0.050352378371318333 0.041891000252449614 0.03766266056113541
      -0.013550503998912505 0.21374816052293996 0.023364024175407928
      -0.049387852866927713 -0.085797307365451075 -0.020688250208114996
      -0.12260830337755071 -0.032864730414507819 0.04709237958055433
      0.14195969453050947 0.037229945828052065 0.058207625821303469
      -0.0083406531605724026 0.003741610274569956 0.010874927764280798
      -0.053478486821644758 0.043424195467162759 -0.058002044730039559
      0.33580802944520288 0.051520051568515988 0.36309130105527959
      -0.047769411399825587 0.053940959888981968 -0.0023786827772001085
      0.068339412523572007 0.2602783524502435 0.096400072977136722
      -0.05525237472436241 0.092046644411978074 0.21076467388043821
      -0.025842651003409517 -0.037482185207284968 -0.48719667478126877
      -0.096162877188587098 -0.074115614700297899 0.036539072224687413
      0.38539000278591118 0.16879131364164396 0.10821057752905455
      -0.24889741442291766 0.43037249031818531 -0.1866131334168889
      0.10539107682038697 -0.38789342825739243 0.63183416187650632
      0.54226638839033769 0.13877150363709767 0.031550660683542217
      0.15916532488629878 -0.0010434896287305577 -0.26693642399379386
      0.16644995732418019 -0.081910926141037385 0.00091506819074259273
      -0.03100251608908167 0.060408060554939975 -0.2205947174484697
      -0.044430868941195245 0.38112143409338711 0.06003452451550563
      -0.038122172312365338 0.33799645726655758 -0.022121005316150931
      0.077507465345101459 -0.0023051422662068279 -0.23118825307612564
      0.090555500807111555 -0.030224076596549892 -0.047651256808294483
      -0.039924555587250325 -0.2372173181657867 -0.18215491694375807
      0.047115337966124653 -0.029777545266205449 -0.20132770783347084
      -0.52751981191379949 0.17463116729515962 -0.23184378538094538
      -0.20472361926197258 -0.3089644215635432 0.087202127160733126
      0.3062333854188119 0.20612345556609543 -0.050977959530916626
      0.096000260831967624 -0.26691201549953408 -0.18102077713005632
      0.10405901426410619 0.39906840419039663 0.05802540098828176
      -0.056015478804367115 0.026405442545148452 0.36893649703683368
      0.026975473859995439 0.10912155889671239 -0.59962544306997656
      0.041565644715416086 -0.17166503681006731 0.15624815704905015
      0.097095986209072199 0.038329029465985376 -0.42342597800464082
      -0.033338983265365038 0.017490206511154877 -0.37057863418025022
      -0.42847019463359987 -0.075244111419501769 0.15495806784162197
      0.044103368662794087 0.24664131258608388 -0.11955604048812764
      0.036492608338795182 -0.19971076625794087 0.11925286740736535
      0.1376510354596385 -0.20397176131914491 -0.12763067069835987
      -0.11314937507760946 -0.57965252711282478 0.042249677701254838
      0.061777741842093621 -0.098960922729327383 -0.11887696030469301
      0.31455403575135327 -0.044977629413795191 -0.13195961519297353
      0.085659924265082357 0.11982879724121849 0.036956925610390545
      0.0072277627128862322 0.10115957510296565 -0.055386523955653431
      -0.027699076512452927 0.029052227640273414 0.091820902066015037
      -0.15639437170444612 0.11416591211878145 -0.16289260456726046
      0.080928381247545728 0.19491680053250848 -0.083396159649637758
      -0.091930312132138259 -0.5799245539830794 -0.15362794798120194
      0.13974290676382869 -0.10821035776787462 0.22636083874365145
      0.24861874840951845 0.071027055742862652 0.22579573148275045
      0.15173550232696853 -0.10387438018693401 0.12336705646307995
      0.26278508622201485 0.15650783783809624 -0.17636502794654851
      0.084543102128436257 0.17042436530669741 -0.16667077651626416
      -0.15955844952211229 -0.19223907377774657 -0.080729747824410156
      -0.12718130426773536 0.076863912673789961 0.51777807473951087
      0.016752832825788076 0.12098805787323363 -0.036986143471919739
      0.32121788207291363 0.18962034748847884 0.22624404442026311
      -0.055946653578019548 0.11872011885729797 0.17906502007934597
      0.35587281273649263 -0.013986223970673145 0.076695443245858932
      -0.2080647380579195 -0.0501096119349667 0.31543472719642945
      -0.30800865223879642 0.088445257987872214 0.056902179530165367
      -0.014631538433421748 -0.21927071154485128 -0.08089665868750047
      0.0026869818835737907 0.044788872359577382 -0.21780494595997413
      -0.016719870503015176 -0.094621986086417559 0.12528158655805827
      -0.11940909885800095 -0.22204076851321894 0.045914307061942362
      -0.11492626774381214 -0.16851278365860703 0.10587635244366769
      -0.28863543464350694 0.36457592847774295 0.15441658544876644
      -0.11642738648786805 -0.22952454971528041 -0.092027242443583374
      0.21235381667226419 0.11444279356284151 -0.034215226091787627
      -0.092751173342604146 0.14994473110394804 0.08525940429218469
      0.11511345943226686 -0.1613660597529103 0.16857532459647892
      -0.076034302083715893 0.023894521490156622 0.06232848123298762
      0.15415640816115631 0.11069727856256331 -0.14627164439665338
      0.069961532543341809 0.060318573613651456 0.088792672847082879
      0.0067858657089493249 -0.015851284360740899 0.15628236593140649
      -0.48614193033346631 0.22032361442335469 -0.0079953561329432106
      0.24168410291551232 -0.16980888138263106 -0.088189413850503828
      0.10498377692190125 -0.067475210905825547 -0.26446255206319919
      -0.13583743425571537 0.12447712360344107 -0.18453613598146493
      -0.075122707552694457 -0.15214011098313096 0.050854464568079419
      -0.012485707807810477 0.13151845883679147 0.18069762404916334
      -0.14770332151731599 -0.1528779177404016 -0.14609813234435379
      -0.51905481114399143 0.16393704764973291 0.11779029413830891
      -0.058252704240401243 -0.17915423009249146 0.22553369813071195
      -0.24178984360089767 -0.11308543978410336 0.12080280454364345
      0.19338083962204058 0.058681127704104545 -0.027845705065826058
      0.10839537267479227 -0.19770909547792054 0.071558977845959576
      0.08930586556995726 0.19218422920555278 -0.20337423343917457
      0.17655665891767836 0.61531239586623243 0.12994181999883356
      0.19678792399642289 -0.14154515045318056 -0.105361799682705
      -0.21982900436501479 -0.22020689279312056 0.18828222646247708
      -0.19118862106504567 0.37447545409509747 0.17231700314963028
      0.58700661036039403 0.053906463875795681 0.17107733739236203
      -0.16768235083408817 0.1242601915657736 0.10599655114661087
      0.15337765880833329 -0.22216620672516249 0.11725220777165496
      0.04528022066956091 -0.36303596205409472 -0.2059514267524909
      0.037878025281010252 -0.12357201692623233 -0.11623442669986973
      0.1091736725949659 0.45187525579941495 -0.021004236517834743
      0.35242932866380106 0.30502297237432002 0.058516188052474646
      0.080327710491319593 0.14827666542866516 -0.28032494325214768
      -0.13162604542660339 0.66052891672788294 0.22171196091369025
      -0.074140293658595799 0.049396367021182774 0.032352716711008429
      -0.089278646834129213 0.10837071675099752 0.20762118676491684
      0.09312369506061198 0.033814557418062163 -0.058934098567141199
      -0.071928920337184996 -0.14291963718969927 0.093290768519564429
      0.032291002993935086 -0.10824462824502833 -0.21189559858578669
      -0.17001839864723078 0.075799135587072394 -0.17388278892696785
      0.016246163964886009 0.056870221388855953 -0.18371928707034535
      -0.21006074000887479 0.17534434915717806 -0.42450135924917332
      0.46641437984861994 0.18565125112801953 -0.17594980891961062
      0.33890424217785803 -0.34859751311521803 0.16512322259933887
      0.26652792300815631 -0.082860494048004357 -0.10762636258728331
      0.17931388706426502 0.64844453073160169 0.02106052474043597
      -0.12046436994370829 0.13573497250814964 -0.35222881977346282
      -0.12144187096640295 0.078114574832226016 -0.020375729868149159
      0.14294320539006489 -0.16519682537610489 0.16100208530377599
      0.32954024428933809 -0.020287498063492733 0.10515600141670496
      -0.059857260622356703 0.16358434163569516 -0.053204351780868651
      0.12995629238289874 0.1170747640203577 0.1318796331663134
      -0.23608872428152136 -0.11969182513079125 0.1192350283923512
      0.15988139728907916 -0.10151618098851116 -0.14279667990287548
      0.18399535697083014 -0.31681040168765384 0.079260069477814013
      -0.2135529143476172 0.096313161097472469 -0.096812083255192707
      0.10198578737907332 0.16877860383044657 0.020789817635278249
      -0.1968897351996487 -0.16472956460325863 0.16554071037526943
      -0.053740122317362235 0.1417903760271233 0.010055116933391355
      -0.0011984775429710471 0.10336200171151075 0.22740225268191319
      -0.14897127738953753 0.19907667914324637 0.12514592411293507
      0.16472626795062029 -0.13858399788638634 0.11532405078797378
      -0.095567746878682303 0.09995472155465282 0.13779545216549288
      -0.21048589486704977 -0.22141872120908854 0.15861714194541529
      0.58433817022864398 0.15871256163370018 0.24822640722993222
      -0.081556430365676336 0.18643907499902532 -0.031821768399361919
      -0.17619828773697346 0.16868044407850449 -0.19648645432083817
      0.35906331527514895 0.10062506168945899 0.48811727924095294
      0.24437380296858927 0.16225423858921442 -0.12788810022457223
      0.19757117631997004 0.17485221402143533 0.14099669516911692
      -0.20048463216520407 0.063882850474074312 -0.096851285041671092
      -0.32281469930328921 -0.16674317035752298 0.23978576472209093
      0.16249130698231309 -0.17698045040194083 0.14586008614162099
      -0.15648088403867125 -0.52588045479226919 0.12898470883168056
      0.10920238938636459 0.014855562771721969 0.25432749041935154
      0.12470288257666792 0.13653864437850363 0.73111033042982942
      0.11917605334600334 0.34780427404515613 -0.1712487724906695
      0.29964653608997627 0.12492047527145203 0.20409181656968919
      0.17810235687037262 -0.11628711064103539 0.081425865972573563
      -0.10077222682352641 -0.14320387345922947 -0.42365405347245727
      -0.16801236508761189 -0.13422014118650058 0.068256949780738096
      -0.36246866226925312 0.58178407873942661 -0.054061941444246954
      0.16504882019028297 -0.20382168967539394 -0.14155610670721785
      0.15049552648112421 -0.11097066365653681 -0.18625568490845093
      -0.10207484390852412 -0.41475961366368519 -0.1305080480296997
      0.17331461048697785 -0.1198868004102607 -0.27973212075523313
      -0.37257851490038713 0.26046042842412337 0.47913086185968307
      -0.57742742701162464 -0.30709222401586372 0.16317293888218132
      0.55979343011328331 -0.37192523118053 -0.27057560900173572
      -0.31540529592066818 -0.26330464205732618 -0.028483101728781535
      0.034320246513759631 -0.37997144068495664 0.17769784633901292
      -0.13631547248311501 0.16147313669767205 0.56110672428635799
      0.11107534804138089 0.15883265189771878 -0.13923326218620702
      0.20246864064048073 0.11409621076442016 0.30889418697511162
      -0.07131937755518554 0.091246598474693755 -0.046814418718583377
      0.059625022271398952 -0.066876250295764453 -0.18464881571637731
      -0.29704583821719777 -0.018942194375101123 -0.026940266998761755
      -0.53256147019224864 -0.15702889634843137 0.011274366975039992
      -0.015374200075652971 0.086912830775355332 -0.0049677087590017594
      0.0014532409398417246 0.067439973619669732 0.085766573676812924
      0.0098527067560452188 0.59408944591686119 0.058721952622170594
      -0.011485996371797274 0.11625634925143567 -0.0077919368676392219
      -0.12213877976097322 -0.18068198934730231 -0.039958559487720938
      0.016646123266836923 0.0019046283588801149 0.017229895034343395
      0.30755529470786841 -0.02797703135243125 0.73628868448386375
      0.060705812545399279 0.06641482270328937 -0.20498046320874347
      0.026283984482071612 0.0047438166018495039 -0.58627999567989741
      -0.0058389967560418775 0.01989813653365299 0.0083417628512194031
      -0.060426240869488689 0.27116594685430551 -0.010242298698681047
      -0.020807120778021798 0.060513351342622611 -0.31546628658467019
      -0.099076703042138933 -0.54482862151072109 0.34938024856800465
      -0.055980547515440307 0.040095089305408005 0.0043214085769444251
      -0.078712620486965867 -0.039043562692667753 -0.012790520973634447
      -0.038763054501668136 0.011878443057383272 0.1012436337216127
      0.032384463761392569 0.17115620055181222 0.080531936116584976
      -0.049022082769461947 0.0053102899813320002 0.15801382192994359
      0.13953277107802811 0.018260047713579246 -0.32385921533713435
      -0.079189644177076385 -0.06261309039340468 0.027250633067228122
      0.64003386418556385 0.22895455845998477 -0.30580329480599538
      -0.76782077690802719 -0.066481416352539652 0.15549374809670879
      0.29049478396863421 -0.034347710143354998 -0.045275962672323894
      -0.35345959013714284 0.0070096397816338252 0.038899013343652637
      0.00096046514427703398 0.10738704086590915 0.041657174018742311
      -0.039605498394938765 -0.051357799341041996 -0.17773782001101351
      0.26685618389683785 0.024004210474836734 -0.0030583029369252385
      0.067466657494679491 0.09865132003845134 -0.19529460887536457
      -0.031824452187636777 0.01634585734752023 -0.40363578975075154
      0.18849475932715118 -0.44855627430532807 0.023957066546380894
      0.032537965374698989 0.091686119858266121 -0.48983923972464655
      0.036329479172544685 -0.54761573436013722 0.19381208874299166
      -0.28375664537204098 0.0040361607198759484 -0.096000752908564899
      -0.33471068910478496 0.10555837178228766 0.033615886859073886
      0.38674449697615965 -0.44439425239639768 0.0031120434889884874
      -0.33198947221422492 -0.013171680558734264 0.0022325234717178065
      -0.03610186815527705 -0.10676767493421327 -0.10974556000027721
      -0.16945732465135918 -0.84919259216653598 -0.0043337988824284192
      0.032933817941253343 -0.047073574614310672 0.10971887865273661
      0.018838363868917785 -0.061032217788243026 0.15728209850062524
      -0.098997991666673169 -0.12086677691137263 -0.49889352119525016
      -0.070880922708110555 -0.046055450085165456 -0.35235498977936774
      -0.28003783632209545 -0.020731250958541128 -0.069159028259529631
      0.054572268967569129 -0.023223790224355074 0.0079271454413687575
      0.19538792942258648 0.056281366947307836 -0.032631828724552524
      0.1522468208953372 -0.020632886910759381 0.0017523359563869872
      -0.0098460899708600006 0.088942004799441657 -0.11405730460767689
      -0.23624771234394193 -0.1251391859282692 0.074810741663915839
      0.016657322956989927 0.098254066075587745 0.011173790567768653
      0.035419131343740848 0.00093208512601148275 0.065258519391796069
      0.16362865109942365 0.16889464130640322 -0.02100546630483701
      0.031985167145816326 -0.22876884224338898 0.0078984246399646518
      0.082428206042372845 -0.054231367082195697 0.49010709181240786
      -0.19990870706553998 -0.065132781315732607 0.015555721683936749
      0.01935090163716888 -0.33446141377099808 0.013067914616028617
      -0.45975864756293516 -0.21071752498249716 -0.043552966555869412
      -0.017813068920023146 0.045016810496936212 0.03240528463140549
      -0.045050214391356785 -0.076965631698233145 -0.076508576883588933
      -0.18192154143518691 0.019767179646312482 0.014945284926110466
      0.43455995011533938 0.014827857423459318 -0.09448308427115476
      0.049585166083479709 -0.095655828049278371 0.3973631134072122
      -0.29202872812187608 0.18441671504991611 0.050917885304646089
      0.13691637141590765 0.076856682072238725 0.39830949046435338
      -0.64745571454712514 0.39376536568456399 -0.51918307100540428
      -0.14159183192530897 -0.1605496505750437 -0.009442693222552213
      0.14404722047761306 -0.025504436163079489 0.10882303950360538
      0.067698710151217242 0.069766412195774286 -0.018345672844563388
      0.53388508509459953 0.01315125834910124 -0.073162424097668266
      -0.054694383353413013 -0.02187567275100229 0.044664807120248659
      0.012334382929324659 0.0094786349284695006 0.029141878008603333
      0.064614433562269535 -0.085186167181129133 -0.04337120547141126
      -0.010605718522671954 -0.32252642117338054 0.28747652438547983
      0.29247333750549731 0.078029166236163058 0.026641852580019627
      -0.096325107049129527 0.84232893765839201 0.062816601931937041
      -1.5102657506082353 -0.23959507159932136 0.10035831297767692
      -0.0029185700280250858 -0.48502534945465581 -0.21132428298325651
      0.098293040130685197 0.01101593058069061 0.17338416289963329
      -0.10004056163006833 -0.022975874825615417 0.012869914846852243
      0.038007032832353287 0.01529253324374193 -0.047265582290961748
      -0.059065561605220765 0.034075093989118448 -0.14424528178857748
      -0.19641300427158806 0.043497783629315993 -0.022737929279694861
      -0.015741641631688178 0.00052378104963778018 -0.133617026346247
      -0.27606721609896162 0.028333392377804356 0.076818820891996487
      0.14713337876360791 0.2155291281436742 -0.057352275097535786
      0.07176508097993263 -0.20955518109574497 0.078043215961824217
      -0.020784351734519133 -0.050077022807310322 -0.1694713922630971
      0.054256997420946931 0.079314549627672204 0.13340680521517548
      0.010297010384047251 -0.042875619896150435 0.20587934828336646
      -0.067170881656248405 0.06981135216727935 -0.14821050445871464
      -0.040762170213209041 0.079914718285092223 0.13071533447517858
      -0.099446251138643749 0.091818398828611841 0.084755684650812804
      0.1168944444425066 0.6227557030971107 0.079162724382167524
      -0.6390167571379034 0.18681850270528819 0.073144801479474345
      0.026660562605136558 -0.11768966596756253 0.050905314359441484
      -0.14996646655794013 0.056254259386982017 0.095060102607988847
      -0.11984462502517458 0.33907951505844791 -0.48597081334924841
      -0.12053309860683298 0.11215266486737901 -0.020112394557239521
      0.38461424157811469 0.097428445073197895 -0.10341568465602387
      -0.21472712284065032 0.087313060438295773 -0.11381141064795404
      0.036676522840644529 0.020030835892967676 0.083681795071361892
      -0.1596783821582117 0.06815579573770493 -0.21447432552044948
      0.19979872628603138 -0.084064972241930935 0.0040637121276481929
      -0.065716062425291127 -0.099477861643655976 0.06245914021375943
      0.36514058125120791 -0.27140248634439856 -0.45867348071793795
      -0.78823066958143584 -0.48286804470027433 -0.052158365743495479
      0.23591049719964374 0.23469366300634367 -0.22764216025984485
      0.6282013110114264 0.067536209010397252 -0.21478638851420725
      -0.2056310276141517 0.0462708880541573 -0.12486129004148955
      0.076111040239556352 0.11643955713115445 0.11475289507680654
      0.011736392045240933 -0.077119765947915378 -0.39726950398719052
      -0.01038986268753145 0.27932915664125363 0.029073753681580831
      0.090950019931525225 -0.14807143688535632 -0.14378747097436387
      0.060663355302629639 -0.10162565716377343 -0.15694138570314459
      0.059084549631570824 -0.10265076734313236 -0.10774032274033311
      0.15810355929028594 0.13625709420055221 0.37365440535780625
      0.12301736987673172 -0.081780929301070865 -0.34419815466183107
      0.65279247221479342 0.080982160368974154 0.25062338909858356
      -0.19356107641650047 -0.49114374529338889 0.070824361297133279
      -0.079544762392265253 0.33429843840270396 -0.046471252742011263
      0.044664004161296615 -0.065532894499520822 0.12936786175134399
      0.0084789467371561393 0.16989171655514659 0.058599617249621747
      -0.074984341108289318 0.074148636663192366 -0.13358249366235589
      0.061455453089969081 -0.05162375869465554 0.67907120807886934
      0.12405079962547785 -0.25244783402286225 0.2169832281382239
      0.039675094748215685 0.25401919217360386 0.022598240960837394
      0.060155735544079041 0.38302430566321505 0.20822216060588628
      0.64628374503427133 -0.1301267044342245 0.16220427969169884
      -0.024964932685926484 0.052568028707790815 -0.18244531904782807
      0.17338069665832659 -0.28250698131474078 0.013460477185279754
      0.20024644265412117 0.16902278570117343 -0.1337326244444676
      -0.12987118888590421 -0.1024312162534905 -0.13303256817361103
      0.10382504742621988 -0.025538540326090306 -0.175476867082591
      -0.062741046966854133 -0.057009015884111731 -0.0032312735237226692
      0.1431313257444797 0.17407960061655359 0.089349573472349203
      -0.52900028132338939 -0.002652095761249704 -0.37078974104891382
      0.079608546232878566 0.054872034254666302 0.1084124223893991
      -0.25434481079219962 0.15801425773175803 0.44347391855921747
      0.14406174376030229 0.25378386083383669 -0.20254294756929248
      -0.033610853806333808 -0.72973891465062479 -0.17410816649060759
      0.21394059175991811 -0.22604863745053713 -0.02911568069647338
      0.11763152661952686 -0.43359041528123754 -0.3594277315382598
      0.24623467390085182 -0.10281336922797311 0.11908000815377696
      0.25382051457526783 0.21921894523717253 -0.23298446315849591
      0.098199716333650905 -0.10676426693099185 -0.15797876933107402
      -0.23247955471128973 0.12342232105643927 0.14509259194401955
      -0.15640883111746182 0.086287732030311426 0.2358873517035614
      0.10985472998232679 -0.69326563441176148 0.018768342977026356
      0.03831920184865769 0.31112200333931744 0.31013839210427208
      0.64916891261534837 -0.23252488965230553 0.098359113400635037
      0.62128341713707425 -0.32506122289571304 0.31727886887592494
      -0.17489641843515522 -0.066581263679484609 0.1507882076879436
      -0.27273441360379058 0.072238978985700794 -0.0051563375162529653
      -0.085539332166011423 -0.17070465412456026 -0.17426603284014022
      0.15987284787165051 -0.081115768647089054 -0.34285072525858906
      -0.64486050475704948 -0.14528207187038891 0.089601149870495223
      -0.21591498438950119 -0.26388384384955343 0.0027953129805504593
      -0.20433936705032457 -0.20025273608026262 0.028720780549398497
      0.087767626945697841 0.11187068562101332 0.21763814736339762
      -0.17762502348255488 -0.38341065209491221 0.030004649088025897
      0.30402980479257602 0.92645838630899791 -0.36608051974685857
      0.092798774172317466 0.16648111615892425 0.036313187566344926
      -0.2153510130871461 -0.083633950844730909 -0.37881949198440124
      -0.051342156279640248 0.1083650731940798 0.016168582884192952
      -0.169479911965567 0.14243266086288014 -0.15817817122072547
      0.27842452904102555 -0.046227916285373219 0.089930647501940755
      0.09903314833228187 1.2014047203732348 0.17795020797371994
      -0.33908206955476183 -0.010914135155370121 -0.0752671490142275
      0.32229217639545932 -0.13635969840555986 0.0043446067944785446
      0.29907006965881777 0.070470712851676331 0.54463006569059169
      -0.044311671171104294 0.043964748379182517 -0.042297130880517113
      -0.12790371350661733 0.09797863200804606 0.22885130073476703
      -0.13686354922447824 0.07286053082931547 0.027010681588937289
      0.062489659094952549 0.096315526256959383 -0.03030727245279196
      0.20425907652783171 0.11760349443986315 0.042241743805299971
      0.16110819679892849 -0.10677402861759759 -0.10409825737632528
      0.02828280157671384 0.054479386295575617 0.036815636567694585
      0.072621246097892944 0.0055396477730933428 -0.23592288180865403
      -0.015878591131513315 -0.25896032444174516 0.26770474381304449
      0.071171624606441192 0.1328034098588646 -0.066036078042544785
      -0.010682686768255949 0.28272388825848394 0.021014909250999414
      -0.044324968743214871 -0.13323886525468048 -0.26830774331097124
      -0.030177539858144684 -0.066507782368285154 0.081876676332906781
      0.034642824302832741 0.18995070703334097 0.067452858039502087
      -0.3113092374031014 0.056431431314998462 0.093366183520144586
      -0.09558578384274044 -0.014397180022956643 -0.02779141130335273
      0.090501492851123119 -0.11649304115695391 0.071474805337252686
      -0.2078780582391285 0.11770573062014686 -0.090397121058089225
      -0.11450274239667224 -0.15903044497734681 -0.085366554313506302
      0.030945600136521822 -0.24340311183125268 0.46776185861032094
      -0.25275346988726272 -0.33003715328820954 -0.24620403645500272
      0.16951735617839628 0.075720957129958688 1.2707588658391107
      -0.49700048850727985 -0.026391870721166964 0.35680655583627385
      -0.13827640935931421 0.29813752019528117 -0.32605951102664521
      -0.20869272055823965 -0.11063875641503405 0.042531640794120792
      -0.036891845041338273 0.0919772577211843 -0.015472387740076416
      0.25926290124564227 0.016813708377362492 0.055151650220672657
      0.010987871005103097 -0.24379634409752388 -0.66946027278194953
      -0.12162609792078571 0.076265736538313797 -0.042969150520268271
      -0.058904804845515898 -0.26076207443542965 -0.11312974319989627
      -0.082917026313244643 -0.068507471495874037 0.30231103625256328
      -0.098545469808626149 0.077480867766180544 -0.090384216530422112
      -0.14664973783445001 0.25566247882530663 0.024807470416042626
      0.29804046860176886 -0.014914922505364374 -0.19076030189717758
      0.057282989522018234 0.022683344661098347 -0.11639161656712783
      0.10049389984084109 0.21140566280897971 0.033180241188793057
      0.17640086198509169 0.075979201823386078 0.44828332479816146
      0.019532451265076606 -0.073354797614840817 0.11942733985626683
      -0.10448014343601032 -0.15624039386539662 -0.018268949397203565
      0.17511829522922576 0.043647997262774692 -0.1286863948665862
      0.080700804380175836 0.16662590940675218 0.019060568527109727
      -0.40558041131109779 -0.22486087566884394 0.21209557476573343
      0.083659031599113351 0.2084707883299228 -0.12135496859158475
      0.11618183657360531 0.38567068851177244 0.12899534161558243
      -0.19156011568239664 0.045008643166427983 -0.28361932847012278
      0.040731284044052407 0.13776188301431699 0.12425975479310268
      -0.18361901473771444 -0.1348218372968753 0.0081625890734764103
      0.027810102690052858 0.11722923411161924 0.15469126871832609
      -0.2750913211325095 0.010358201545601508 -0.2517971125019931
      0.0006695372263372868 0.11586096307109268 0.14386879251574419
      0.03552878349466447 -0.097471189314072226 0.049077776085353554
      -0.81751184057604942 -0.029473040718524985 0.10220030714678892
      -0.2300720438194542 -0.23364918382128252 0.16994421827220046
      0.65584914200712352 0.13914100958202691 0.24691720913882015
      -0.19724153637940176 0.24735465362660569 0.10596328626033631
      -0.15889590122346975 0.18671923966708912 -0.19501541242069032
      -0.062069068520318293 0.15239130952423743 -0.019815698063898192
      -0.10165402697891025 0.20284067856594956 -0.1516117865856858
      0.1383278452739658 0.17194956118582858 0.1691972399433716
      -0.19774497316503761 0.10095695369311905 -0.17251239064708743
      0.0083636667278434041 -0.2141319201360464 0.16900595494829398
      0.022359855888802155 -0.14425818712429883 0.066605968320810269
      -0.014210820550638738 0.12238784429818159 0.28059419002582936
      -0.13828034238043813 -0.087963611705233966 0.15725054499286781
      0.045997199367422179 0.42652257814462063 -0.47656980260196646
      0.18971445541418963 -0.088479416247501066 -0.05546394821004174
      0.15348747311690839 -0.53036692347351766 0.17070874955456833
      0.22591006610719225 0.073332243390198407 0.030870428284097921
      0.035679120758569084 -0.10370407435148524 0.11244172210838031
      -0.15533348526302462 -0.0050787185157621078 0.090217281823618434
      0.14682039537461175 -0.0080951314335842815 -0.1438273993102902
      0.10066646509625561 -0.20105611193044109 -0.26955972130856493
      -0.002393148902551873 -0.18096424757709981 -0.18599664637923977
      -0.12757241579364564 -0.022120909677759749 0.37369584232445724
      0.20343231517874216 -0.14355602534577408 0.07627699750432157
      0.51787602990750414 0.26391880116976724 -0.31930825909093535
      -0.0038846210495649667 -0.084202885863103621 0.13280645671969019
      0.12264123166358203 -0.070002209793092726 -0.21976015215683756
      0.3555689449511103 0.11970425002142644 -0.1799239239231302
      0.10794060213126609 0.14240616546849516 0.12114598226640735
      -0.13783989861325863 0.21431092348760464 0.22985643803195011
      0.13257397006068544 0.15372247484231868 -0.15808521211106408
      0.18538560380031974 -0.096276332936512027 0.20728213768758888
      0.18758509412278623 -0.050178402716914178 -0.29862590754591373
      -0.25407424233502351 0.26512065604094498 -0.11851209255134246
      0.21718791674184393 -0.1621400391996673 0.13615857690264882
      0.26823185292492108 0.26577879637538537 -0.19175114764459764
      0.11279555264285381 -0.28250923113458382 0.098099952881703714
      0.11775649482297626 0.11104954181611432 -0.13747558301895693
      -0.18861881690701066 -0.27412403982066202 0.016756645507795868
      0.20309939803528143 0.032367641656546209 -0.37602590351063436
      0.11014903329617465 0.070475331001409763 -0.028162641270929122
      0.16191325417641594 0.17569744451893665 0.093028286951552741
      0.033863314511780027 0.06585877081052012 -0.31056357081742042
      0.012953996597591021 0.095150131462906865 0.43209435581388433
      -0.24223184340754708 0.19507132860889273 -0.014072615957408944
      0.17738473692743659 0.2448804289014534 -0.14414555141378652
      0.11175564542446481 -0.28452908110147546 -0.20333017488550489
      0.22905211035059903 -0.21715575962014733 -0.15628049875356531
      0.23733855347886246 -0.052518848516958309 0.19980392181674736
      0.187979394926925 -0.18280314415993595 0.19256508938278671
      0.21777555770970944 0.16496095869750427 -0.23130734838539721
      0.16552598951617037 -0.14253828258296472 -0.25138423203648758
      -0.22792983898283453 -0.32553488057716579 -0.022967196316763822
      -0.20345928516005524 0.12174129242625314 -0.16951784055974914
      -0.0098471633405177381 -0.01021145669295899 -0.01481252125133097
      -0.038177118773430142 0.31566294508366433 0.084716033810772015
      -0.350420711738748 0.026385262189951346 0.38162936785444518
      -0.27832351297400015 -0.10703502991215623 0.18964117409402656
      -0.37140805886087463 0.016605894026939436 0.26262964845812098
      -0.24000564908763855 -0.12299088975311333 -0.0079577660694873046
      -0.25473944219149092 -0.31851690968707347 -0.15816519376541541
      -0.13701077340749507 0.20380507122588151 0.27682375931455505
      -0.20009635067672218 -0.22733525054168421 0.092417074864150933
      -0.22597670930693481 -0.24008895947584344 0.24456589296660919
      -0.25926129924794161 -0.21623265959753243 -0.11505249873767878
      -0.34801932269948116 0.12600579184438634 0.24813880120093038
      -0.17393594706491899 -0.15194288094188235 0.3782072979321594
      0.18764735604967078 0.1946301415096344 0.30277492150074409
      -0.14696746772628391 0.16658309357993314 0.18520279120281741
      0.15407485075353425 -0.26669451600481836 -0.024979046740115876
      0.50193842970329883 -0.27795364076784279 0.055107910007446546
      0.099098022012776385 0.13634336294990743 -0.17771051924688597
      0.17886928760626042 -0.15715605618439116 -0.11246782674358692
      0.14671145804844921 -0.41183338760589838 0.24812106233685935
      -0.052160079942889223 -0.036971903936413482 0.37438338468067633
      0.12612427254626002 -0.46998804084757212 -0.21696563431204249
      0.39859349358172197 0.17554465677133546 0.055010562797405058
      -0.12675322600801092 0.15726882742071638 -0.11791460387059868
      0.25694120719883701 -0.2661437535107038 0.24872300363313141
      -0.3124957907352478 0.098598242815156653 0.10881942837829367
      0.1491857504876119 -0.28458128251506287 -0.16731756053075778
      0.1229629642357996 -0.016954241033590296 0.17402855173002352
      0.024765480404253321 -0.44028878122456772 0.092736721462494898
      -0.041085343403993585 0.058629975389303715 0.10495446203956851
      0.15633388137629339 0.072838931973958007 -0.16543085906151073
      0.036388122367508269 -0.31282853512452186 -0.020620930236795811
      0.014789261481575623 0.047519225070550383 -0.22547863218298633
      0.17507185189537472 0.028780816020045723 0.16345550440711221
      0.22132325348957627 -0.16118015505018241 0.072941039375016767
      -0.032945343492646439 -0.15576940808561324 0.23105034075776906
      -0.32456990548448045 -0.089967880206775763 0.11981997369197439
      -0.044071934419587594 0.070148507311651662 0.28663570630785468
      -0.14655702431610143 0.13092953973141733 0.2927067742488339
      0.19878758744716879 -0.16602169521031662 0.19227593818884831
      0.076532292505161359 0.080862266579621922 -0.25758303618674905
      -0.1991946026491262 0.12484327975050992 -0.11347363508479839
      0.060804385313929378 0.22575313990391352 -0.15879014042048087
      0.23534651585483896 0.24043759337645537 -0.023423487366714082
      0.17501210187305247 0.032205259854151291 -0.19358909138640001
      0.42792750272943453 0.28634922270968083 -0.24960964150786139
      -0.091260448601018229 -0.033125724140287312 -0.29436724995013319
      -0.031691674699452894 0.31359231023881512 -0.32666690044389285
      -0.056511868579331423 -0.087932921549724985 -0.14609083935153064
      -0.28545023781543832 -0.17686039177794971 0.041627725770706642
      0.094184586793574138 0.16876053011384179 -0.013188264079727416
      -0.22251012354424829 0.099969114321001473 -0.22972013797227633
      -0.34815320101461034 0.31872152130768139 -0.22813408269407887
      -0.18008696795100268 -0.19864988149836577 -0.12003173358533459
      -0.3614614461451775 0.17053914486647578 -0.15225254543866584
      0.092889804275768456 -0.3879081262136736 0.277852346431681
      0.22002264296604412 0.36349516798923859 -0.18876172203379732
      0.17679519384209635 0.043556691310777419 -0.13503797228817591
      -0.37728597527201818 -0.12840561562155725 0.077037458151899288
      -0.22355751255684062 0.042018269648004015 -0.27613676744475962
      0.11080538404974741 -0.15748736719144488 0.28472250432981494
      -0.02707329962308213 -0.075272501395292665 0.21444068811927677
      -0.31659119820977372 0.19055500296395031 -0.099457090274845894
      0.15442599130877319 0.13924958044416724 0.072894071813531316
      -0.19290362945984921 -0.0030057365722406773 0.10925925658489566
      -0.013698641152916522 -0.73965381898928029 -0.015150973148942088
      -0.018277304288612739 0.050193333398181279 -0.066260746244339461
      -0.028521197519561409 0.017593844928690507 -0.057670665243140545
      0.026741292391624684 0.0089661613536042434 0.021370107706980883
      -0.024913569105901201 -0.0045067918749872185 0.30502342335505428
      -0.018347865688872665 0.012582864524865435 0.03172278793886766
      -0.19275250102477284 -0.013010724967926556 -0.12608502423517839
      0.035035761552216001 -0.005272449336040359 0.027808568498593384
      0.0076169995962487788 -0.051920543561305411 -0.030385487883199062
      0.30393125317388858 0.01385901680651788 -0.0047709092144378861
      0.034416880548343409 0.014411281695637577 0.01896990897160173
      -0.20384450080364849 0.004533333195276607 0.0050522574104129338
      0.042102684215653462 0.066142769224587436 -0.029013539964599117
      0.0098686194418614939 -0.0013821957440364819
      -0.0060703787815303634 -0.54500213876124293 -0.048923639887553688
      -0.28712247639567973 -0.043501115988832238 0.0068790773866418556
      0.012773922194108868 -0.0003098981442953636 0.07959881998863115
      0.0030548241569939671 0.017785240242321025 0.021141938250378713
      0.085930363095360687 -0.092508529323678812 -0.010162983626282887
      -0.23642557230160227 0.048968058656789867 -0.00065749940410640099
      -0.011292186050358942 0.035906697063548189 0.10952233825113655
      0.072053736758241727 -0.022999856620997641 0.62598531909521116
      -0.14632099972064724 0.003520742012974633 0.20737986449133824
      -0.15772089092016123 0.013413911566868563 -0.78877323275887856
      0.074669084649421652 0.016468584442741484 -0.18726125960977694
      -0.15816670792349075 0.0035879025831692434 0.03333874200914437
      0.044232916225251447 -0.10556596486887811 0.026265611455454009
      -0.067184469031619662 0.01750049004287859 0.035832874769468497
      -0.039593718140352674 0.36540538656525173 -0.29180471676026337
      -0.041667346302964356 0.0065470729339146593 0.026543793478016164
      -0.059710744818556614 0.17865279192103098 -0.044381954736658645
      0.0048646582656732985 -0.30432954827783859 -0.092341953455618783
      -0.29336013937723482 0.012546262313829696 0.011987324332487847
      0.19497875094217118 -0.32166995617915717 0.055696690008263799
      -0.70391515736862587 0.077145967738838583 0.011917869695810785
      0.022129101037956959 -0.11518261478138464 0.062456011265611913
      -0.046224649464179486 0.067121426667626077 0.49773871269094794
      -0.27908397029552506 0.043684450056825072 -0.29146613654246256
      -0.0069026010010153748 -0.0090262238101206042 0.027333602746617346
      -0.13711267719846224 0.093415764280961947 -0.013462440209224259
      -0.71785733398743279 -0.01468369903574219 -0.099367743679447534
      -0.092358070355074096 0.080684286152458595 0.030973150990664711
      -0.18172198315851124 0.014527457400973264 -0.1369227269889163
      -0.06399506376423679 0.38375063906116963 0.003484638750789238
      -0.036450071395204044 -0.12265203423324246 -0.17298622299160038
      0.050469063259635523 -0.12037155955161766 0.15681545913091585
      -0.017628317101782028 -0.0039639194103604832 0.015826652231375353
      0.15410293943711867 0.032937037015016608 0.52343975064453818
      -0.041676215090509082 -0.02988064672473555 -0.045563932438147735
      0.12000445414107098 -0.092693086324565271 0.081505665766406346
      -0.051021792659533542 0.0045176782284053908
      -0.00047003116896751791 0.0066327113393669559 0.23802897641183013
      -0.013769843603982149 -0.14705376057375025 -0.013011805041986018
      0.01150467959269429 0.11727929165024478 0.034797089147543751
      -0.010939144454823829 -0.10541710102529354 -0.018472913272699371
      0.012629900720719811 0.034546936479674911 -0.10666265265493859
      -0.19413979214176119 -0.010505396538803117 -0.051980266373471661
      0.11218887443441938 -0.02286549758091783 -0.065665387957885471
      0.31040729185388388 -0.067427332223676695 -0.072275977853922951
      0.04054256572084023 -0.03397448026307863 -0.11307884441070262
      -0.084305708187543835 -0.0027404505514190469 -0.066237945980370749
      0.051492736531232007 -0.02871563001223813 0.051274077968464449
      0.34776481429560158 0.0075800220394572054 -0.022724134893875064
      0.00060951660235538773 -0.09222838322433223 0.038187283617589204
      -0.084799264131193264 0.092083381709754553 0.67235824210075268
      -0.18921018521793012 -0.011958377400999946 0.014489307520911791
      0.34373375297272241 -0.28238016277819572 0.55063288639927255
      -0.022416274965811969 -0.107933516477328 -0.0067171889322133159
      -0.092033133989096183 -0.11792846146523805 -0.079217723822099129
      0.005572191178030937 -0.015384963690778627 0.017286994664719894
      -0.10563985445094154 0.041955151223455604 0.012047026080383424
      0.0024787029165392604 -0.51688119228376306 0.42494988041110859
      0.012711015129463533 -0.069245633575635152 0.062282566270462192
      0.16404361831796263 -0.089666798944407614 -0.009392252955634034
      0.042131447611681291 -0.13815232398304739 0.025945725722210503
      -0.33489683818212523 0.0024135819110630763 0.044714679111990757
      -0.15572624848024863 -0.36211732673448377 -0.014843695204346006
      -0.46763300660710727 -0.23507504668328155 -0.016014718668112833
      -0.023617957795901205 -0.34353290939241626 -0.32569153887217622
      0.083178342081754494 -0.1894536202007856 0.34184785741692997
      -0.098140080766808163 0.058597807234939223 0.23970826953239485
      -0.030327763586857813 0.028551250943297298 -0.067423249942664965
      0.050469967455360421 -0.056478965756305413 -0.11922551150297903
      0.39756648403753575 -0.02389564812557763 0.099324057805076735
      -0.031673971164733021 -0.078834926187292848 0.053497796773989331
      0.16532755079184747 0.063101079202304053 0.098372863345637121
      -0.0039539334303828021 0.19665004464639738 0.0048792709502867371
      -0.028088193088225463 0.1221533083438742 -0.24479786183420654
      -0.018236024534193734 -0.19622979393933448 0.09322036328344456
      -0.031087260476256946 0.021311048100088156 0.0092452155089812367
      0.042656622302069028 0.038769016374018653 0.088208432134188802
      0.010509042007416885 -0.0050656922399706207 -0.042395968647021609
      0.11493371464292768 -0.085230768911663535 0.21356775696839675
      -0.022909189449453349 -0.0081554606463246568
      -0.0071724527508084616 0.00089430244252034885 0.45770278657304925
      -0.019663225717754428 0.059340166558067682 -0.1396756192573832
      -0.048467515537114175 -0.095340977936867452 -0.02390106712470811
      -0.014016257528717916 -0.24262655598381688 0.0081185177115771709
      0.035118053133480334 -0.035694180316229292 0.041742715830067625
      0.052371616696505897 -0.0073809774966974682 0.0028461534998154713
      0.013680836927547417 -0.20691627368548099 -0.15008820589765751
      -0.31392520602791318 -0.17799233822129851 -0.012904612044347669
      0.0063398618319761386 -0.033391836955695677 -0.040354122804186293
      -0.03475432413331854 -0.012849793093950285 -0.044998291230563259
      -0.058229968609804249 0.0071106343796917826 0.021624607959847685
      0.20003298068205022 -0.0011237541055340893 0.023843134930377319
      -0.010536059749858363 -0.41523994952112625 -0.21088212318109928
      -0.18777530360369962 -0.22409730464901054 -0.37598740935552388
      -0.14622029310716922 -0.079110343789662516 -0.3632242391663783
      -0.71812540567105909 -0.20777974192308771 0.024496120567961077
      0.036681682297822982 0.25492741130641616 0.16071130846504833
      -0.021128063528234261 -0.038559418631802914 0.23880740551348595
      -0.078863212011930875 0.027825841590067832 -0.00085858450468691641
      -0.0027183385226413046 -0.00057130780205246596
      -0.006542055143655516 0.015412865090729762 0.54482643179282542
      0.10340944405785812 0.025996169596610084 -0.0550408673199482
      -0.026845807191746909 0.084052814831646436 -0.034660367850716661
      0.014301881235316664 0.0057122164739123902 -0.028407376813501965
      -0.33914303803383661 -0.088582850377817213 0.010457933231274778
      0.0086236555919662373 0.35218567385447147 -0.22206221242046847
      0.02077485662963436 0.21188705201957769 0.39088799215226605
      -0.12527054365232274 -0.032512149686308875 -0.24692371904677715
      -0.26678228165988266 -0.0063163556527246738 0.0084184420742231762
      -0.11079130623406024 -0.26761755865832959 0.034917331954058356
      0.026998603245072545 -0.017256900447783295 0.017264698538396919
      -0.009267397675533728 -0.17894398586059088 -0.20874186600670394
      -0.018622347400305193 0.06415734494539134 -0.0054961816849315769
      0.12984947490838245 0.084747722380824855 -0.20522223104202791
