<?xml version="1.0"?>
<opencv_storage>
<opencv_ml_ann_mlp>
  <format>3</format>
  <layer_sizes>
    324 64 10</layer_sizes>
  <activation_function>SIGMOID_SYM</activation_function>
  <f_param1>0.66666666666666663</f_param1>
  <f_param2>1.7159</f_param2>
  <min_val>-0.94999999999999996</min_val>
  <max_val>0.94999999999999996</max_val>
  <min_val1>-0.97999999999999998</min_val1>
  <max_val1>0.97999999999999998</max_val1>
  <training_params>
    <train_method>BACKPROP</train_method>
    <dw_scale>0.01</dw_scale>
    <moment_scale>0.</moment_scale>
    <term_criteria>
      <epsilon>0.01</epsilon>
      <iterations>1000</iterations></term_criteria></training_params>
  <input_scale>
    7.8683487178631255 -1.1619394026809238 8.3054373089830218
    -0.95829659763588126 9.1947711350530934 -0.83253801225386281
    18.84813133467761 -0.64831883128404411 13.957901084245288
    -0.50270118011387177 28.15118721911022 -0.45576774041947526
    24.206066633414729 -0.46052648168156934 23.483878006756356
    -0.52027469072801968 10.79875397020465 -1.0671852785477993
    8.0897810322435699 -1.4424562585955809 9.0315491882715939
    -1.0724619645838629 10.253148354399224 -0.78367309852464395
    10.728374082792206 -0.6312057304864126 7.8716863750811568
    -0.75489655841360737 14.953482134201019 -0.57859757320999206
    14.270585455260635 -0.58347873258080596 14.993727816357787
    -0.70024007558065937 8.251371318328415 -1.3745757906330391
    6.9450456944776242 -1.4096361041120427 8.4993509263511093
    -1.3293427394396393 8.7525898634501615 -1.1725097493723202
    11.580655064026395 -1.0134672623419667 10.52832082356367
    -1.1079396465876481 14.996119860729273 -0.82185750138973079
    13.063679523584611 -0.75024620977608847 12.135563545203325
    -0.79306807775532373 7.0932365169252725 -1.1973174987656228
    7.9527187478944272 -2.1803262334635716 6.869389370858646
    -1.4975516750783713 5.88204899493652 -1.0475997981801413
    6.5622789371426435 -0.90196021880180388 6.2986608447078636
    -1.1057575312569443 11.703052063008835 -0.95023816897694369
    11.442437622389761 -0.94574722315306214 10.204500858333612
    -1.0798766462635789 7.754051308326833 -1.9195619086085005
    7.3034816376574367 -1.3497319725787054 11.345359138166433
    -0.95836133700338721 12.973742791544474 -0.75542088361337278
    13.47113883498411 -0.69551482164990952 10.572603914875213
    -0.8074842775601444 15.591023705193392 -0.59039706823797411
    14.882045022564546 -0.57071896063474137 16.317119073842701
    -0.71507945147848817 7.4095855237274639 -1.30181854632779
    7.7996095464209771 -1.644847882331484 10.928000956414722
    -1.098683876982695 9.2008732293147482 -0.84693358717745049
    8.7502138668733114 -0.77341417723327421 7.7247902522147465
    -0.86344743435300531 10.553317051564628 -0.73170476909715421
    14.266785195361217 -0.72585329503203155 15.348413444459808
    -0.80639043561382184 7.771647256201577 -1.5540955745017957
    7.2965865046477063 -1.7361197652385774 9.5267076082159363
    -1.3963003886738781 9.0837274092112601 -1.0686443549581623
    10.737736104854271 -0.95351522130923216 10.065505680726739
    -1.0458162319954352 14.578106699984742 -0.87133579714765919
    13.880321776437867 -0.86415244776424149 11.696657237724063
    -1.0003502225633409 7.2212767822125148 -1.5360642205445114
    7.6938582000877709 -1.9583075841031172 8.784758647997414
    -1.4265069272825774 8.2207767516209032 -1.0431852162907485
    8.5786590601474941 -0.97610854967361682 8.1111215987946004
    -1.036276830757848 10.696643942251006 -0.92963524096793004
    12.37336093806765 -0.89011376716910495 11.606428721986658
    -1.0916542344804629 7.5583421573602587 -1.7959854855115982
    7.6084168329417903 -1.4867060296969341 12.996709400874598
    -0.95749496254409527 13.256127980896435 -0.75681992143211307
    11.549913306647534 -0.74478806202123182 6.5118744124832491
    -0.80035918025296537 7.3978027167466491 -0.70491399904799135
    11.727067759269673 -0.70377653317061484 15.811346487278552
    -0.77248760874167355 7.9276984686174119 -1.4766276031155736
    7.0125805457603416 -1.2792518066796925 12.479199190673512
    -0.77998649705861101 17.177284552604519 -0.59950578846156422
    15.959723821703632 -0.63518263970054645 7.4067419744092895
    -0.95884288603602619 8.9712336705912694 -0.84819048417766552
    13.072543563393705 -0.82985414390384016 14.012703851581945
    -0.83094756784821344 7.2567328992079805 -1.3169591807857663
    6.7121066031820424 -1.5399394771764343 10.857382268429468
    -1.1888727698798007 11.227870603196557 -0.91759930584380034
    9.5065632066550503 -0.91339305632648593 6.7116931601323211
    -0.94062223124198951 8.444162812129095 -0.84160808622958649
    13.389339904190498 -0.81335358744450348 12.308501610753133
    -0.91199787472801119 6.750906668020801 -1.4596604450483828
    6.1546105298012144 -1.3409870827388919 11.103664504929933
    -0.95598832961789504 14.044781393948082 -0.80270209991665886
    11.722042370578963 -0.98549325355446893 7.4916364320421582
    -1.4609961229963402 10.024475411748407 -1.1663365515330517
    13.529875146253323 -0.93584309012142519 10.837608319442751
    -0.93350965061905333 6.2159882893979406 -1.3169292556605321
    9.5481463794427803 -1.330721945554441 11.915205400910033
    -1.2987075238469623 10.951244629681087 -1.2815086506676026
    10.899694119996976 -1.2486470151616516 8.8532201436496596
    -1.3907223323916633 11.241599764413712 -1.0729216038321352
    12.450016961905201 -0.98105588054370796 13.836837678567205
    -1.0030749806912385 10.186501082735164 -1.2721366328383905
    10.016906991810117 -1.7659916773616751 10.779271597926467
    -1.5388760297898241 9.5557198231765419 -1.2229138189075781
    10.55706685533335 -1.1605561248552694 8.784322559375715
    -1.2819742361953055 13.593402504444031 -1.1684152348345773
    13.643884021004441 -1.0996501272727193 13.54600359054772
    -1.2587200785206094 10.011460037602436 -1.6263890494375621
    9.8237985277877318 -1.4691582799651006 11.940835031395425
    -1.318214834733296 11.187943489248177 -1.3861774503528754
    11.038412042338573 -1.5112940599871214 10.222479633732172
    -2.1281860865598468 10.803129911379617 -1.5158077289926017
    10.691407086804245 -1.390051474189431 11.434906647331291
    -1.272647048682062 9.5269104514344392 -1.4034433150799677
    10.28128832882075 -1.988185606605072 10.533885937787367
    -1.586677191604561 9.3739845452868877 -1.3317138388900238
    10.079823017550714 -1.3975324394177622 8.6930646244318517
    -1.6095730971756657 10.693331120766105 -1.4491668798578707
    10.361635653376782 -1.3464801108810263 11.499270089705211
    -1.606203386167822 10.562684770544525 -1.996909394750801
    9.3162950371748874 -1.8588556401323559 11.066045685635238
    -1.5671489037820012 10.097753824195538 -1.2117374587122456
    11.566682901995376 -1.1312412453380722 10.026502649680554
    -1.1326976374306286 14.003201175479985 -1.0576398061205972
    14.740281650969434 -1.1000275717597352 14.649832851057276
    -1.34452117113868 9.0600610706774454 -1.6841608963616255
    8.8448255926267123 -1.805244331300361 10.951450072665468
    -1.5640357313443398 10.225815399622597 -1.1963428873890707
    10.881334819469824 -1.1538129783405702 9.0518280098500377
    -1.1310012508109211 13.23885771969001 -1.101517069965531
    13.698054412415559 -1.0670629647516527 13.897156577256077
    -1.3575576033972623 8.7547510475436372 -1.6928324564847534
    9.9227397535513013 -2.0657870029784702 11.848282952239236
    -1.5937942643089982 10.614551679733182 -1.3026347921937882
    11.759298693538108 -1.2573591119806085 9.641640906883854
    -1.2692028075934161 12.044164818041445 -1.2639812420066832
    12.034627812078439 -1.3129821559481498 12.126564083086672
    -1.6455860670831761 9.718045560236872 -2.0018558112595062
    9.1631270260921056 -1.856527376581131 11.168803254592129
    -1.3884749002144168 10.045737450715725 -1.130784494629222
    10.467954680183743 -1.1899383551715066 8.956258836160659
    -1.2026259049200945 12.447470685115126 -1.2210381975065496
    12.674129515850868 -1.25806573559085 11.033304761246974
    -1.5341771998508482 8.8606773117873061 -1.800476872968662
    8.1805753309200728 -1.436982341052214 12.67121989000875
    -1.2013083333128198 11.073709637356316 -0.9483798117666431
    8.98943792643996 -0.96282363473544297 6.195024606107995
    -0.9754193377349808 12.051887875360908 -0.9752515590484232
    15.206197644577362 -0.89841293412763501 15.757502677203744
    -1.1030242802888837 8.2781219995225364 -1.3640024729725251
    7.6117548069875971 -1.2187798502971641 12.858916390107721
    -0.97712416060828455 11.054288637660658 -0.84662947235238972
    9.90801404644718 -1.2168778703558925 6.5639072772192781
    -1.614174344575763 10.900652314969166 -1.1907914156278354
    14.896021397165024 -0.91893042539706571 13.854999169098038
    -0.96946404323458557 7.6186915978098142 -1.1703018562835825
    8.3997079737982414 -1.4203743990620199 12.63763865256046
    -1.0798270343431531 10.290821058212702 -0.92891653589981493
    8.1620582228209315 -0.99664373451588162 6.1618401728922123
    -1.0134109351902778 11.971941466435364 -1.0326915849890077
    14.511597733469246 -1.0088774672352514 12.497047116875253
    -1.1987508587227433 8.0326231212309089 -1.4378744055802475
    7.6907303963544562 -1.2146141542076121 11.48319629802884
    -0.97748456366232095 10.209068910666042 -0.95907894398538307
    9.1331759844670053 -1.3207682002054175 6.4630244098506138
    -1.5637967723860171 11.279751520968908 -1.1256598844455834
    15.335148078330702 -0.90888983477211571 12.923025102833194
    -0.99402897340037644 7.5853106737385909 -1.2327051442196655
    8.0291670798075234 -1.098449154286079 13.361730361248965
    -0.93569036134042216 13.368058741195748 -0.94761388187813445
    14.478441892541719 -1.0640435719630292 9.9723951546400489
    -1.3603044631882808 12.504909966001556 -1.2831186392271496
    9.3988102104467774 -1.294698472896366 9.4799933362138393
    -1.300568991428841 7.5407306175515121 -1.2280204757013946
    8.7530181119298103 -1.7341169789714037 11.677121134600384
    -1.3483381591709926 10.971196669324332 -1.1759816036843447
    11.064914872520687 -1.1728444376474707 7.9984138950039352
    -1.2197429590690869 9.4471255227345097 -1.0899824426118645
    9.1901943047460222 -1.1218614293853142 9.6779778138406076
    -1.4585428268626204 8.4628069709124798 -1.8121067084649831
    9.7939107499391582 -1.3560510925526745 17.147152869077715
    -0.68454950245991297 15.104993806694127 -0.6230471126828242
    15.32615815382986 -0.65661007544892458 9.0085750166608136
    -0.83683380608545654 12.465655277748851 -0.85187114802549713
    8.9923209268831652 -1.0809449489329888 8.2701994673562584
    -1.1904496798955846 8.0217966869008048 -1.4935798045252118
    9.9017161227860164 -2.2372855495533677 11.300698756809572
    -1.0570272626462009 9.1476158630733408 -0.89508912047812683
    9.034479965087165 -0.89019535897788971 7.4175613901558366
    -0.98660927481517224 9.9068224474662934 -0.86281451503781526
    10.388811015041343 -1.0418308697480942 9.2605829531348522
    -1.5009080387122253 10.730512317823202 -2.4893008250549378
    8.1611963020202829 -1.6580511639217965 12.577002529730294
    -1.241060883201903 12.452811812847203 -1.0642750749692198
    13.526630722679798 -1.0794322172359483 9.8719924504308896
    -1.071965743323068 12.860219066150986 -1.0358012715963714
    11.900414089057691 -1.0508964839124737 11.315203234646065
    -1.343285436440252 7.8556213709288834 -1.7278498760972603
    7.8426570149898716 -1.6840296887976367 12.922757272615288
    -1.1569222039349472 11.620785508401491 -0.93535191748137814
    10.880285464879774 -0.98700430487395674 9.0260492519818847
    -0.99550874105640896 13.705939867754619 -0.99602595813430084
    14.079178257782957 -1.0424534743338487 10.332434418726082
    -1.2585725481499501 7.4237576655590045 -1.6964072433467825
    9.0607502818673602 -2.1537388899894045 12.509847678422398
    -1.0897080344008121 10.066603176190648 -0.90776939728382511
    10.307469223248626 -0.88826827000367758 8.615842117180339
    -0.95561464863524703 13.065251841489648 -0.83363144774183306
    13.104800550506136 -0.89960592089150049 10.229231505859659
    -1.2881423605369604 9.237305125997155 -2.2200623627335307
    9.4125230663187818 -2.3476778944093653 12.367379943502581
    -0.99240245093307378 11.018447760447772 -0.85024353086489812
    9.7239382784196913 -0.8476879591013865 8.6393062475597802
    -0.8997064542915798 14.286280530726014 -0.82436911704508298
    15.608522942307021 -0.87999174199845576 10.168805098684912
    -1.1635196459478683 9.2984645429508141 -2.3579465030382196
    7.0097087720366646 -1.3960538004287728 13.309421667510524
    -0.88819342578738092 11.179702526590306 -0.75777764267386749
    8.8906084217193193 -0.8540150735301042 6.1544023177760634
    -0.85601992397980253 12.426108983443575 -0.82434888633612824
    16.216261891244724 -0.86493318592246671 11.522984576079685
    -1.0740345645151728 6.7461211788929356 -1.4780507656737214
    6.553674102381267 -1.3274887588390059 12.639708391633217
    -0.9271113059837891 12.258932169813297 -0.84817147795776016
    11.310549038595749 -1.0184013715656242 6.8691261652383346
    -1.2588379432352321 14.644655278921237 -0.91213789999694272
    16.491046764073481 -0.77285383195875101 11.630740751337816
    -0.96637972881303791 6.4033357464743492 -1.3963702165263046
    8.5226297563324867 -1.9395746552621127 14.26960792273699
    -0.8490596945003005 12.171879452667937 -0.7371360616089867
    7.878372798602145 -0.73486851706054213 6.0226016353791394
    -0.76278764020618528 13.036876512189485 -0.6878979369939856
    19.079642991197343 -0.74959437481901847 11.913957419151444
    -0.96324968092244911 8.183545063590131 -1.8980425154077365
    7.3474936758343787 -1.6160793116886365 13.124148141480498
    -0.87596830642850443 14.58971240645419 -0.79578078846854861
    10.166088609461466 -0.81453349663295116 6.4804586500633299
    -0.95005337420110647 16.202903701628422 -0.71783016370707742
    19.603507494017229 -0.67553892223983691 11.18736703053845
    -0.83744719464090756 7.1767063090666969 -1.5509348238847103</input_scale>
  <output_scale>
    0.52631578947368418 0.49999999999999994 0.52631578947368418
    0.49999999999999994 0.52631578947368418 0.49999999999999994
    0.52631578947368418 0.49999999999999994 0.52631578947368418
    0.49999999999999994 0.52631578947368418 0.49999999999999994
    0.52631578947368418 0.49999999999999994 0.52631578947368418
    0.49999999999999994 0.52631578947368418 0.49999999999999994
    0.52631578947368418 0.49999999999999994</output_scale>
  <inv_output_scale>
    1.8999999999999999 -0.94999999999999996 1.8999999999999999
    -0.94999999999999996 1.8999999999999999 -0.94999999999999996
    1.8999999999999999 -0.94999999999999996 1.8999999999999999
    -0.94999999999999996 1.8999999999999999 -0.94999999999999996
    1.8999999999999999 -0.94999999999999996 1.8999999999999999
    -0.94999999999999996 1.8999999999999999 -0.94999999999999996
    1.8999999999999999 -0.94999999999999996</inv_output_scale>
  <weights>
    <_>
      0.082616417216166804 -0.10657427233609758 0.57015205950324699
      0.046100229763613047 -0.21486450532190371 -0.12475680970866825
      -0.34007901779259242 0.3468788001003914 0.18811899284937464
      0.0025858100116533983 0.31190422674796831 0.7492830508075552
      0.15869301128633068 0.30920039594432019 0.092982854221823202
      0.2102728850177128 0.33187267544811472 0.048895426586371103
      0.17972894774289813 0.16404934551364331 0.45677326176822836
      0.32661194622367895 -0.45934374834642949 -0.21109754112617846
      0.16122599973629204 0.21824700113448053 -0.15322387858437878
      0.25054029809602218 -0.27124335182159126 0.29678552587694618
      0.28596112576942612 -0.09837538422510396 0.3838223546215212
      -0.031365857563938851 -0.38767951770952225 -0.44618611536650954
      0.28879798882019103 0.86039929655924641 -0.73061022751978566
      0.22277251701956741 -0.13525722310323673 0.20729227646597936
      0.31868002990225103 -0.26038821956636671 -0.085614985124696161
      -0.17151908596757404 -0.11459923700999275 -0.4109382522901725
      0.37814712476418155 0.1701330822938561 0.10729761110428461
      0.40426595144917415 -0.073901036198011208 -0.19288323875446187
      0.2598670545088706 -0.19233608482561185 -0.22097796794519314
      -0.4052603225191912 -0.28862516976262437 0.22237132961917236
      0.1737320331508167 -0.54344449230076974 -0.30705647612779391
      -0.24588675217100525 0.16811925613225329 -0.15969919907920255
      0.65249413233667986 0.089296539695746607 -0.29931313648154595
      -0.12412197984404273 -0.42030341983799202 0.23217808676181004
      0.13860106420061663 0.20370779504426095 0.16191105168371078
      0.55407697209675888 0.023063196061697492 0.2773781069740997
      0.10135696060026028 -0.13599646357596576 0.61910692339316264
      -0.81734404206531897 0.39590030131554482 0.062318448050739064
      0.35534724156559183 0.4757430686428612 0.27495121784132381
      -0.15833479299909503 0.45190346728159442 0.41203826540869282
      -0.20469003981447167 -0.60440089992451718 -0.22865965010359987
      0.34050814396212148 0.414865663849879 0.65770902824557975
      0.32922222353145419 -0.19086863086483336 -0.67207354030545863
      -0.30552718803133472 0.28181176198332891 0.59028992834758298
      -0.46000699398466882 0.65791933283504667 -0.069750175333001208
      0.38061505818284447 0.19826449029385521 -0.20583833280670322
      0.068931579640474583 -0.39717713099509155 -0.3337620928693249
      -1.0219537173829012 0.46952176813247726 0.23234419066015388
      -0.13216804054373432 0.26674107918547263 -0.05459782447376324
      -0.45059507356275441 0.26747770127682341 -0.14543701845079279
      0.0319633696758801 -0.32870223501549845 -0.37999100207259939
      0.83592521043467749 0.14225225316523699 -0.8085130829313153
      -0.24128638105122022 -0.24785344957070915 0.37782111451224876
      -0.22860628852189874 0.67770978985628216 0.30648636184243072
      -0.47624868378837648 -0.29369456756418605 -0.26429613351931242
      0.39713517980072288 0.21528598139666197 -0.26381668816636838
      0.48146068621914057 0.22721999961561729 -0.36524386242673729
      0.36588659276140673 0.0093246617721106095 0.79461001709862733
      0.32021654846376174 -0.39105300639247109 0.08034594187279584
      0.07645708916938318 0.42728727616946566 0.20859867107003482
      -0.22822728659689331 -0.21542524312045039 0.30400696222669854
      0.35142829799164105 -0.17659737537387615 -1.4272985776171909
      -0.25933603671526129 0.28651749182764685 -0.0024172153592356528
      0.8211421973493509 0.21768349806240145 0.0041441866099969152
      -0.3467166758988629 -0.33507830005434031 0.40082587039195877
      -0.32415818370198562 -0.14356599824433106 0.94029394719986359
      -0.058428353604344625 0.28324634730505532 0.15700003793049092
      -0.24418444323741614 0.50484645878081269 -0.24361704388633265
      -0.3141355737557176 -0.15691628406353172 0.1822566401755352
      -0.12175052586267304 0.25038675182781639 0.20239347736639729
      0.073766144246934617 0.11130480886182091 0.23792391186900544
      -0.21693238199813392 -0.20666081633114139 -0.11501468841480811
      -0.3110066822876672 0.71558903961002307 0.1598029644046117
      -0.28183965791359383 0.40936341762435458 -0.29558626799778281
      0.20345364245647543 -0.056563979129244435 0.52058485257376574
      0.1450451011411425 0.19152587710605842 -0.15436420267354481
      -0.14580266082660912 0.21592757843325047 -0.15937852427099594
      0.13533443721485522 0.11403885015084751 0.32324357003070764
      0.12085712493344521 0.17683172126214947 0.09998528921982737
      0.69999936978828947 0.077107676592929358 -0.36750714870577406
      0.10764441054050478 0.1310252965788575 0.29483729654352919
      -0.026920966811111613 -0.15861352239567947 -0.09875875042995555
      0.24479062212271724 0.29325384342673461 -0.15302061888786814
      -0.93503787190524323 -0.12877872668065693 0.12141354976617488
      0.016227085014870864 0.26837603131244991 0.090169712107238939
      -0.27113521418326225 -0.029425489529148623 -0.12231774031163516
      0.019124021459306584 -0.039234687913080199 -0.10206331068542011
      0.63544944228627098 -0.090063959889866901 0.040961935557773957
      0.077962947160959972 -0.16129372996847793 0.23633772519462506
      -0.088367161375833073 -0.10206094650539306 -0.6359558083608402
      0.11308378396391713 -0.47886185904590972 0.10059319465735726
      -0.0068556236257230245 0.00026866646699557815 -0.18902505633011457
      0.079918369377517784 0.038244930053954053 0.29893259486724305
      -0.24786029510609511 -0.24485816082206538 0.95329214557633701
      0.41400747298674428 -0.16038601340940153 0.86401757804200996
      -0.19755935696540011 -0.045940123189374987 0.28776412907419469
      0.85475872661023822 0.025238695174790382 0.22340143192066819
      -0.23095871555801689 0.16483282668393923 -0.019554718053268749
      -0.17891130831105764 -0.082162631047989085 0.051346051371396716
      -0.24425548412994955 0.18322385312181425 -0.0097460120869572488
      -0.11711279109378962 -0.027217261162242407 -0.10849973356668823
      -0.78423894866283428 -0.14078861344566113 -0.028964386419737708
      -0.17054900817748414 -0.34378119336772006 -0.07465980471684891
      0.016181247167398761 -0.12661401866865443 -0.17372819010027496
      -0.021132922102571443 -0.6426945607519009 0.005672753454136658
      -0.012820274959855049 -0.03489515299733293 -0.4810485777269477
      -0.034236731915648334 -0.21786747147138352 0.16006460317140297
      0.025923217411555656 -0.1123627107930598 -0.18854006958358016
      0.12321960345561099 -0.32516059803870717 0.037121211112229907
      -0.25552418067169902 0.075148747665391161 0.064884161369599042
      -0.81185447753527007 0.17101342148311521 0.17420753673267786
      0.32943717831699182 -0.32579595008554163 -1.9319314892044459
      0.03816761558516843 -0.14853459162686769 -0.021561345884283004
      -0.19655320462951756 -0.13181322130409687 -0.088702361127082421
      0.79094879049330147 0.089675511226955121 0.087194614902843845
      1.5566579438774977 1.0832683495696287 0.30579007850264123
      0.59306895614927235 -0.099445666774777675 -0.16287824558987954
      0.19165186743548934 0.4103175207804487 -0.19247697862785501
      0.11676647924691219 -0.18523221557878555 -0.0031399680442049369
      -0.0076143628023802017 0.098163757011842226 -0.068727679113478365
      0.20539282384511431 0.075335545195170606 -0.13934158581475239
      -0.036947218569130302 -0.21520304655966163 -0.14293972451273615
      0.088098281857143093 -0.409622430059424 0.0044337939794445161
      0.016659021850957953 -0.038180439290140124 0.049085588404449876
      0.072482290589107032 0.024912055729391092 -0.052871782736227162
      -0.0070403572723885576 -0.038677668132523081 -0.15420231548398772
      -0.061505258533415319 0.04666701860669218 0.04741730738010147
      0.098146740385376227 0.15792514737448418 -0.029989691399232778
      -0.12643922540690314 -0.21490608677662218 -0.041248471596177214
      0.19348561998638655 -0.43670738846173107 0.089053899722697533
      0.13013498029715892 -0.020795166915189449 -0.015904643717990864
      0.15010815732841601 -0.25707837170423792 -0.024391293207418639
      -0.00024611058362221578 0.41743293381667013 -0.023957801877798383
      -0.59250853832653216 -0.19937073085184542 0.031452073025611163
      0.035177365062113199 -0.034828046649396496 -0.055178949712423188
      -0.014724339163388776 0.31599146881052809 -0.16436790237892335
      0.092277873720206613 0.94533678237992125 0.31102576911405233
      0.067613438557342212 0.23556300809409636 -0.017280020133304146
      -0.0023822452277552941 0.087363264922598466 0.44336296228612876
      -0.083447251782932524 -0.16964280936944323 -0.19743659868939997
      -0.22883864819632152 0.11273016365015481 0.056942612586159805
      -0.54908216066226401 0.12773797179849047 0.037958085913291778
      0.15290644632223885 0.12338859961870104 0.033358742656480457
      0.042896137938059499 0.12798443583474312 0.078804237372465377
      0.081278561721275663 0.26578034783587179 0.10624657136007419
      -0.01395241392423861 -0.056554490252089765 -0.21144843438263849
      0.031408051735424748 0.021192416444363548 0.12784690904170731
      0.041028542634250549 0.046430526837590171 0.21114143492363185
      -0.042148089086254996 0.082612014251220861 0.17173334189944905
      -0.13018051995274499 -0.29807977336487157 0.095018943286567653
      0.24471299911982633 0.3413721758458389 -0.51903828430064602
      0.26316915156725962 0.015534418395257989 0.11291756359764422
      0.15305674872142608 0.15565908006512202 -0.20986138659353187
      -0.094595042884913966 -0.053025510933965431 -0.15255697439973809
      0.20021359213207854 -0.19827525959982895 0.010118796598978356
      -0.079722644546546775 -0.10002250623483884 0.035988403183536091
      -0.038239139952874042 -0.032524388049991214 -0.098920632013240528
      -0.054333468589791385 -0.13542797317058328 0.61074999489002835
      0.27591406715683742 -0.22542440983118026 -0.33002877392847041
      -0.21248418664493279 0.066561579698322368 -0.03216321084728594
      0.49261113623966751 -0.19329887239526256 -0.15829341340185815
      -0.29813959900384662 -0.031922754022031492 0.12629159444991978
      0.26770004343934922 -0.26419305209059013 -0.035925370018751415
      -0.13125895177610256 0.018614592582103611 0.098531885589585713
      -0.41741544495130051 -0.18765037166498294 0.31591727593274105
      0.30982246766153498 0.11101735511116927 0.14362362910371732
      0.39295064422087239 -0.022138088088965318 -0.27483115946330011
      -0.12186539921483672 0.23062334240118609 -0.062957919996662504
      -0.04254798757664803 -0.38354531684882431 0.01824712277524234
      0.27358669251855222 -0.1371375174988734 0.487989437390977
      0.13369264855815283 -0.19852314819748298 0.22318022711055724
      -0.0058601386797568237 0.26565883968362369 0.11710279480415023
      0.17526678080711544 0.41853208991269758 -0.11588486285162382
      0.084990376838800674 0.1997784027767967 0.011660051402874228
      -0.20430777707435241 -0.043523335384547078 -0.33715669502363871
      -0.31742187516374692 0.15343884579518896 0.18883606953167528
      0.090649132505779106 -0.081894580127602368 -0.15794563025568537
      -0.087553526116618804 -0.17504417406816811 -0.1560589049245836
      -0.24023317638591141 -0.062064743903868652 -0.19322533287029267
      0.69772397829107891 0.16434114132242381 -0.16469816604670343
      0.11589860017597019 -0.18890237743876634 0.11755775923282524
      -0.097445495391650844 0.005311898080210895 -0.0079289900749246606
      0.11087860868316679 -0.25592489286596243 -0.29678598425506469
      0.54749002621658971 -0.070199414366351062 -0.21236363570169109
      -0.070854891916373036 0.19327909063804397 0.25355851146962533
      0.31126075949648696 -0.15209915511685473 0.55745191798743154
      0.19697219603575533 0.39609355737648549 0.12222540843925093
      0.25731772376522721 0.45529373609521795 0.24734234943068634
      -0.42092517125807732 -0.22580393739181065 0.14283571769580339
      0.10925243760970861 -0.033332704384274714 0.23476434610846816
      -0.2729427480169247 0.33028724231663692 0.11109452554741743
      -0.10908884585112542 0.23567244048396913 0.049627270799613536
      -0.30143678542534058 0.0089150927961181691 0.29164715168632555
      1.1736211852937433 -1.5968349317438728 0.23390655929865622
      -0.093039581907090732 0.12406719493032203 0.28198831866953517
      -0.20283445588246951 -0.49614342792968197 -0.1859163719195415
      0.22265890328169199 -0.35676614441348664 0.24808968425260164
      0.039202431264723579 0.069285337201614589 0.17173989752752203
      -0.14390599420378838 -0.12855024449371522 0.037746147162227239
      -0.14785670029482878 -0.061974991624067624 -0.21190084346387
      -0.19680346443904131 0.32188720593192771 0.23360455965036667
      -0.25741919928622364 -0.083523804547027944 -0.30461704486883384
      0.11522765533554342 -0.37733027652011736 0.44426282352240826
      0.17489151098146297 -0.3454685616345331 -0.08658736594511901
      -0.2254697511161271 0.098304359117734968 0.28629468094045024
      0.43203212057264168 0.22188609815539043 0.37574579528471602
      0.16365015130309216 0.35034445218566923 -0.42099892789466736
      -0.35769505200542451 0.16822755767407591 -0.1635446931295938
      0.12663494078175896 0.096384548367933212 0.25391399733514514
      0.074237553804101339 0.061907770677963547 -0.16199591592200135
      0.22281256961683252 0.22603483930543633 -0.27153989678810314
      -0.017312944261836487 -0.19055679413887797 0.30022392858717367
      0.023322902844309625 0.050217476186933986 0.13047091800825297
      -0.18332333643742471 -0.08014272653490645 -0.19979594727156999
      0.25743111076366898 0.56757536004108478 0.21086551365412376
      0.044567836882593782 -0.15307671933550338 0.099144951467579581
      0.34050982048584688 -0.372558842495255 0.58792944443765383
      -0.06699662404539139 -0.080489718092343468 -0.53845846701601385
      0.21826002645560408 0.013793043581451839 0.1658743332442609
      0.26579207854132325 -0.18903287254728318 -0.29330322715592105
      0.18905131879551693 -0.16313753486153623 -0.35953376073251114
      -0.1248506503337858 -0.25881928030013496 -0.052606198549486241
      0.29935196145037324 -0.30891871894988271 0.19152840867120016
      -0.11952118275505051 0.32159019067552969 -0.1932877526093906
      0.39539434682692792 0.23043564189737353 -0.12603486976375355
      -0.14497727046773909 -0.15313092557539826 0.21197098317291874
      0.15142661545625047 -0.13186995966172887 0.068351916698157586
      0.46108024550789944 0.11805758305244091 0.24831956317678647
      0.23310671962306712 0.057648893107458105 0.50216579251507454
      -0.15658054885023542 0.20667531786573373 0.14505562443360392
      0.43064345448495889 0.21969638774125763 0.033721080645369661
      -0.050914854010572351 0.18746030579658599 0.44946811753461541
      -0.29638860124380784 -0.35436110061782466 -0.21299780374062421
      0.26865028408218256 0.26844647511811986 0.55534904657542705
      0.1151350202112697 -0.23745397005852162 -0.30950537233727038
      -0.18169453685535283 0.22678612051150782 0.21173825991040704
      -0.093281905875283608 -0.046728091500178995 -0.16299830350983788
      0.29400570718585284 0.22555187518189068 -0.22466509788489619
      0.55802513281893862 -0.16649969987197305 -0.28900686732424885
      -0.32466654388904814 0.17377953072142407 0.31966218859878875
      0.22093598695124739 0.14103048669715373 -0.23749972096332364
      -0.27632409252390017 0.089436003975902026 -0.20401108627522968
      -0.21481304800168938 -0.18925748292474986 -0.24195101458550408
      0.26486716221565143 0.20213982171931927 -0.29280100912783769
      0.53792937298881283 -0.13087426191574925 0.16956487229179165
      0.16033674227022199 -0.16138780908705777 0.28687313308675239
      -0.3228430272120692 -0.11294906357137395 0.0090652404630391856
      0.16376765154050843 -0.17175044930326308 0.50498745911227516
      -0.054842144358275363 0.087030244148167554 0.43759979009242717
      0.14478738302446195 -0.92653076701348314 -0.029253244759562671
      0.10350497601737091 -0.20135889873132365 -0.098187291720166131
      -0.012184813789303875 0.23637973781372293 -0.158230374564371
      0.033294828465412464 0.037874722946049252 -0.025609711145789523
      -0.0084979385188086124 0.042056324769610964 0.013386664046284066
      0.016294465885552722 0.0093572062604162804 -0.16300462380911815
      -0.29920868851202603 -0.1499437010779136 -0.086468025594909029
      0.055560864622669057 0.32048618654877509 -0.040044130110489094
      0.27771880894610917 0.01062920379442788 0.34608333245335321
      -0.059289894402207527 0.060263841435026631 0.090185256777290723
      -0.020860936079995642 -0.38485660491999485 0.11171532517638444
      0.22888741983008559 -0.20724663619298647 -0.16913889340700561
      0.13333012253213664 0.10720637947101265 -0.13377781659152679
      -0.11397542103035081 -0.44138265819443095 0.047005006556479316
      0.14076580491777854 -0.03414371662371974 -0.0052275152462609407
      0.037602655256808927 -0.076450228293173231 0.039812738529828057
      0.32294005355228717 -0.17782305639728974 0.14319942253527804
      0.069996403121047962 0.16770439078253194 0.37883551841414048
      0.035534841721043424 0.19180484070910345 -0.10401578389031853
      0.094042674057956535 0.022085043936779368 -0.26607648794154176
      -0.15006247800504488 -0.14053475727503231 -0.051621673720558189
      -0.2362555218968381 -0.047694875427141979 -0.037438501824073663
      -0.13372274712060503 0.013202551907125208 -0.11478963233219869
      -0.060211802982446154 -0.01848049046170875 -0.0072293003220548048
      -0.061011849620771746 0.35624802528749505 0.11795480402626989
      -0.13744254358964275 -0.18356211970146585 0.19423435211665552
      0.11871182308932449 0.081028323743528516 -0.13061713657754623
      -0.17212232341268646 -0.24721623833145215 -0.1275974689462579
      0.12914756707006386 0.046590789295833247 0.18830040109487331
      -0.15118914309054329 -0.032934688191273237 0.093557479799723731
      0.058357954867110103 0.040783247521759665 0.076969522136042343
      -0.12356645957118687 0.20947544380586239 -0.10709032843958974
      0.22791844863954808 0.26923612233089089 0.20105662530552834
      -0.10758283922171216 0.17417817635171232 -0.0072091564712560147
      -0.17852249363862488 0.17659991385559332 -0.10134724180861535
      -0.015694870634231216 0.24303486256584386 -0.013427391583887194
      -0.033133673941144484 0.11319984720718165 -0.24690511612891466
      0.22595712008084035 0.17680545713590037 0.10820945024494447
      0.1348409531781887 -0.10534363861649554 0.087307023999141836
      0.51058505641232643 -0.24374533853939037 0.27939187850566882
      0.10518059877740699 0.1202138236848475 -0.10279258440421107
      -0.14256094418430373 -0.51526234846516683 -0.33624327728419046
      -0.27787115670977736 -0.32704660232673177 -0.12769795119841765
      0.75475398831060425 -0.19604272743406614 -0.10752799660840813
      -0.1598798165008094 -0.17370126824291016 -0.12344818290112175
      -0.14708403519211502 -0.18182638783528715 0.077596436024046214
      0.18078865605808436 -0.23278535820970161 -0.1493548881784697
      0.17119085606460258 0.22539195129134645 0.13532493718600749
      -0.27484308659103679 -0.16757382147981523 -0.22216138189674373
      -0.12000812510161267 0.206597871192501 0.15643589862959476
      0.20913783234633812 -0.18812271890229565 -0.26566909829590213
      -0.019750177234333199 -0.1151996509954564 0.13051534924689817
      -0.048466321737970726 -0.17165808182529427 0.20867494852778359
      -0.23805862107386314 0.11760670378630209 0.075751952416827903
      0.1897354443932914 -0.18808591481413756 0.74613934499887047
      -0.11246322012939641 -0.11542393086825499 0.19304184777125044
      0.24766889747816392 -0.11576437066409245 0.13992773230078415
      0.0066987862490361988 0.37029199807695923 0.10219212124236256
      -0.39913922965833126 0.19607616269627523 0.096791317684330289
      0.067190314025526568 0.11301567922753651 -0.023703291922393125
      -0.24572153177708403 0.29178044711280315 -0.084565080831930414
      0.12791389465778952 -0.12919608481010361 -0.10625637996042309
      0.12632623121666942 0.11155002796374712 -0.42852658928156584
      0.061574795143037209 0.047182727226718423 -0.028462860820749218
      0.16099794590413191 0.78091947444946841 0.071473810362052928
      0.072031894779601799 -0.012915961458665384 -0.057757915239787037
      0.12161759240727642 0.21765357274723654 -0.0025459384499567079
      -0.21656601506224474 -0.039974912862678506 0.013610628035987716
      0.24596264416388378 -0.097258575310293305 -0.54536969393136647
      -0.059635047655028986 0.049554278727046049 -0.042785973912252875
      0.30812006705418366 -0.0098064050814265641 0.027128483284386152
      -0.054049710709672641 -0.080321219528459123 0.12538744353832013
      0.19415595520497395 -0.4503467386687407 0.75533176476393937
      0.029988534515699026 0.18492897017985674 0.050825173684669676
      -0.021524952838008947 0.36118456558354711 -0.105615794408884
      -0.16439476132613073 -0.18608049568730112 0.0015316243324785558
      0.18808768656032071 -0.1778747417683251 0.13633317219994312
      -0.11842652258384861 0.27678067496910219 -0.013379984854473087
      -0.061068289137148957 -0.063776476699160756 0.1463325707480975
      -0.085062973305498391 -0.31363981893277615 0.2780803274930489
      -0.22391953637442583 0.3623069286131787 -0.091075894852174905
      0.061584884140289134 -0.0758897108733005 0.25992154635493103
      0.10477370551203562 -0.28584261063488875 -0.13471314206093452
      -0.1533552058149498 0.11265456478028918 0.055441604423473678
      -0.34333123601325172 0.30966541873732645 0.21259849152909835
      0.25176803215080507 0.22030940150155226 0.25544266302989532
      0.35695542851112544 0.22312690692730699 -0.0022332470746867106
      0.1429970851870746 0.058449102204772688 0.41218247486312087
      0.1213903533611687 -0.16443997455808132 -0.14654086599963989
      0.13359855259011155 0.3512023822868332 0.024041890642492347
      -0.31868982797812362 0.037046695034308151 0.16307120098370531
      0.01444082367357372 0.30336776348317462 0.19929349364886376
      -0.036885684773640189 -0.10073725795833724 -0.26945799634785478
      0.090184043833723623 -0.16440523375965302 -0.25707290250500758
      0.4852134665591275 -0.011646206576648716 0.19184874944724134
      0.12841337658353444 -0.088482902759568563 0.22351538481368821
      -0.18684585330782116 -0.26524213989647755 -0.35850674549305267
      0.21237151934728457 0.24001621024691458 0.062034504864664455
      0.23728542470773129 -0.21149193762739493 -0.051687348743430624
      0.2211659693734086 -0.055233466328216803 -0.30556119118636016
      -0.013283059807276707 -0.14523508017363559 -0.050485234769430468
      0.061655980637930624 -0.21265131016945818 -0.01228916431756146
      -0.12021311982093104 -0.062094624815785926 -0.20056226153181503
      -0.12386112576626378 -0.14570416346671153 -0.32069660111606813
      -0.23469860054496283 -0.13210765653571321 0.15473588819635867
      -0.023164445430784011 -0.19114153383507429 0.28501259704573734
      0.28691612386266213 -0.1668888615618665 0.20436395726298451
      0.62186140566388115 0.20825340906392123 0.25832830877993979
      -0.16483833519586591 0.07253924699265514 -0.0089644784377550021
      0.36942281791032416 0.26190276565990966 0.084614265602792935
      -0.18521581615897512 0.27267683063481812 0.25589085729077604
      -0.05167864952485924 -0.78033844747032277 0.0011983511456117647
      0.29414605472067623 -0.14053915644782691 0.2636747938461626
      0.1237792982589869 -0.019284483597715618 -0.04854518605750123
      -0.083886484994155033 0.11008689109865161 -0.015058159453782336
      -0.24553521017061547 0.32824580229642669 -0.095246054889500317
      0.15317321837707326 0.15180789979129342 -0.21775353217480273
      0.73272124809424544 -0.15899520700420977 -0.22109956119618931
      0.017942495719604459 0.24338008110421724 -0.13667429859235344
      0.095923233372760125 -0.0037201029015520733 -0.052556970202349305
      0.19025736373444391 0.064707155565222524 -0.11332808107410222
      -0.04726276624132697 -0.21391387439695328 -0.21139975347582085
      0.40950863868989718 0.16800053805183321 -0.052330790564386276
      0.56594748305995146 -0.32525359281374361 0.034184100547629867
      -0.16408698529616567 0.027893180041890064 0.11391564830880004
      -0.25765773264404573 -0.10470416340430498 -0.21286325277535978
      0.42552318268882938 0.074376249132853789 -0.040795862727155567
      0.14118471026760851 0.42841677105731041 0.31359448398634437
      0.29988879955069914 -0.34638340470656032 0.16688894392955636
      0.18998427917962943 -0.46715182892453905 0.22770238121200184
      0.064645090571664773 0.28938725822400962 0.13540306878957953
      0.076075864422437439 -0.17918379442547705 0.19918756348408753
      0.11798260346549255 -0.32365747095224262 -0.23201802160672086
      -0.21437231091089343 0.35306587557467684 0.093568234186757276
      -0.025338115642061378 0.12189136009576208 -0.086354693903320762
      -0.23911347528650156 -0.29872197702961362 0.044432547042634538
      0.6718256318796052 -0.595676030121148 0.28840011172135893
      -0.14600102493372388 0.073943108163974397 0.29230475112927201
      -0.11138463465255694 0.64946680289281966 -0.11057784395221729
      0.019848253688980362 -0.082498841649610702 0.13881676492346073
      0.1907682849210007 0.13001654804283594 0.30745872909840211
      -0.21553951911078192 -0.28907076818261929 0.11940453909475079
      -0.31350593123584936 -0.2453171951505243 -0.080267884067001416
      -0.28264018796242479 0.18029612916544679 0.26039427857169167
      -0.51095085024711817 0.63757407682574874 -0.27903982811216033
      0.089077008712754771 0.086011154680763272 0.095896364477657731
      -0.015825556449242058 0.22627114286621433 -0.023272041374800739
      -0.1577851659962814 -0.081877963044768867 -0.26221674523911137
      -0.013412615753336273 -0.049119078056187204 -0.13020805329664356
      0.34101598083748286 -0.045746421538039338 -0.31200339937386279
      -0.23090377635415063 -0.080623299770573725 0.022389679143719813
      -0.041663952168354404 0.11522233726743121 -0.17697839312074079
      0.099085762138278341 0.18543030307720282 -0.069875775758325154
      -0.0036724050391528018 0.024557077075589032 0.13642472999232549
      -0.10778064671537421 -0.00055100399168638416 0.014167479806984859
      0.081007139814452095 -0.042370759564678361 0.11898599980776368
      -0.10887935799879782 -0.23170141694751273 0.083374948800741935
      0.027364662410684467 0.40773999968575786 -0.56699761906502844
      0.44866242802041595 -0.039192563393478153 -0.007986419897419576
      -0.0067017707079033784 0.14088131005470961 -0.62198323724920335
      -0.07046801842177973 0.070748931502649187 -0.35699874970274392
      0.023644806535750181 -0.090757914865462488 0.038107912542582514
      -0.033476082533758424 -0.10743922132112728 -0.019361713188913592
      0.042248524410361324 0.026297480671215664 0.30343310630390885
      -0.17344725208772963 -0.047025510226763489 -0.63725013568779476
      0.13942722465706206 0.020571471908953212 -0.50816269470164965
      -0.053925182902652427 0.13024536386559707 0.03058469935205101
      -0.16766769345743443 -0.025948874846819514 0.0016396073445638587
      0.0041716048452178026 -0.23906159133875149 -0.15780880098150316
      -0.21749270201499518 0.39191070656654342 0.28192684790282918
      0.19778193168766398 0.16063710119112892 -0.016363033520475159
      -0.21330880551470083 -0.08820847391158336 -0.25145855800964395
      -0.47747976408994147 0.095694503205978082 -0.035484870570756916
      0.02423564768934457 0.21509737779494986 -0.36251851893914544
      -0.11384327669429503 0.080843959319896685 0.025259096435933871
      0.22222151228006007 0.30503385344629697 0.080776480338803386
      -0.2931931092916833 0.22985190768950189 -0.52089940740256457
      0.22116056786699478 -0.18163103099063727 -0.33227510950340688
      -0.18493002297050198 -0.13437945726100239 -0.16619887539399858
      0.35304924450340031 -0.077948776479742535 -0.028689511370252403
      -0.011933523919553291 0.099919970267112343 0.079396489314695173
      -0.40302635438986639 -0.12500488424640183 -0.16857536727300396
      -0.60779508204387023 0.29011702734482392 0.051611921824004293
      0.032063686136830694 -0.12418178680126105 -0.19857943111947471
      -0.15897301116273019 0.13320693642355966 0.015360283522995928
      -0.019876827700382738 -0.045578665475792167 -0.19947511362901899
      -0.54810416468474499 0.24913046630669877 -0.18100159210832159
      -0.38566633639665077 0.065738867441381105 0.21421657134150474
      0.050348216447367061 0.50793377182902288 0.019809178286201393
      0.011603478702137068 -0.082275595189920683 -0.043183994660224122
      -0.21450854896619315 -0.079046614487159106 -0.24757562589969123
      0.18342790522889771 0.042907146775016752 -0.099404561893800453
      -0.040386554114017537 0.15104036957435449 -0.43500660043358019
      0.26690876627807036 -0.017958028501648699 0.11541083192130271
      -0.10218687941640221 0.014536725193472218 0.22119142468528738
      0.18656024671598342 -0.098304776669600677 0.034959629879321968
      0.22171748288449475 0.045874644667677655 -0.014038555941705831
      0.15823035228276042 -0.16407069913606209 0.090438854640316937
      0.84226859653325137 0.2156370394353512 -0.13871016743424827
      0.04008488131060408 -0.35948028597209819 0.010326822939476715
      -0.35052508922844855 0.60001316914590042 -0.55407630358074367
      -0.096114513216957104 -0.017111759800191972 0.0094972983399058061
      -0.11316013936261859 -0.22280120593636368 -0.22322230445515687
      -0.38556022637269527 0.23065851137082594 0.21094090930305825
      0.44380384267564732 0.22455112292580409 -0.035060768795620714
      -0.10361288964626889 0.36506930171183 -0.021751393682316524
      -0.035904078327509775 -0.25295458474277394 0.23103848083440753
      -0.12064513203196503 0.27562515278869593 0.23979035278116811
      -0.15759116098899245 0.32970555188904482 0.15321302221788738
      0.0098602817736609689 -0.0049738226773732384 0.30157202654609949
      0.11654089175689489 -0.50260480135395713 -0.10119631597472904
      -0.22286663701048737 0.12271976513326312 0.048209342155630053
      -0.63977842236257998 0.42133303009790724 0.2239600411008657
      0.39660196501762723 0.043754148482137011 -0.4703501378327366
      0.14358556631909836 0.048496791156454583 0.075519089400953268
      0.18830639886047207 0.038384981561305313 0.28096885104018188
      0.19716255141807637 -0.05666223418204519 -0.23995618061620497
      0.12621239468268905 0.27969079796146429 -0.083599338828831041
      -0.28056389619230038 -0.03214562799751567 0.32476822008147854
      0.081336621050364197 -0.34295551162384302 0.032047486000542018
      -0.11116665152583294 -0.063435501212331241 -0.29072267880040342
      -0.15827026958063758 -0.41306464208010257 0.1944721144702373
      -0.85636537363043752 -0.24956637340755997 0.053709205166825411
      0.15980200780057088 -0.12284665465285061 0.26357191820182702
      -0.057932535233469175 -0.20189769336370664 0.77131124377350602
      0.1999744788010136 0.33527449334455911 0.2983973196774044
      0.23968612270403147 -0.40140866923437807 0.040685865811449416
      0.26316892339009612 -0.048999373418780121 -0.41846429099726884
      -0.1272013575970587 -0.2679421836841997 0.04017337372471208
      0.19854778882031307 -0.080239315838099928 0.15967753926167935
      0.022931589665343227 -0.025909148742595686 0.21233559920920278
      0.059899659409282408 0.032927532960556789 -0.056390754909969261
      -0.13820177191926436 -0.0016088657752890872 -0.12783720699605769
      -0.053301094819622745 -0.41357999525903016 0.23643449286847901
      0.037041281356317998 0.5897481639758515 -0.18668449074910606
      -0.027559915394867126 0.12829864556826512 -0.16431941684231222
      -0.061386522885482027 0.069137075083783597 -0.052864101220520536
      0.094891761184830586 0.020434771190734283 0.0061569397084555721
      -0.15194705319638635 0.053102693654186579 0.0064838127940451597
      0.079361594465323704 -0.039775421663156868 0.052577965758762238
      0.1032660712910073 -0.017814079611924345 -0.34748034316939302
      0.065504085929578126 -0.10568144569831787 0.051672313625934732
      -0.068172108975152329 -0.18398717220123173 -0.24525601920848764
      0.1780084538450411 -0.43708900543937834 -0.054179506806830986
      -0.031416979941782185 0.053301485984424891 -0.027545727060529993
      -0.097929815099530401 -5.3851322679618733e-05 -0.11027988192362283
      0.38236709250097722 -0.088211083621207831 0.0059279501935681411
      0.16791304185329192 0.070539285625851961 -0.28517755929005983
      0.0067150592939119154 0.01078667692579419 -0.0018715974608680254
      0.047336658092360089 -0.14804806789236849 -0.11283072634201891
      -0.054436138013252748 0.19561480721080332 0.44555550575459169
      0.02165911743068517 0.22244606567798253 0.20842168871557504
      -0.21271325433396732 -0.081499722653262871 0.19345050366881633
      -0.27446019453227982 -0.15199132920681779 -0.1335309446831634
      0.12967712210863233 0.046403042995641922 0.032426160083009123
      0.07543778669089897 0.26431403009247201 0.23821835364074687
      0.11967849981060007 -0.2085114142576058 0.059421134743895647
      0.041399898876209915 -0.17088252208398708 0.26895950959607057
      0.058816751646212015 0.52698968911475863 0.15333330500616102
      0.044228918806203929 -0.10604499396388339 0.18350644998166815
      0.016598036796919381 -0.22682325130203135 -0.049902330898759673
      -0.060864086173614454 0.022013566997399172 0.16543164056218607
      -0.0097791042523281205 0.074029545134100649 -0.11503407614212299
      -0.093630374502852234 -0.18340345532795443 0.06165578130371737
      -0.31872297855057674 0.29272263542281507 -0.41347778854086958
      -0.12714690820793725 0.18692377421728307 0.16976747622235366
      -0.35662959608268258 0.27610529774108572 -0.21163078272203456
      -0.2623028139027766 -0.19914498380659623 0.1384270130233568
      0.23917524754662872 -0.03982251067436824 0.21104615301028046
      -0.18353285677230116 -0.28715237740547717 0.14678253332246446
      -0.12092069006636282 -0.11178456643923947 -0.08228704346396222
      -0.22486156715329073 -0.12011768604410236 0.070852227444859056
      -0.083883455010722266 0.043394596437470949 0.22839987439595708
      0.067985684148667694 0.048102609744692756 -0.12722182960779427
      0.10789219781217414 0.036695319008707629 -0.23948224993542624
      -0.23664246997259158 0.0083268853159030095 0.17767898339402197
      0.28813982644518948 0.113376237082058 -0.13236105490869993
      0.090733017804863786 0.13324405502298908 0.085622500873149723
      0.22627551847995966 0.089808752338032802 -0.22229230174592948
      0.19290264799093904 0.035129525157928665 0.39676129028919493
      0.27478926375768131 -0.13432078750093537 -0.2007937240176669
      0.33817266034298171 0.09349688833277299 -0.23844172149108533
      0.053081743535697938 -0.11038350836796676 0.21759821009149277
      0.11026794166443035 0.2120260179657259 0.256585886522121
      -0.18690117851108851 -0.21201858469575804 -0.3811557857974312
      -0.0527327911016406 -0.12989921596635898 -0.0033749965955393343
      0.34952484567044589 -0.19221805423213476 -0.028431605198702112
      0.22866420956448072 -0.17458315514249712 -0.016397586717463157
      -0.32098042884185329 -0.25456759449712607 -0.35297569917510119
      0.26384590230118743 0.09175295906956013 0.23117353450928349
      0.045781523425858645 -0.11385166418253057 -0.34458138045863279
      0.029504909438656857 -0.10658335487779616 -0.090473875434855314
      0.031041132252862556 -0.10043417603335227 -0.27039165730315801
      0.12627036600552186 -0.30939884587886446 0.11304889337224262
      0.025762523919368129 0.10021248763749609 -0.015436428819841362
      -0.12702256022952504 -0.043410567690732399 0.035152036729386896
      -0.20904538852865698 -0.052758419071233353 0.13424891131664626
      0.1746783102597495 0.16391095111285908 0.033876094126458103
      -0.10178992742637158 0.069346558830332652 0.082582823604320524
      0.059055162436568671 0.1278417706884965 0.1000624070855443
      -0.29121842221472555 0.1907991835559596 0.10294006168034571
      0.60815019946706239 0.014062702994197561 -0.077373947202058604
      -0.069280071642600069 0.14304193485810937 -0.05745673941816444
      -0.27269417398031787 0.14979509592383272 -0.051228198944097796
      0.12746696906505658 0.02257257538289089 0.18201482602760444
      0.063638040543115046 -0.024747745157274657 0.022594210379494533
      -0.085407502449240683 0.02168124147458398 0.24930008681520618
      -0.14510317802742817 0.21561183179933768 -0.1468593094016461
      0.086002948816643457 0.15200035575202073 -0.25993998493022902
      -0.13014716127269965 -0.10176969859675476 -0.25287095725347375
      -0.10144948335633226 0.021798907234768392 0.20021457872607479
      0.29041371331257448 0.22168794321186833 -0.078008303876937593
      -0.13284424257981597 0.068265443160990591 -0.060935537704700081
      -0.096845784338071866 -0.020630555267950032 -0.1070369165378188
      -0.41438081974914776 0.017526758258480372 -0.45662198529549713
      -0.03029230299854703 -0.085267964935964308 0.073545157121742671
      0.015818409930622883 -0.31355817637025002 0.019058879325320341
      0.17421571805473135 0.013179230677760946 -0.11069364820817902
      -0.008763127610036758 -0.13714315710032959 0.32802458114162625
      -0.13722434383049889 -0.15405538688221584 0.1309606906034568
      0.014975343520689461 0.069258228254706289 -0.010176707086141814
      -0.25375363701860498 -0.11189362384866926 -0.056993827396881414
      -0.056724350985870059 0.15482551710317363 -0.0033777065129899
      -0.3701779285085538 -0.048775747022885924 0.0063505267931656733
      0.052936346009730621 0.022930525716287592 0.15328145034047905
      0.0022418385486963777 -0.042179115540139887 -0.1137427978881171
      -0.30591540942904621 0.0019724029727521838 -0.029900404348590748
      -0.093951159886512384 -0.050947203118967679 -0.0091551727269338565
      -0.0099105457088456347 -0.028783490953999503 0.65916680441445596
      -0.039857728597830003 -0.084335773422496374 0.032856506231337734
      0.075793921108917875 -0.2502020740402478 -0.052417039226132729
      -0.12888282616212335 -0.92667003444282625 -0.057446379464780928
      0.28289226404103818 0.13634525805841233 -0.040444071027940155
      -0.078101352878677283 0.16021325832164363 0.099586741657171962
      0.024768187302506253 0.12656402459210117 0.069166156747891505
      -0.070785648931852171 -0.71838622536291374 0.042274046714609957
      -0.17644000239164662 -0.60843208722339803 -0.11473188540509882
      -0.051325244203104199 0.074875855305565814 -0.20709148532695362
      -0.07346754670449987 0.011466758283814733 0.0018320694746765378
      -0.032700958961516105 -0.072296219771095474 0.056989331165574135
      -0.76059764751789327 0.017891022756857267 -0.15949001127940415
      0.029450963329863682 -0.016733103391633246 0.33767646886860514
      0.16531332588687656 -0.0018349313730504687 -0.015881366814296919
      -0.012615329980753789 -0.083836936555084104 -0.28996498823095496
      0.010786365668308668 0.30739383974130347 -0.032548245992987432
      -0.041679048512010895 -0.095256199246869733 0.10253533905796867
      0.043691866416703515 -0.037502589012292448 0.075034599849614178
      -0.12860007701927284 -0.010189831867194809 0.10579506698812306
      0.10540424464120959 -0.05153134087466231 0.13755139528011437
      0.00058915582848520758 -0.16279628004976149 -0.44419319524383605
      -0.21828316739337089 0.0078209365290733378 0.073627492035567677
      -0.062337020568260647 0.035920884188071184 0.33274109541972263
      -0.090724404032779787 0.0046823910886144206 0.84305012176244964
      0.034864716471208229 0.67303932395633193 -0.037270521200964225
      0.030837527291673324 -0.042327083941010687 0.06459566630555548
      0.01913648909390421 0.068706442963588826 0.11148412681916628
      -0.077749252150715431 0.0075525909795650398 -0.25202477472013329
      0.034702869480226627 -0.10016224542530783 -0.031990496049091224
      -0.0022789224769185486 -0.070346953769714268 0.10882534030412673
      -0.35535646298667189 0.091834810043772544 -0.12000757263027909
      0.1540661017649132 -0.021834204737909164 -0.18530454634159818
      -0.14487541274637042 0.013582093703717697 0.019785533887924187
      -0.17671694957541076 0.17980273338324929 -0.13192656097115632
      -0.050466580018079306 -0.077615401939191031 0.21647107595358916
      0.25426082231467212 -0.027590850963690967 -0.057063899913185251
      -0.067662774415849586 -0.079526904677662241 0.075364056285795109
      0.04196799249036557 -0.0077418288175045563 -0.13339956347867921
      0.05549648846256644 -0.34508004252878527 0.027413381996871707
      0.082967364307242608 0.044802988916565797 0.68581461937338373
      -0.040715638388959648 0.040975614543214411 -0.089668167983077141
      -0.082888361386420348 -0.050604734068757901 -0.27485340883439047
      0.13392138476577506 0.027270506010906879 -0.048291905700262122
      0.009556864498014038 -0.063730959373123564 0.020119686261904419
      -0.52446853922180947 0.005667432192476912 -0.0031910043513168076
      0.15521330453145066 0.014217355733835044 -0.23962505835703365
      0.050116049678009172 -0.13013622917160023 -0.040406200445321845
      -0.083893693929099733 -0.032053957483004457 -0.05168393360624754
      0.16679578160542688 -0.027515910173452975 0.12210035249885606
      0.1291610566514057 -0.27744302630863837 -0.027697865680488654
      0.077527151146542725 -0.036220202760989514 -0.12638441045984417
      0.092071901921296176 -0.26274623115758788 -0.04564722988794645
      0.041272068507996015 0.18114545051457831 0.026463593209599248
      -0.064120926795280447 -0.15380781960107157 0.15743159134413526
      -0.072177754415799183 -0.090347483393673045 0.04764052691904061
      -0.15603041587526967 -0.020359227771103799 0.21342406087296692
      -0.022879868006781812 -0.062302313011606041 -0.044916921143053318
      -0.033420142455793812 -0.14422173349752485 -0.11878630185930267
      0.16693034821591779 0.061226842949273233 0.006191880545479928
      -0.0076874103048575389 0.031982658854959579 -0.58979396644195159
      0.073990253152149563 -0.11942543090323895 -0.097803116205668367
      -0.13439237797940007 -0.075869240318252457 0.0019666223997339403
      0.045116822840567748 -0.027995410750706357 -0.095942037361338661
      -0.10055463153413484 -0.0034487054187940266 0.63993454247247639
      0.057468795842463533 -0.10515732389898499 -0.13792558230737006
      0.10078923892073081 -0.16628661257377234 0.014783641230134347
      0.042264070755272838 -0.62548864547651195 -0.1469227044594843
      -0.29079868691377192 -0.13396231851464177 -0.18883846755318029
      0.014535896910355207 -0.090203413876365213 -0.17068556504123075
      0.024893763681017374 0.14203486911630064 0.023586611572574388
      0.1417946341713649 -0.31393099078672765 -0.26186737277051236
      0.14974138889232616 -0.070325738695497131 0.19348373754913481
      -0.00064032849604075612 0.010012353936438432 -0.056389800452317021
      -0.047311582524129793 -0.023278948933327017 -0.03043943430705829
      -0.043316094078458253 -0.072736548687215255 0.13387241699582408
      0.039376538665780961 0.031699137963279354 0.06505811731405875
      -0.072411453560654968 -0.054920339808506621 0.12880760066371075
      0.10737603332354161 0.065530294704471054 0.094035609094894015
      -0.12673644295152317 -0.10486920404096939 -0.1643750993299373
      -0.022437663560812865 0.12025201746727616 0.0042346524106389371
      -0.063382899718818095 -0.050700311466631384 0.0044667998392023279
      0.06420086575444868 0.058434053313015329 -0.045669691034073284
      -0.1220680138490717 0.14712519719767203 -0.14671795677315441
      -0.0044558867070360417 0.017544511480175898 0.00041236131568284247
      0.051043286909301253 -0.24379398008833694 0.23909271141750493
      0.2967757369172821 0.036513976487300974 -0.080096953463777931
      -0.081085003316371473 0.04121204095281248 -0.04335640589330355
      0.10962154132997586 0.082170664219183023 -0.48271624454150508
      -0.11237009263562782 0.39535878221499821 -0.0021836006499539166
      -0.071620049470410438 0.11228588962254898 0.036767208848770938
      -0.028028462871688562 0.069376469907187654 0.0256050405248106
      0.069291552759981639 0.08616227901637645 0.15904986322461331
      0.035734879679916634 0.066846435497590784 -0.28061099745571227
      0.094699125942060328 -0.20501298457750494 0.19807537600297703
      -0.26015979562344194 -0.14510561633174765 0.14035140148650804
      0.14793048247132751 0.082640186287533585 -0.19483661673456831
      -0.024618666294154913 0.25945069703803902 -0.090957521654998721
      -0.029520075910518143 -0.23855902539062465 -0.24465652728369375
      0.15550533302169064 -0.25197259573863462 0.059927045883264057
      0.23265267550754534 -0.18572446845038984 -0.25781510753051817
      -0.45982238722433266 -0.18863518392444897 0.14662137736156108
      0.12333569585740915 -0.11860159443644615 -0.18570277701257704
      0.13705819132980579 0.34506924962183716 0.2253722782136319
      -0.20413015696954814 -0.15470301970165351 0.14429705908882132
      -0.12549425209921392 0.099553596957036972 0.17010008716851607
      0.098815883605647636 -0.12340671031820588 -0.24894275051481593
      0.36982933800554096 -0.092642255979231786 0.16512355558227557
      -0.13064185357122537 -0.158755251585427 0.25014429095548307
      -0.36588919289481314 0.11444106350470509 0.0268024631251771
      -0.19692575508210736 -0.201949920092686 0.0393668111109408
      -0.063092685691954184 -0.096193290787070618 0.17670481190963386
      0.33190823516389301 -0.13332737274267836 0.074435456392301994
      0.081251924421133159 -0.0071556377593770511 0.22802997454643659
      0.35403742449342562 -0.46237967633800742 0.29578533828768683
      -0.45830103571372482 0.1648762286280781 0.042405603176824541
      0.048628748340428581 0.077259078690973634 0.019144869632343051
      0.045282637251174228 0.015770690302604827 -0.079720332512309922
      -0.079952706286577968 0.058127925873738974 0.17655443007619623
      0.081580136547754201 0.19445196883454485 -0.14364021555669551
      -0.016510788149705555 -0.03868488822352021 -0.051218696983733651
      0.021834929233394629 -0.013879967877576799 -0.070928785147492096
      -0.11086617161310974 0.034568150784759132 0.0070272433579380332
      0.46713076724730096 0.022513842776390625 -0.0073763869120180119
      0.032492844685495723 0.027446195511830609 0.33360279160778672
      0.13074635438196369 -0.042261460418524334 -0.089579743729710587
      0.30389188161704078 0.065635862769763603 -0.023278157092522209
      -0.093349435219856239 0.065845766090603122 0.030754403699500433
      -0.18866160876158392 0.29190844456538345 -0.22403083068124563
      -0.0108602853570326 0.039670255688087838 0.056513556196276959
      0.098440519755404535 -0.17250734377221 -0.0038877237712703263
      -0.16764444525968081 0.27432187662040713 -0.024327646928472883
      0.13266881933594657 0.053242779796783338 -0.033746523706891497
      0.010899225861325941 0.046693643422431347 0.05209918542761155
      0.0065059005419922725 -0.0087418145470197668
      -0.0065933936521091231 -0.012994667826691552 0.065507534932396097
      0.035817816601048699 -0.013890518697976521 -0.21374386241105658
      0.15809273426361239 0.005198436963207269 0.050391322856581357
      0.068208155115016419 0.13218476404555388 -0.15609986349293084
      -0.042170317647017661 -0.052075342279293023 -0.021445339794018005
      0.22517617396645956 0.17305362773203722 0.10542074983659935
      0.14925105458814705 -0.11777294252340847 -0.02365582226835037
      -0.53485685740131506 0.10192391822400738 0.028427518826512888
      0.26897424366215056 0.058095445553447929 -0.030940143516107129
      -0.0079091644077215577 -0.0084758612987455 0.33969182687995103
      -0.024933643976227021 0.081447804631441745 0.036583831271800121
      -0.061172640631455298 0.31585950019964348 0.13098528866794606
      -0.034068431813496336 -0.12196073107253497 0.029410615237713905
      0.12975712187797633 -0.021535536132764016 0.022348721875292025
      -0.11629221785565735 0.11307560501202572 -0.41934785891174253
      0.44401158768407734 -0.51788082092079701 -0.07175768274124357
      0.11223556102012329 0.078685533328180832 0.028220481669031079
      -0.18202285804618912 0.015263329660770451 -0.057678745080093893
      0.43238916550757744 0.032038203988917109 0.1261004658520542
      0.023473616177330667 0.15253986292449101 -0.030163423541308586
      -0.010489225319472578 0.083720752447678876 -0.050211874251011743
      -0.14620339720025533 -0.048084701536028812 -0.012288105167649575
      -0.28815405551469397 -0.27084285921457762 0.15320484620471003
      -0.23493708360506108 0.15567314166560312 -0.086484881095989841
      0.069970788702136716 -0.095165424060465506 -0.041562121354845868
      -0.15116259425431938 -0.03040533541211431 -0.035754822352774177
      0.17372733138306004 0.16192634602537487 0.055209247345133529
      0.20234223032993992 -0.025280930603356077 -0.071072533720567002
      -0.060692920533460384 -0.0021368886821921573 0.12334296169864091
      0.19918631240862725 -0.15823132760689299 0.08449717091873217
      -0.0097788929014501029 0.041111123832439027 0.12924574835920863
      0.29951591112657017 -0.075551326045276243 -0.011871945750482223
      0.079689831884895715 -0.22268287341837475 0.080892431024664868
      -0.0058672106873476886 0.1227087163398701 0.0033422594547411577
      0.17191168450889782 0.06641195107061279 -0.11574930047335616
      -0.16410086789692693 -0.27723381456746826 0.010005172155819834
      0.26234062915540762 -0.15691004106141182 0.11826456767345926
      -0.075208580810168651 0.044368213203420125 -0.01348443702661904
      -0.12023374553815919 0.067979783554124512 -0.046070764323074449
      -0.085495963988839005 0.6573305530752509 0.021053022055783049
      0.2470336391028404 0.025879618855541759 0.15490923509489488
      -0.041032613511004803 -0.025145095537729846 -0.13816824617096507
      -0.045504382082529347 -0.016414128692847575 -0.092374460616101536
      -0.0086802220686875535 -0.36291571666505962 -0.080796711101142366
      -0.038128515869965622 -0.0039259595781393833 -0.13676968060308681
      -0.039730621200710768 -0.0052799037483587793 0.017969929689810385
      0.043115207296959099 0.13052661120286357 0.069216755507415184
      -0.026187792778450802 0.0069359458738917964 -0.029239020843736502
      -0.25572059545424614 0.13635579445450111 -0.12926700078492101
      -0.12752027286333389 -0.042043010883062469 0.060012707588282345
      -0.12149508672591193 -0.053942144267780524 0.23187387610321888
      -0.040226777944616751 0.035063269420725351 -0.18772535527911885
      -0.060309517565404008 0.114618952165535 -0.027539094214583271
      -0.13680695431348391 -0.030033957312099315 0.055432308690508761
      -0.17657748537936505 -0.039915685370461466 -0.022996573905336042
      -0.092143751388430714 0.44756421323764223 -0.064145382151589214
      0.064841107450865354 -0.097959170537197757 0.15202193193322194
      0.054462512527843572 0.42027189315046265 -0.33202942478009223
      0.58839015334838407 0.048714568293980652 0.040087817870338528
      -0.038768906785910058 0.074478005085310633 0.0039781354718300696
      -0.0086885941765328413 0.10876837002098004 0.42131825979150656
      0.0094025387681007794 -0.089164684990645254 -0.057444030362007209
      -0.053741145943855581 0.057903272864645063 0.14694895299079544
      -0.096698612235461404 0.025000275464581532 0.17655560333117148
      -0.12892931979682279 0.028108512797351923 0.089312441779451524
      -0.23632076277880776 -0.10979387739244074 -0.26306873007149684
      -0.15609120779000119 0.099976850816687168 -0.20224131636789044
      0.63132766591935674 -0.018757671747339878 -0.16923242390187998
      0.045561883383970408 -0.18873788582482551 -0.19224614475683433
      0.16407168579488174 0.39827085454638406 0.042514911668755415
      0.25313889995176969 -0.095625497939324747 0.1643584777184523
      -0.50714822342838028 -0.51531752458761326 0.26647519384854407
      -0.08052997329748772 0.19306474817177313 -0.0013589911825200838
      0.13691868550936079 0.085646487116520009 0.66814523684206029
      -0.067236415717815023 0.31589942521289854 0.21114714224609787
      -0.10670484202732032 -0.61914549206831138 -0.0089658636111239077
      0.2790185373838972 0.10964062461965199 0.29506141092967503
      0.18962157667713719 0.037038615180316418 -0.10164867127361751
      -0.12549049477797009 0.065230240019452559 -0.18567938060423575
      0.89468066955932313 -0.66548494177178841 -0.073756791383760373
      0.1149128338577696 0.18897311520496327 -0.2108617866680477
      0.39518618746755935 -0.18317195227239891 -0.24675279787637797
      -0.28901420459068661 0.32892846787299179 -0.040291255964622893
      0.056404102960679048 0.10704801869666347 0.013717427365050966
      -0.26589090841838481 0.26520654642208191 -0.056507599870344233
      -0.21970374280518956 -0.28337375259726699 -0.23834934033670324
      0.30528187390016082 0.23032824640631275 -0.24071022769305145
      0.24621060327287531 0.052151545710091653 0.35296481660981405
      -0.12759141508648436 0.48817660512944283 0.20019987047055363
      -0.024622096411626264 -0.20382867491390111 -0.22237057393120829
      0.22834484851820927 0.19182038102627258 0.11602020263228645
      0.1716656574693195 0.17398187019921688 0.51349011859573734
      0.28299006273153016 -0.41087164535459331 0.071423868445975633
      0.17553086719821662 -0.53413238094610704 0.09957814908846771
      0.14516967946204976 0.36530832797555463 -0.064855692214265376
      0.062974732940005079 -0.15855074409391695 0.13654388569509621
      0.15488160166215678 -0.23959157774113762 -0.20312394659016034
      -0.31272324396806062 0.21222805718231663 0.068688362321911181
      0.085476681566424975 0.11032317172402821 -0.17758481577498403
      -0.14955348887901002 -0.023425936060730564 0.20333462613371514
      0.1463697314695509 0.18002397765302758 -0.71522151063614126
      -0.1508786789279267 0.21684368294113512 0.19419379107519247
      -0.14718553744035071 0.65665839727702224 -0.075577616243386631
      -0.22849351857099123 -0.30673968008704039 -0.033217334833212452
      0.39443347413419405 0.30567478000110426 0.19403893014702076
      -0.25672602410025758 -0.4965130977075492 0.22930343003138801
      -0.22405068826004193 -0.37743301404088625 -0.14786941418470054
      -0.17279623405795447 0.19037633588822911 0.45285669800479628
      -0.11572369839375618 0.13698990130290578 -0.086059210142487005
      -0.094258727241962256 0.25384951397924838 -0.0086894113623176873
      0.16522843038240242 -0.014529303184698996 -0.010414407422648347
      -0.015013068931685058 -0.059064296285624367 -0.078137191279528173
      -0.34884873535462035 -0.037391113295521937 0.23365288294745895
      0.08186006312181579 -0.12227816730691957 0.10171443036842615
      0.062520419123140963 -0.12473137477890585 -0.14263364614089277
      -0.032031118867622284 -0.067233686212434779 0.17907681409766682
      -0.1464126368604845 0.20572780205135346 0.11551074971193204
      -0.19599093010034113 -0.057310833136128038 0.082647467793310447
      0.60356784245022355 -0.14374759835502085 -0.1370667397110111
      -0.17937334116594772 -0.4767820842321191 -0.14178139210210741
      0.10329282322186104 0.14443841207308625 0.063485557109886515
      -0.24970410811563612 0.39279662133823001 -0.54364976281136623
      -0.41840249913101474 0.025826231235531058 -0.0075912076791588437
      -0.08952889085626653 0.0040835069503629877 -0.16646173124628347
      0.097213017487154621 0.19393507245426991 0.67401856199681065
      -0.11753879954423874 0.050091495360435889 -0.064137043422437756
      -0.14071334071514732 -0.077103432690175958 -0.0029258884405612548
      -0.10132912732006612 0.16079732139570976 -0.099998131942187388
      0.22029394188842377 0.11056088372793813 0.38109662204519867
      0.1980227734640804 0.17034206527017548 0.2633174118724102
      0.34472244385444567 -0.078840948969657362 0.15239315624514793
      0.32173918109205057 0.088158907213272811 0.2269014478889933
      0.042540497235270369 0.038389946997029578 -0.027325608653314376
      -0.21076127783287069 -0.17807239190536947 -0.058491906637799664
      0.11203512724070633 -0.30392544373505337 0.00015550107150375607
      -0.087640181979457499 -0.090491336393363805 -0.0090975897742871549
      -0.057250542056194821 -0.10891673907003484 -0.11442989391710051
      0.099102289072448169 -0.17424285221926683 0.22704354677127334
      0.085507896013344936 -0.15640418109068749 -0.1856912914182402
      0.21692971656273358 -0.40840235931527791 0.063817660210789093
      -0.12983781748816928 -0.24502518010481839 -0.51059906758613205
      -0.11265790888097807 0.15250542043795698 0.16512124086485266
      -0.033534772154253815 -0.16011306430322733 -0.16155930223565373
      -0.06267679183432126 -0.1789888141016803 0.090819588519644459
      -0.091154064244103106 -0.076540199735167055 0.10749145195032657
      0.050236675780434371 0.17619550694813665 0.23247361393279434
      0.53633919472831926 -0.0084146463688033937 -0.61081885058203689
      -0.13506687253499003 -0.12359892699195855 0.10266319882181528
      0.14489399763072636 -0.13477479213483487 0.2145654496923739
      0.24784315368055898 -0.057933968412558205 0.12156293585494751
      0.50933810126012913 0.17016638749869828 0.14646976717306576
      0.40484696390379332 0.20615848957444702 0.010583755291599696
      0.14316140767457952 0.59781222834992098 -0.16259921441214267
      0.12354433590637454 0.0041538285016104451 0.078733949450873766
      -0.059230707006626755 -0.22223255404193482 -0.64844907962975962
      -0.18746769808012995 -0.14352185543851759 0.03232710099569934
      -0.063093534863831999 0.70722897092421966 -0.1298483468472619
      0.038272862099447885 0.13779582909869253 -0.17366409418606096
      0.15219505163651356 0.094039135092569934 -0.21266802318081557
      -0.39988741545284501 0.14804898105958583 -0.22463779626937055
      0.010601140134331511 0.096191513805589421 -0.92264020748381559
      0.036842954583692827 -0.091120232553363115 -0.22178287628108562
      -0.14732633544352755 -0.1104113216435592 0.13140141496631583
      0.019886422446522764 -0.010530509458617356 -0.19412884991583035
      0.16602875487175967 -0.46540151693497273 0.64137032515200054
      0.029869761711384484 0.050368480979473954 -0.11709225770730869
      0.12909290566309412 -0.27428937096495265 0.063312560217930539
      0.14449551399397484 0.23193771719103221 -0.16067589855524478
      -0.56021784595012181 0.041808236650524085 0.0205471856220358
      0.012475682112705468 0.48389775155874359 -0.18344469758118392
      0.11745920969930042 0.12626131814893493 0.16648360880623714
      0.077497998189416967 -0.30834749817285506 0.34129623296454359
      -0.082145620230043973 0.061527318458863334 -0.018974441817111304
      0.061389384835589637 0.033481169141854027 0.37186334002604637
      0.14511897352204628 0.025320534421949023 -0.24686521563432762
      -0.17223691634454941 0.12430286434284576 -0.089504816118969641
      -0.41821514098866314 0.13943606100652253 -0.093777737209061532
      0.22530207085136175 0.20240095693306703 0.065125373520519975
      0.053091749476676782 0.047428606872513795 0.27187945052357276
      -0.063649147719211888 0.13693630913947391 0.12570846182411652
      -0.0032759129700333212 -0.63935756325053483 -0.074425596255030757
      0.14223960776847341 0.10162725106759345 -0.040666376348886833
      -0.31183262780312615 -0.19343761383764327 0.057506317172765491
      0.044604913586584506 0.0008103331478495103 0.059265346256186145
      0.046665043070456186 -0.03725299300107509 -0.16887964011224438
      -0.058550144854459717 0.42591107583955251 -0.67835346491546078
      0.86618646215400197 0.011145093696596567 0.14754133599007363
      0.083488849713201876 -0.070755401792938016 0.12489337148434518
      -0.097272144098614247 0.0013339494653546323 0.12653926533292198
      0.034137117732368688 -0.24373781388495699 0.14533726148264522
      0.26638602696481223 -0.14220922361896821 0.039747307342580224
      0.18147823674026667 -0.010085037178377533 0.14576786149786689
      -0.21707969385752077 -0.094378132586350805 0.28441581674626937
      0.42227065569271227 -0.065446298371783895 0.23768694431170304
      -0.064993689281205608 0.18696019791329949 -0.10382023808293585
      0.18354362765499152 0.24783198283614707 -0.29328263248434938
      -0.2082285478245644 -0.020243082311337091 0.070870558773501444
      -0.11246100920799053 -0.47725467953950929 0.0049402141794124303
      0.22344117472851882 0.47174895067791472 0.21897868215768554
      -0.26325051796751975 0.15897319042010485 0.16883265078067664
      0.38877130979338592 0.06409438548578128 0.20787085145196726
      0.33909634962556484 0.056487161908251322 -0.79175321254115283
      -0.067934621109526624 0.099422103505995493 0.28942082376672096
      -0.01292626825905485 -0.37933295108408022 -0.12480923983031546
      0.077264738104627709 -0.055607810833605685 0.25540345579738311
      0.098404517032170361 -0.071523955808959983 -0.057875832450668838
      -0.25589322827268113 0.039289409224484595 0.4764003251138903
      -0.61902099655911036 0.8590579410569027 -0.13914520051251936
      0.11343795254268267 0.19837077382614324 -0.16791793465191601
      0.19036443799963432 -0.074876097799835825 -0.14647000179516506
      -0.10026617166575602 0.052424427506708851 -0.096465032150750585
      0.23064212811194676 0.25274100823953261 -0.25755050221961573
      0.043748226055667347 0.17725535028449974 -0.05128054784346632
      -0.019555507520232152 -0.17353400220178131 -0.070202275222050498
      0.36909872842707486 0.15323798013259407 -0.12524896652502876
      0.31994733887316296 -0.22042061309850369 0.0012280142983858047
      -0.083181926297622541 0.068408248411568021 -0.015430300773340365
      -0.19335643916069076 -0.20236566709781428 -0.064126312267403854
      0.088828747303926162 -0.51322431360815512 -0.13998928457766344
      -0.069142784780607147 0.12461862035549939 0.067770747621945335
      0.1133296895956834 0.025275321589737297 0.34215293363926774
      0.1807723502748777 0.17098574329768373 0.03406926997184339
      0.083653286425232801 -0.082548131252808687 0.17669568816962083
      -0.34976947284592241 -0.12631546829836102 0.23734724332333607
      0.071177775187927519 0.0035482224855917714 -0.61446996452728986
      -0.082480164753631957 0.060166789614479112 -0.043575589207990859
      0.11077693628246317 0.044123999800707997 0.011821586426304508
      0.056385287820779818 -0.034455187136555182 -0.081258464268370578
      -0.014236847539315331 -0.037886122373481927 -0.22664268579473051
      -0.070461325306872172 0.070931272778104043 0.12016112885494798
      -0.11810416238288285 0.064399907922712246 -0.061024250337580792
      -0.051678936521517796 -0.21483341555440275 0.21730659048007239
      -0.3057598227338334 0.15491995072004766 0.019004254954803439
      -0.015446996467801111 -0.049076257361377093 0.044936168705819589
      0.074487313171620842 0.24871660245387145 -0.39841276671482539
      -0.073122412162560824 0.47759272814324044 0.05049921163483765
      0.12695321528752232 0.090131247988869456 -0.16671907791906815
      0.043995606063011193 -0.080636558864371571 0.017350933965058699
      -0.03517400197661924 -0.1098684770192247 -0.021832881984783874
      -0.19481150790835958 0.20263319528280363 0.12243785299257783
      -0.17800037499549598 -0.012722433242570918 0.59488668675590739
      -0.014936385208975014 0.12862642522200016 0.36219532494313783
      0.30270683407986088 0.20707735503658006 -0.86259228311210467
      0.17670284699871092 -0.1233998526609047 0.056303487653388808
      0.082160849347549372 0.24829613819444768 -0.094976282390884195
      0.28179415315709766 0.092661289057815635 -0.18157821738608679
      -0.62954092584640364 -0.069912157969600874 0.33639665040236078
      0.088902468789753414 -0.29062236006611564 0.21408214968864966
      0.04515438326944067 -0.23664490637009966 -0.12256187535920653
      0.069432020619724547 -0.14097028077236295 -0.016774359741663254
      -0.78370139900526214 -0.097306234150354151 0.085441216877381501
      0.14983463298078678 -0.075773842553337162 0.33924292096452424
      -0.16777974323218872 -0.11559501617780953 0.17617929608987148
      0.19428593301923802 -0.13374967311077424 0.077317954937362376
      0.14614090164134583 -0.00671914314088491 0.1591633837485196
      0.21591878727797872 -0.14651724627046725 -0.20992760396863452
      -0.13990730727271461 -0.21298332942531301 0.35105995366695325
      0.21005514057779884 -0.23917326896322433 0.393559253469623
      -0.11559288799216741 0.10241705843018781 -0.13713238876351108
      0.098573344220029752 0.042776532461006565 -0.25855495508021653
      -0.038271517589431994 -0.045956231242239742 -0.18694309257831795
      -0.027190847656442477 0.082694853466903917 -0.15635787697836614
      -0.2813343315583714 0.054543478679796718 -0.011921564213365222
      0.060242513305895973 -0.086704830731895666 0.22459358520487652
      -0.50458325493920175 0.17991822315621664 0.072128457044742994
      0.079978090583702213 0.19462317656353267 0.080923980562859862
      0.015085586052626485 0.097292482593327748 0.22485254697384097
      -0.13136825345407632 0.61981880523975863 0.076842919595662876
      0.022250260374590738 0.22800938567056706 0.63869197885626816
      0.088222807236529033 0.0090751743018368317 -0.20715410646348414
      -0.14691340954166995 0.08394055933317944 0.13809530604770154
      0.30155095120252257 0.014332082172045886 -0.14423137438245878
      0.1680040625857866 0.13614355271531645 -0.079602361502437588
      -0.52043117485960155 -0.12128307496472669 -0.12980523304437044
      -0.54907359513136522 0.20208538955728519 1.7686223723499013
      0.077844532481677012 -0.12518677044791982 -0.13402162823025604
      -0.044722957423717312 0.10644210532918198 -0.044825565321327233
      -0.4455413888371898 0.057805304814612532 -0.18178630341481425
      -1.156086030936496 0.22474744033810337 -0.20469856170898559
      0.37027065449301017 -0.21168512099408426 0.14245783622939603
      -0.10297196069650642 -0.012659988319264869 0.072473823949197283
      -0.0091766834000163826 -0.15516082954220178 -0.063474761160545692
      -0.0023788414070594435 -0.086905983320181235 -0.33324535914242248
      0.081378563638395671 -0.060835331615705181 0.19007107555725858
      0.07500975088411338 -0.10260804414008635 0.4614467614539236
      0.084114050944729735 -0.22671122534066515 -0.04368606686721966
      0.1469983278967289 0.0085845404141785542 0.061571608784266735
      0.60013691331743868 -0.027438576756953076 -0.088879365002608637
      0.02045519096801272 -0.19344454804160993 0.77836348748252049
      -0.10458358820979924 0.061405462716336311 0.085451830734960169
      0.28097348589153143 -0.057722496403058085 0.0260011146683422
      -0.045928917476369714 -0.058947885225846174 0.14132342214063021
      0.096443261177789757 -0.40114112041037442 -0.94009021599804965
      -0.0504418403346149 0.23421647922543468 0.050894518857488122
      0.080170774226054051 0.4344171891782852 -0.1251110464742039
      -0.099647833374142902 0.37203698679059444 -0.067204550705388555
      1.005042513018382 0.045036477287826636 0.088241875495635599
      -0.078434524491572871 -0.31438669857900542 0.30489522039608619
      -0.10345324996262847 -0.44500080636242889 0.18302102540708412
      -0.053936201707748141 -0.44623526913170619 0.33086591463376885
      -0.097651182356510408 0.23841275968515438 -0.18310522613655664
      -0.023227144469257454 0.16206085031864065 -0.17839541298266695
      -0.14160074995563018 0.105532822730276 0.10423026699272776
      0.13364659151424424 -0.20117650806290213 0.042114459403602429
      0.059204618184272292 -0.16139078139682045 -0.070248806013528245
      -0.36775770039192318 -0.22400399942926491 -0.018616490627237081
      -0.067522871625727537 -0.041663691964702161 -0.03670921427874866
      -0.22076058421431663 -0.047899104214337795 -0.23300823510121993
      0.068355091560560882 0.27441567705937897 0.14520293951423044
      -0.28879750078892624 -0.019654306137397808 0.082874113245060596
      0.38857522872966355 0.093970409744752348 -0.13482457040621523
      -0.13324668444395749 -0.080274945755015176 -0.16112346171351613
      0.22852958404529283 0.042508692512468353 -0.041195715821389804
      -0.22551416392520762 -0.26048685797016496 0.019372347756146834
      0.1244483912469334 0.037188898880381363 -0.081457773664972241
      -0.14774134180392665 0.23102634940593808 -0.01283000264314536
      0.10520502224767857 0.10309182310628406 0.31189673796133327
      -0.11586487950012299 0.51254124879090812 -0.14304807099525918
      -0.14035553984260429 0.13000881485977553 0.29363723866943758
      -0.10762297246310289 0.16598389162367885 -0.061829289646915628
      0.13950818292866751 0.11827530977980241 -0.18086482847460791
      -0.20722411503488625 0.031015007533976211 -0.24524707681697655
      0.084053373215998484 -0.11581874550629113 0.0006317836125389303
      -0.18192093326540468 -0.081369711579376017 0.22460499328190409
      0.19257162952723811 0.088186796820575591 -0.018024566380449015
      0.077223351745523167 0.044041812787527022 -0.130850304832791
      -0.15331839597858338 -0.27008722604706031 -0.046954989163691077
      -0.088215686034978938 -0.059339307094927553 -0.11704386530151116
      0.16037711115854247 -0.23183917548025784 -0.18215182344766034
      -0.12198310876777105 -0.17630176244777748 0.37376155681960921
      0.097885980025486166 -0.11843234017351917 -0.18875870170276238
      0.14122643490311901 -0.11216294891984725 0.10765934850616603
      -0.10941999706435065 -0.25433812570719183 -0.21002221913420455
      -0.1233333112369476 0.16237007248065283 0.2435072481742333
      0.047904542878853082 -0.0086910429708550747 -0.20920420394837347
      0.055382987090796289 -0.0079379574213062545 0.10395990830668778
      -0.14611653768985047 -0.084006045641937893 0.024716239786963187
      -0.061160733967596144 0.20893300050783048 0.1887043434384619
      0.40392955956089788 -0.18023336002197918 -0.18539427091885882
      -0.1122742781009378 -0.1076953595757537 0.1595999093152681
      0.12871368308181705 -0.11784700974682936 -0.0023624590479865608
      0.15868423995244296 0.15591544324714565 0.10410501918555438
      0.29350993961126148 -0.46087028885324072 0.14832710727982099
      -0.15740248227834872 0.16710564231739536 -0.26048505851417142
      0.016533598461314639 0.15087392625590548 -0.20779274925105268
      0.23858151381991541 0.16601384573704422 0.054900128811760068
      -0.29839025148738524 -0.15325324566136009 -0.25144548198719718
      -0.24058310166526828 -0.14564122678591562 -0.1870055201529458
      -0.11567316452223557 0.45703850324452228 -0.076993205567325348
      -0.080985588372749287 0.078544937765166911 -0.10066502585460647
      -0.19984615773649334 -0.054766057355316429 -0.14377507749068785
      -0.22373752748638673 0.19307743848409706 -0.070017653032799193
      -0.079464927917826625 0.16375082071719657 0.17410220621184228
      0.096245415546487897 -0.088294840842489161 -0.036004972981282399
      -0.026399146417140695 -0.10459048821375357 0.25313063973947586
      0.17019058009711333 -0.049064850505121445 -0.25881456568423933
      0.04986455621397607 -0.033612405143111326 0.30799538465508652
      0.091222778770572041 -0.12699593834557682 -0.1351708053564199
      0.036879628566654658 -0.49674318863930322 0.056853605619246919
      -0.0367606754541034 -0.018140315835683405 -0.0040392614743722712
      -0.29136541691404066 -0.20683965500159626 -0.10187737435943817
      0.17201924247802894 0.27084057915997944 -0.13904604038489451
      0.21146535802741731 0.24042463356324054 0.12007329179666311
      0.1544346055473643 -0.16170452984195269 -0.2160413617693584
      -0.00015906301824355717 -0.51466967111052286 0.16195393706671668
      -0.063086813354289312 0.0088446752335165097 0.015759252891379721
      -0.047811525312382606 -0.10433798629707974 0.030319904464859528
      0.15589838242690215 -0.16127895117428553 0.026284411842465171
      -0.083856561070369984 -0.13144864760570635 -0.053878937453922679
      0.050363118122922379 0.00027228876665822132 0.22225228202355379
      0.022070261997165427 -0.023445613444262322 -0.027189033884798746
      -0.15866008285245217 -0.057286140241402959 0.088553749990486916
      -0.014367236347468908 -0.10128184240043264 0.099889234229158561
      -0.0038373082002452984 -0.0043265861389296667 0.094697190413423227
      -0.33441869464387991 -0.069835080612735148 -0.023075392343382441
      -0.0062995037972875707 0.0065181433674565102 -0.093997754444751683
      0.017264597259457299 0.053204841952776971 0.065078714594739823
      0.021007844646416193 0.12267491154097604 -0.10026301182244145
      -0.30334703218336395 0.015794329243625359 0.098909543294915497
      -0.11825239441480832 -0.027102526400756648 -0.0042214905641852684
      0.065557334764338671 0.030552460544441495 0.073673756814367761
      -0.070740459115300192 0.048562248027598384 -0.046194241484530808
      -0.0056934003440612451 -0.010240517191073042 0.28516301760311052
      -0.17979032229219455 0.16479031070309708 0.16638788176077926
      0.058074448495496984 0.022871669591982075 -0.11905832166327207
      -0.15357795910437949 0.11998875734947646 0.062980982989856923
      -0.022238274893955617 0.056321400965479995 0.034799061963086929
      0.22670173120385101 0.075672694210827715 -0.19246779451235754
      -0.11879885561372787 0.10778474101910689 0.008978615562734292
      -0.070091544207627171 -0.056951023206655592 -0.03955214492049039
      -0.066623814546527757 -0.0034992122694635745 0.044204797967555588
      -0.16793075739599864 -0.18676886075476976 0.0083869864520213361
      0.26432787188907408 -0.056863384871085138 -0.026511057509280952
      -0.044304833096094176 -0.088898748742145414 0.01221295926532817
      0.02832160944726865 0.053718241569038323 -0.017482584495043575
      0.092054521383204205 -0.31063479327911953 -0.11471111708019441
      -0.060064586539349943 -0.20401580997086777 0.076065778432629003
      -0.095798062057534064 0.033510640426044395 0.031875340984237679
      -0.10811557305621107 0.047065538768219964 -0.055074617733513076
      -0.15063988501011508 -0.10089480923566779 0.0069152641886108396
      0.09186404348921258 -0.055632121583049234 -0.014901330829313093
      -0.071515981573447393 0.015251650051612976 0.034908617358742608
      0.12163889768017656 -0.099920644307344569 -0.040518914395783978
      -0.010172633464420518 0.037097184813117155 -0.02255161867050616
      -0.19962956914231814 0.0015532646119661066 0.054330459605258945
      -0.057873659078565599 -0.085132008553010577 0.014646476915283091
      -0.093924360900047507 0.14546727592527134 -0.076654347976874315
      0.18567232952548673 -0.14172184976556154 -0.044745746002963764
      0.13030999797839252 0.062523874891530468 -0.064596960264188527
      -0.10265752085710377 -0.16998999548337818 0.025504755742564601
      -0.10857507013681734 -0.09426822269853069 -0.046304397149737886
      -0.14267628195410267 0.043351407083727769 -0.33320301032458688
      -0.09875168898149933 0.078536311151799404 0.27169427952510566
      -0.025366414087179285 -0.14926781497037267 0.014544531918041462
      0.028614412824476503 -0.2623684963236434 -0.07573275054285511
      0.89043564097330363 0.076989689748137261 -0.018679576439419095
      -0.063246573470516376 0.072229461472140363 0.019627876160953461
      -0.14744733091488074 -0.069997927785277705 -0.25356196382829055
      -0.055719516948156946 -0.052098814614283118 0.17278812531433771
      0.034620944856210034 -0.040049242197160766 -0.060710931896820024
      -0.038807623240683216 -0.056234748304169038 -0.34904879236331193
      0.019852194874279177 0.068111437636159539 -0.036235618743962021
      0.20066000072876575 0.06013054208584933 0.059816780001219386
      -0.044440709618517177 0.37344736476867613 -0.12485428339021315
      0.11584692538070378 -0.052763558770670946 -0.028139170437225587
      0.084224754269341007 0.10647692825191657 -0.12896957627345645
      -0.062353389027634931 -0.085509941631925365 0.19066806508568659
      0.044186661400485806 -0.083286084376380395 0.18501416892215913
      -0.059663520187452697 0.28283385151796586 -0.23381349785451042
      0.14338123595626107 -0.1752763994655975 0.030439067822846194
      -0.019548545951186221 -0.098044052854727268 -0.071058037917680561
      -0.16010371359370973 0.012484574904418257 0.021461226304312638
      -0.14143142704374012 -0.15733412550929429 0.28247828486828463
      0.068421016521817299 0.11858841406527235 -0.16470542674047101
      0.29052327100727987 -0.037330064711215062 -0.43526558324047593
      0.075421820426961703 -0.030343374174037749 -0.13240240273065854
      0.18849117273511287 0.59108459480074738 -0.016262742731769215
      0.13232541332853762 0.094134208687145199 -0.13279998762700143
      0.029506870833066107 -0.036640786370870836 0.23940101141402362
      0.20424361388599444 -0.30386401201075369 0.11399370112487851
      0.10469736649453723 -0.15608278477624707 0.028938781915187506
      0.12756163803280698 -0.30446896349232438 0.55421931574271777
      -0.46565599292687548 -0.18528488540572535 0.095236707445260319
      0.14586837063897556 -0.11098307610462149 0.37646142535367744
      -0.020475427316198353 -0.042790169238042228 -0.030343357738525697
      0.11980384164824309 1.1843858042665374 0.11703437737295627
      -0.075085298806002843 -0.042240755825418863 0.0068875068169542385
      0.15423199971954693 -0.15979435884979504 -0.5178597409218999
      0.048946883177320495 -0.32075275657004576 -0.48837297847675992
      0.21582768136342798 -0.081017149677580919 0.5642796051318133
      -0.10823395084433075 0.10785903401529488 0.013849797681765903
      0.28434225802535767 0.14799069351784405 0.074618870936186646
      -0.15717112786334789 -0.039534313111070279 0.041331012772740199
      0.02625623609623742 -0.37927734461802493 0.21585005485183223
      0.10606298606685129 0.37497807596477134 0.064243086341777778
      -0.24085141182134279 0.2039851147002438 0.041917370496490025
      0.086847116258880155 0.034737404757422034 0.088018304116522061
      0.16025352753745312 0.16765082437685855 -0.20122311148236241
      -0.10079150724200994 0.023754417562481474 0.1151683330651652
      -0.16163798269956686 -0.41085881305535898 0.01823487292952464
      0.19303087243353276 0.17863171017439447 0.11510848042479843
      0.23744484983079411 -0.1770707633928898 0.084370232870551398
      -0.26252549421149851 0.029296077573463405 0.065457367603607944
      -0.63316205859458607 -0.25489603598581106 -0.123816302188215
      0.056209629164276985 0.16085228475418914 -0.13945348173224531
      0.15157254680016907 -0.18115135268563962 -0.17683478952725984
      0.11571667280242799 0.14184024717004329 -0.71995005626527753
      0.22302828248007484 0.15963178462096525 -0.26950277356953961
      -0.23840218573803598 0.061478172270439113 -0.12490164467917508
      0.088983275939122447 -0.087717999373437605 -0.15289523871019359
      0.13201764574228622 0.35618045970901041 -0.17158540707996292
      0.0012345592359944005 -0.040651789597903443 0.17972333526770892
      0.083793724388523894 0.37198728335426817 0.17280655248420781
      -0.13580635726916007 0.019281526553227398 -0.01784062797602351
      -0.10866854580060924 -0.093805553243219139 -0.03116628886320055
      0.29994900709639011 -0.28973842776586733 -0.032970439779737439
      -0.017762312891753684 -0.44250486195829669 0.16330565707598549
      0.23494344821069321 0.2278567585690261 -0.018301968623437689
      0.18903727108801016 0.18446406508756258 0.035528972540975624
      -0.39716474767757137 -0.016566337893614787 -0.0036988237878783129
      0.074050154816750716 -0.075874363925699892 0.13408881619516816
      0.0073391420456189981 0.19254116808525071 0.20605358561257595
      0.60867977713203869 0.036802280149928292 -0.057918926889883419
      0.041267387361064799 -0.21853520014331504 0.1175152207357016
      0.53649765243422098 -0.44444890439690571 0.53828142645009991
      -0.092292020223104773 0.10410775265223481 -0.040842181940305866
      -0.12646612798301871 -0.77620212297330249 -0.16370869175674482
      -0.10318530555443223 -0.11428865639843391 0.064131016453728887
      0.016969814317419334 0.22171944845011113 -0.032724526069409079
      -0.10192277641787074 -0.23801143444595863 0.095800135355649546
      -0.13121261560714623 -0.11012774545473325 0.0015682162958695163
      0.085546838153391036 -0.35280317528185606 0.20125342555870743
      0.016462036999403368 -0.44050305323090566 -0.073000033442171347
      -0.0054114028443589396 0.016059240330462118 0.15251752004001415
      0.030919397829242499 -0.022556415323922118 0.12395462736985637
      -0.030707771852204368 -0.059862837316287443 0.18470848315828911
      -0.23840527975797859 0.026875899503120859 0.044733183119840841
      0.14432960271416262 -0.047746197079311166 0.36589280671214169
      -0.041572080745386722 0.071465876316661972 -0.054088019670722916
      -0.089115375218535728 0.16919015940294241 -0.055023616291154508
      -0.053561350345467287 -0.045723043347660176 -0.0097794249538086866
      0.021536860029465057 0.063761416845498908 -0.00035059301705202712
      -0.29790912900754257 -0.090987502833057579 -0.083543051533044879
      -0.20171416652720367 0.0798130318963029 0.001039084385200232
      -0.064262264086547061 0.035148067540786893 -0.034810058459017107
      0.061652377694101188 0.12542578855654882 -0.32033336246282601
      0.12563914488891564 0.0023836334389703878 -0.11210120417683118
      -0.048328311527763651 -0.004548944773857617 -0.12463911126965525
      0.0072250255428598035 -0.12618531605906186 0.10783326268981484
      -0.025214169204038538 -0.15419058950872824 -0.084294576053735928
      -0.12335083665061662 -0.13153440576607189 0.029219579668143082
      -0.10020001607988012 -0.044250821063002814 0.00048891948606342983
      0.15913231450657089 0.0086788477066927945 -0.15388847049987875
      0.036047615880428222 0.20103782322449515 0.10428172343585919
      0.16291319667934648 0.00044935778323784199 0.043481358364535976
      0.11199572485533647 0.16256252748387698 -0.17284666935876455
      0.0083244189233546498 0.013774769339518596 0.083696321501464013
      0.050073876270493742 -0.21799060186427643 -0.0090785086067837941
      0.37416565399216084 0.08616955582825625 0.01508633013309729
      -0.1195776355620938 -0.1695294385604888 0.12859778271532099
      -0.098997904980739973 0.0097267552158906527 0.10927112571221707
      0.35428214370934735 -0.01613594867695899 -0.1917818094113031
      0.010563115250227632 -0.1044990329770282 0.127198127975437
      -0.041332860756190505 -0.025310763415368046 0.0033258509489519326
      -0.013635316631365937 -0.117571470128915 -0.033741860252452037
      -0.037688078972030581 -0.12857117913898528 0.14076386298090787
      -0.28008310022760946 0.012237134577841842 -0.2040895726851393
      -0.16085841978331289 -0.391718450942459 -0.016519280619287809
      -0.10615718011149798 -0.043475005462104775 -0.048646418400194402
      0.19016444969272581 0.13657125580368915 -0.095304746196946288
      0.16092176618740658 -0.070694015541332644 -0.077107429146176992
      -0.0018902252925703574 0.057423706608572121 -0.1445829980086385
      0.002045649504312296 0.01859055788984032 0.045063338890625776
      -0.056971788779347797 0.10427622563985652 -0.071367462051469349
      0.38836014487373044 0.13742616872283997 -0.25730335628589551
